/* Autogenerated – 25127 float32 */
static const float g_nn_weights[] = {
  0.66556662f, -0.03133770f, 0.60009879f, 0.14208975f, -0.32327053f, 0.01430231f, -1.08260095f, 0.18971758f,
  -0.69285744f, -0.26007360f, 1.33127248f, -2.41924214f, -1.35076237f, -0.75307590f, 0.65839940f, -0.07563853f,
  1.21980834f, -1.43590808f, 0.69207692f, -0.47882056f, 0.16826895f, 0.09048978f, -0.06349083f, -0.09011371f,
  0.37027577f, -0.17208849f, 2.43459916f, 1.39621484f, 0.69399476f, -0.18746668f, 0.12798303f, -0.13763101f,
  1.01053774f, 0.87831402f, -1.65733755f, 0.24068286f, -0.66312343f, -1.03744566f, 0.87825596f, -0.02477672f,
  0.40812513f, 1.92687058f, -0.60153198f, 0.71306694f, -0.53919667f, 1.34031987f, 0.36982438f, 1.92797601f,
  -0.43441388f, 1.40260136f, -1.12840188f, -0.48455521f, 1.41845131f, -0.80533141f, 1.82781160f, -0.47453889f,
  0.41264248f, 0.07113235f, -0.01086690f, 0.61276245f, 0.62577564f, 1.11354685f, 0.35464334f, -0.77372980f,
  0.13065530f, -0.41868180f, 0.13343143f, -1.11661243f, 0.60870850f, -0.63350093f, -0.80881798f, -0.97060293f,
  0.41801518f, -0.10445500f, -0.27036542f, -0.37124181f, -0.61513209f, -0.86266237f, 0.64924955f, -1.56070781f,
  -0.17848499f, 0.12836368f, 1.75337529f, 0.35068440f, 0.50843292f, 0.78947961f, -1.19395435f, 0.49095944f,
  0.05277881f, 0.84849054f, 1.04959524f, 1.42697775f, 0.77469623f, -0.28335783f, 0.21498340f, 0.14139283f,
  -0.68579215f, -1.06252408f, -0.64721864f, -0.10780831f, 0.88040835f, 0.42548159f, 0.41579559f, 0.25956687f,
  -0.01503697f, -1.14907515f, -0.28170305f, 0.18724529f, -1.20207119f, 1.68916190f, 2.19031954f, -0.53327435f,
  -0.44989178f, -0.24742636f, 0.96424401f, 1.24326026f, 1.45035601f, -0.08442008f, -0.38177082f, 0.35253522f,
  2.31397939f, 1.70606375f, -0.76538438f, -0.62123758f, -1.65503955f, 0.67494547f, 0.81660104f, 0.04118282f,
  -0.01512537f, -0.43873367f, -0.93259144f, -0.12543581f, 0.83058906f, -0.99395287f, 1.03220105f, 0.81298411f,
  -0.86872154f, 0.73547035f, 0.66886801f, 0.81458712f, -0.58926898f, 0.21932085f, 2.61151266f, -0.16138329f,
  0.53585255f, -1.30884254f, -1.55730832f, -0.72402155f, -1.24742830f, 0.52157682f, -2.18202090f, -0.52744472f,
  -0.63099754f, 0.72120661f, -0.42401695f, 1.90167427f, -0.87805575f, -0.49987295f, 0.71688467f, 0.70722097f,
  0.55015588f, -0.13455683f, 0.89003253f, -0.72474301f, 0.47949913f, -1.62794828f, 0.49118474f, 3.03028536f,
  -1.68995500f, -1.59875226f, -0.62501007f, -0.98578447f, 1.39737129f, 0.39612949f, 0.77344626f, 1.53626740f,
  0.99553269f, -1.03372121f, 1.23614562f, -0.52888322f, 0.06883559f, 0.01657713f, 0.70653397f, 1.12030268f,
  -0.13397956f, 0.61100161f, 0.97554004f, 1.65854597f, -0.33153918f, 0.92298770f, 0.48718649f, -1.07053566f,
  -0.53693897f, 1.42407537f, -1.21739531f, -1.19626319f, 0.17984588f, -0.29996681f, 2.67250276f, -1.92398977f,
  -0.83102405f, 0.40551743f, 1.16239107f, -1.48523283f, -0.33602697f, 0.33791980f, 0.33311874f, 0.42516997f,
  -1.04075158f, 1.57556295f, -0.97118890f, -0.71788162f, -0.78658193f, -0.51221091f, 1.90302229f, 0.45788190f,
  0.45132807f, 0.49971592f, -0.21963325f, 0.09752219f, 0.87301612f, 0.11020022f, -0.10144938f, -0.41799557f,
  0.66973543f, -0.37323564f, -1.49281251f, 1.11446011f, -0.67262459f, 1.01936579f, -0.66162938f, 1.83402932f,
  0.45294249f, 0.27231348f, -1.75053012f, -0.70831776f, -0.38993761f, -0.87531376f, -2.18098855f, 0.26038662f,
  2.26411128f, 0.85537571f, 0.21495558f, -0.01106954f, -1.92070913f, -0.22665928f, 0.69123369f, -0.69519532f,
  1.10743475f, -1.01021993f, 0.47817898f, -0.76302999f, -1.32088685f, -1.86468542f, 0.02695678f, 0.61367553f,
  -1.27221358f, 0.98951840f, 0.62496263f, -0.72150433f, 0.60753024f, 0.24182200f, 0.82010466f, 0.29083449f,
  2.00521135f, -1.60407031f, -2.81484795f, 0.65964478f, 0.89575326f, -0.27638736f, 0.10699869f, 0.97103500f,
  0.86525810f, -0.74146932f, 0.31805450f, -0.35341892f, -1.05119693f, -0.19152841f, 0.62167579f, 0.86153996f,
  -0.57083744f, -1.56311572f, 0.49427441f, -1.08100009f, 0.60401779f, -0.34289685f, -1.00645757f, -0.15325484f,
  0.08034323f, -0.27290210f, 1.15003586f, 0.25857589f, 0.33032450f, -1.16025162f, 0.00037292f, 0.44031629f,
  0.49770376f, -0.72984642f, -0.83428395f, 0.25243145f, 1.20970154f, -0.90798241f, 1.43065560f, 0.71873534f,
  -0.59965760f, 1.83360982f, -0.53068972f, -0.07636894f, 1.52413154f, 0.68705702f, 0.38989508f, -0.67339802f,
  0.90988147f, 0.02722346f, 1.64290273f, 0.20472097f, -0.05488965f, 0.41860339f, -0.13731331f, 0.09548672f,
  1.75559008f, -0.20849334f, -0.45165622f, 1.03561938f, 0.51634866f, -0.07042155f, 0.64545041f, 1.49646151f,
  0.15135658f, -1.08843923f, 1.01444995f, -0.79346591f, -0.42433101f, -0.62074089f, -1.89948142f, -0.76392841f,
  0.38249055f, 0.97696644f, -0.63585180f, 0.10682761f, 0.34895018f, -1.48566735f, -1.29748905f, -0.48417020f,
  -1.49489403f, 0.81739134f, -0.39875180f, -0.66168708f, 0.31225973f, -0.29485989f, 0.60351700f, 3.25003004f,
  -0.98645926f, -0.27375734f, 0.90296066f, -0.99825829f, 0.61290401f, 0.25720671f, -0.97528934f, -0.77842152f,
  -1.94059598f, -1.55544376f, -0.15005748f, -2.10642695f, 0.25137073f, 0.21551445f, 0.53025597f, -0.41917834f,
  1.28922546f, 0.42888889f, 0.72220063f, 1.13851774f, -0.69383466f, -1.38512814f, 0.51441526f, 0.55056626f,
  0.86777467f, -1.53763413f, 0.22240865f, 0.59256214f, 0.94794559f, -0.33490631f, 0.18801884f, -0.02268906f,
  -1.74145067f, 0.91575652f, -0.36331531f, -0.09674920f, -0.63585180f, -0.62638736f, 0.20919746f, -2.59467483f,
  2.10381651f, 1.59381998f, -0.30791450f, -0.48771194f, 1.14390850f, -1.01431239f, -0.92503226f, 0.31832588f,
  1.89887071f, 0.18699369f, 0.82717365f, 0.60815287f, 0.49532178f, 0.32394984f, -1.35847294f, 0.30035931f,
  1.09330952f, -0.65232444f, -1.08899760f, -0.24326383f, 1.23572183f, 0.68897307f, 0.87796396f, -1.50220442f,
  0.57847917f, -0.41035670f, -0.65558451f, -0.37613651f, 0.12784028f, -0.67176884f, -1.51897991f, 0.74985355f,
  -0.39146093f, 0.76704252f, 0.62948191f, -0.76526767f, 1.05898011f, 0.51731730f, 2.81440330f, 1.37279844f,
  -0.89656788f, -0.32406163f, 0.23117648f, -0.60732830f, 1.28238261f, 0.00909993f, 0.65343207f, 1.38575161f,
  0.51125127f, 1.55443144f, 1.42830694f, 0.56500256f, 1.38395345f, -0.25742871f, 0.42986828f, 1.86173165f,
  -1.20212543f, -1.38338947f, 0.28431901f, 0.33408669f, 1.25632691f, -0.76447725f, 0.08469260f, 1.97282732f,
  1.36974943f, 0.19271955f, 0.91802502f, -0.93642420f, 0.04668692f, 1.06315291f, 1.34202015f, -0.59727806f,
  -1.73422933f, -0.45429531f, 0.09837361f, 1.17358828f, 0.13198368f, -0.95260519f, 0.58865327f, 0.41262427f,
  1.99578977f, -0.11350827f, -0.33516112f, 0.38923445f, -0.59522659f, -1.38439691f, 0.37255737f, -0.31939545f,
  -0.54592603f, -0.16815113f, -0.74876165f, -0.41353610f, 1.31984031f, -0.44910005f, 0.27576551f, 0.72043270f,
  -0.98115611f, 2.95898151f, 0.16678748f, -1.79414761f, 1.49383163f, 0.66545796f, 0.06735993f, 0.73040825f,
  1.42222226f, 0.12702246f, 0.76326811f, -0.86541033f, -0.15213308f, 0.39820045f, -0.79278433f, -0.05784335f,
  0.81381387f, 1.22433674f, -0.91295481f, 0.96958458f, 0.54336649f, 0.94566989f, -1.46249938f, -0.45348367f,
  0.66139394f, -0.53922075f, 0.30328417f, -0.98832667f, -1.01629460f, -0.04936000f, -0.92864060f, 0.27796549f,
  1.12352562f, 1.15643799f, -0.71957946f, -1.57845199f, -0.05930563f, 0.37076598f, 2.27455640f, 0.16263019f,
  0.67906338f, 0.76205361f, 0.31547153f, -0.58841735f, -0.01093363f, -0.16666767f, -0.72542614f, -1.75654984f,
  -0.42280564f, -0.55633992f, -0.46830234f, 0.76532656f, -0.33309972f, -0.44200531f, -0.41167757f, 2.52388453f,
  -0.22059453f, 2.28522968f, 0.47020525f, 0.44272724f, -0.57159823f, 1.31850374f, 0.61098778f, 1.24028313f,
  -0.64276898f, 0.76244140f, -0.81824905f, 1.08490932f, -0.27741763f, -1.28280568f, 0.94304430f, 0.00612441f,
  -1.41223276f, -1.11112893f, -0.35481688f, 0.93892658f, 0.46557277f, 0.21978197f, -0.65882814f, -1.04145908f,
  0.65807682f, -1.67905450f, -1.02949333f, -0.70618302f, -0.84854025f, -0.62764442f, -1.03482878f, -1.81028581f,
  0.05468928f, 1.00787568f, -0.49127045f, -1.48956311f, 0.65818310f, -1.39175129f, -1.37829173f, -0.21845934f,
  0.57711065f, -1.98518920f, 0.39057145f, 0.32663578f, 1.39334691f, -2.11661482f, 0.80943400f, 0.16211814f,
  1.05370677f, 0.75305194f, -0.12050977f, 0.74032921f, -0.86279851f, -1.48763096f, -1.63927662f, -0.46510419f,
  0.91505814f, -1.15502536f, -0.65901816f, 0.38056278f, -0.36529630f, -0.92076927f, -0.26091957f, 0.72472686f,
  0.37622157f, -0.28713596f, 0.03896357f, -0.98423070f, 0.79433721f, -0.29396990f, -0.27336642f, -0.27119252f,
  -0.11197235f, -1.09283137f, 0.75297117f, 0.96227586f, -1.07417858f, 1.71680176f, -0.03067293f, -0.08452339f,
  -0.48237148f, -0.56566417f, -0.58189189f, -1.24354148f, 0.53220230f, 0.29389626f, 0.17911568f, 2.04429317f,
  1.11346912f, -0.37749544f, 1.21137750f, -0.50923538f, -0.01580146f, 1.43237746f, 0.91413027f, -1.12618518f,
  1.27053559f, -0.14189413f, -0.50944471f, 1.86560357f, -0.38904175f, 0.08092413f, 0.15749423f, -0.18160705f,
  0.51408577f, 0.84282774f, -0.93872660f, 1.21541536f, 1.18235576f, 1.24533737f, -0.16224200f, -0.98075449f,
  1.31240344f, 1.65708542f, 0.19003889f, -1.62046289f, -1.28840017f, -0.95526969f, 1.79572535f, -0.74026346f,
  -0.41609490f, 0.37444606f, -0.20039004f, 0.23328686f, -0.28951356f, -0.23877057f, -1.71417260f, -1.77081430f,
  -1.33427882f, -0.03055286f, -1.45409274f, -0.95707375f, -1.34946811f, -0.08204556f, 0.74337327f, 0.76346707f,
  -0.03911551f, -0.65332037f, -0.61696184f, -0.10306376f, -1.14596331f, 0.48604810f, 0.61188525f, 1.82962251f,
  0.12040532f, 1.28754234f, -1.90709972f, 0.68438071f, 1.78442359f, -0.67795104f, 0.80109805f, -1.93006670f,
  0.17441151f, -0.60748297f, 0.18945771f, -1.97619724f, 0.89378268f, 1.55971313f, -0.98035538f, 0.20472315f,
  -1.82810986f, 0.38312835f, 0.20383340f, -0.25732693f, 0.03391981f, 0.52227217f, 0.86481011f, -1.16050482f,
  0.68404984f, 0.02632360f, 1.55246639f, 0.16572587f, -0.85910785f, 0.10872507f, 0.43188286f, 0.68260038f,
  0.12847115f, 2.61908150f, -0.79852957f, -2.08409095f, -0.14598332f, 0.03268300f, 1.26893425f, 0.39386889f,
  0.97949260f, 0.14548896f, 0.18348221f, 0.58212042f, 0.09372023f, 1.04252851f, 1.21974206f, -0.60063577f,
  1.11866236f, -0.90566015f, -0.88522971f, 0.76464778f, -0.18158071f, 1.43955290f, -0.84267557f, -1.24981737f,
  1.20669186f, 0.80532342f, -0.06805568f, 0.62028384f, 1.33163273f, -0.45937043f, -0.01153742f, -1.81549728f,
  -0.60964489f, 1.30580378f, 0.08869799f, 1.04463208f, 0.26396430f, -0.45731071f, -0.01293993f, 0.25977314f,
  0.71354759f, -0.81190449f, -1.25185585f, -1.16930556f, -1.21676993f, 0.74839574f, 0.09064795f, 1.14122212f,
  0.22462308f, -1.54223049f, -0.32456994f, 0.94503760f, -0.44494539f, -1.06009018f, 1.21520185f, -1.82171547f,
  0.57939261f, 1.09971380f, -0.85830051f, -1.85066271f, -1.41576743f, 0.69000155f, -1.27284765f, -2.06636810f,
  0.21458809f, -0.60137433f, -1.50120604f, -0.74380183f, 0.38589180f, 0.73992336f, 1.23492873f, -1.46386528f,
  0.77626979f, 1.20638812f, -1.31132603f, -0.66297501f, -0.13571131f, -0.94596928f, 0.91464382f, -0.27645928f,
  0.32604593f, -0.24345729f, 0.56602997f, 0.27232412f, -1.09879518f, 0.67689240f, -0.61905473f, -1.21857846f,
  -1.21813047f, -0.47639504f, -0.25232416f, -0.32950899f, -0.10199185f, 0.69420862f, -0.69680411f, 0.44654924f,
  -1.05698574f, 0.13524877f, 1.03712440f, -0.21803890f, -0.62865239f, 1.99529481f, -0.01831193f, 0.95938474f,
  -1.72793770f, 0.59965259f, -1.88080478f, 1.46772909f, -0.60421312f, 0.61471903f, -0.21681695f, -0.02583759f,
  -1.52840209f, 0.46956274f, 0.12741706f, 1.17883551f, -1.16349423f, 3.24471498f, 0.23941247f, 0.12943368f,
  -1.95306706f, 0.56880933f, 1.08605254f, -0.48046196f, 0.98063409f, 0.36250049f, 0.73524451f, 0.22645162f,
  -0.61762744f, -0.27392316f, -0.13110745f, -0.31045392f, -1.06243134f, -0.87109095f, 0.20761375f, -2.04346275f,
  0.89592105f, -0.40604728f, 0.23595479f, -0.41346589f, -0.35743153f, 1.94528878f, -1.88854086f, 0.70783305f,
  0.10446028f, 1.27148688f, -0.13209067f, 2.33329988f, -0.53323442f, -0.46449095f, 2.43391657f, 1.74487126f,
  -0.23236515f, 0.00609278f, 0.23540367f, -0.85108978f, -0.07140628f, 1.10226631f, -0.64442819f, -0.28502724f,
  -0.47548354f, 0.29800841f, -1.32972598f, -2.01563430f, 0.61027420f, -0.18077578f, -1.19914794f, 1.50234497f,
  0.60929030f, 0.19447848f, 0.06747094f, 0.82981026f, -0.22444305f, 1.07800877f, 0.26898104f, -1.04644585f,
  0.14216027f, 0.86618680f, 0.31838331f, 0.24602082f, 0.68389273f, 0.79695171f, -0.64023936f, 1.99134612f,
  -0.58020765f, 0.29307735f, -0.28336421f, -1.09817338f, -0.03659803f, 0.92486435f, -0.87558615f, -1.11684334f,
  0.48329327f, -1.30764675f, 1.20903349f, 0.61535585f, 0.15402417f, 0.80554104f, 0.22742619f, -1.07361805f,
  -1.13422203f, -0.52875054f, -0.52739531f, -2.71339273f, 1.01579785f, 0.62138212f, 1.15944350f, 0.29646701f,
  0.47837690f, -0.15869184f, 0.09279484f, -0.53739715f, -0.40960252f, 0.76881117f, -1.53713679f, 0.13853465f,
  1.19193268f, -0.12242601f, -1.26285231f, -0.31833923f, 1.00940681f, -0.23656490f, -0.52825546f, 1.65182137f,
  -0.35068986f, 1.07755446f, -0.00697380f, 0.45451713f, -0.98936689f, -0.90201354f, 2.02060461f, 2.52147818f,
  -0.38737711f, -0.74527013f, -1.65292394f, -1.39855969f, -2.72990680f, 0.43041241f, -0.35585055f, 0.93815082f,
  0.03003301f, 1.85865092f, -0.39150870f, -0.32426596f, 0.72034460f, -1.01085901f, 0.07942215f, 0.26685730f,
  -1.80919182f, -0.56752765f, -0.37904078f, 0.77733779f, -1.63519812f, 2.38747525f, -0.66867924f, -1.04945350f,
  -1.41445470f, -0.06849758f, -1.00758827f, 0.95704859f, -0.10336880f, 0.22286852f, 0.43328202f, 0.63804054f,
  -0.42239815f, 0.33744144f, 1.23860753f, 0.01681277f, -1.24814773f, 1.67094553f, -0.01351565f, 0.38218290f,
  0.11699164f, -0.62859154f, -0.88176674f, 0.40414205f, 0.99891007f, 0.22394836f, -0.75207877f, -0.58591181f,
  -0.83926046f, -0.30506471f, 0.38473013f, 1.86590552f, -0.73313940f, -0.63311386f, -1.09993291f, -0.92272359f,
  1.71213365f, 1.23011744f, -0.76649749f, 0.41702756f, 0.26400572f, -0.91848427f, -0.48249492f, 0.98355472f,
  1.03687406f, 0.72381848f, -0.89052802f, -1.30109084f, -1.99742877f, 0.10022697f, 0.11351646f, -2.35450792f,
  -2.43096399f, -0.01650659f, -0.72300845f, -1.34722698f, -1.08283699f, -1.38756859f, -0.09911003f, -1.65434909f,
  0.55544072f, -0.37082213f, -0.08670963f, 0.72605085f, 1.00418818f, -2.55370116f, -0.87216395f, -0.01608068f,
  -0.46676183f, -0.37302211f, -0.95779324f, -1.24398279f, -0.11823738f, 1.31608164f, 0.31547400f, 0.02881426f,
  0.34683356f, 0.99248451f, 0.11013842f, 0.34340140f, -1.42364550f, 2.48332500f, 1.34996533f, -1.17570114f,
  0.13576432f, 0.30551758f, 2.62313628f, 0.23849122f, -1.05883360f, 0.91875869f, 1.57544100f, 0.55021065f,
  -0.20540145f, -1.01129925f, -0.81440341f, 0.70591247f, 2.01191306f, 0.28687298f, 1.06232834f, -1.49186397f,
  0.80869323f, 0.93224096f, 0.15807968f, -0.04942690f, 0.49625334f, 0.73498058f, -2.07256246f, -1.20460474f,
  0.93151230f, 1.08424425f, -2.72085857f, -0.09537949f, -1.36395097f, 0.37809280f, -0.18359809f, 1.65259957f,
  -1.10607755f, 0.01459355f, 0.76411235f, -0.11127197f, 0.40361041f, -0.87721437f, -0.02806752f, -0.72098917f,
  0.02517690f, 2.66894794f, 0.47247228f, -1.52462435f, -0.21371551f, -0.35395551f, -1.17166960f, 0.80743915f,
  0.00084615f, -0.68791223f, 0.97008914f, 0.03045199f, -0.90975088f, 0.03016744f, 0.47880483f, 0.12436227f,
  -0.22040567f, 0.52370065f, -0.43013331f, -0.23348428f, 0.64437526f, 0.16959786f, 3.64081645f, -1.59170866f,
  -1.09803021f, -0.41066709f, -0.72609007f, -1.00791359f, -0.82211500f, 1.55088687f, 0.34726077f, -0.33064482f,
  -2.41859460f, 0.02530108f, 0.07664721f, 1.49293983f, -0.79262257f, -0.34317094f, -0.44514292f, -1.89156365f,
  0.07889900f, -0.16755338f, 0.78985000f, 0.26958618f, 1.78389561f, -0.18324494f, -1.95551252f, -1.14187682f,
  1.01616406f, 0.46694186f, 0.29877353f, 1.49991620f, -0.88319087f, -0.77294695f, 1.03214335f, -1.70549119f,
  -1.00874436f, 0.09923191f, 2.38094735f, -1.18531632f, 1.41919231f, 1.22395349f, -0.73407829f, 0.30049244f,
  -0.75699168f, 1.22411239f, -0.63113737f, 0.54951721f, -0.52025342f, -1.22368646f, 1.13961005f, 0.73316771f,
  0.39644957f, 0.50240088f, -3.30224586f, 1.55837381f, -0.31153187f, 0.18963632f, -0.64896524f, -0.85623050f,
  0.32813576f, -0.86892521f, -0.44623291f, 0.14204818f, -0.14223717f, 0.08323792f, 0.69249052f, -0.10451659f,
  -1.22840106f, -0.65851676f, 0.32510766f, -0.56081951f, 1.02988029f, -1.42739928f, 0.05373615f, -0.82622212f,
  -1.37032175f, -2.12363839f, 0.03305613f, 0.92098445f, -1.07130742f, -2.15890145f, 0.38720310f, -0.43581533f,
  -0.62820935f, 1.20588827f, -1.17953300f, 0.73859978f, 0.63456023f, -0.69805717f, 0.20828187f, -1.26883841f,
  -0.70555735f, 0.73912877f, 0.80011284f, 0.55234122f, 0.01876915f, -0.45331717f, -0.54681057f, -1.40178823f,
  -0.79184234f, -0.02219950f, 0.14020513f, -0.47678280f, 0.88762826f, 1.54171717f, 0.42215094f, -0.76589161f,
  -0.24520065f, -1.04981530f, 0.35642007f, -0.27953890f, 1.73060513f, -0.85272402f, -0.20519483f, -1.81322193f,
  -0.44658870f, 0.88538575f, 1.25953889f, -0.28463051f, -0.59762675f, -1.13668823f, 0.76758748f, -0.64562845f,
  -0.92155451f, 1.02569342f, -0.04249056f, 0.99182564f, 0.09744917f, -1.04052973f, -0.17595015f, 0.30194354f,
  -1.67829978f, 0.17153746f, 2.57575464f, -0.42697585f, -0.34350613f, 1.21762848f, -0.06077385f, -0.21838669f,
  -0.01250349f, -1.11116719f, 0.06670614f, 0.21940225f, 1.68033528f, -0.55425721f, -0.99471587f, -0.72994345f,
  -0.89450735f, 1.02741170f, -1.35273492f, -0.71749234f, 1.08811259f, -1.93574083f, 1.20419180f, -1.47361052f,
  2.11621857f, 0.60278267f, 0.54649293f, 0.55226356f, -0.12481435f, 1.00655353f, 0.73306793f, 1.28936338f,
  -0.46096265f, 0.57608640f, -0.92424488f, -0.06881469f, -0.27510634f, 0.80528742f, -2.35060596f, 0.17800604f,
  -2.13376045f, -0.87277651f, 0.55090368f, -0.45719495f, 0.57708961f, -0.57978505f, -0.10331039f, 1.82290995f,
  1.06374550f, 0.23486458f, -0.37874070f, 1.19673443f, 0.74139625f, -0.65801752f, 0.15485868f, 2.08559656f,
  0.37167811f, -0.43996173f, 0.47986743f, 0.53717893f, 0.36110389f, 0.18414174f, -0.69083220f, 3.50671983f,
  0.15936305f, -0.11714249f, 0.82639050f, 1.30064869f, -0.49488467f, -0.58149064f, -0.86709130f, -0.23929988f,
  -0.21637532f, 1.10917819f, 0.69364178f, -0.00352560f, 0.02796443f, -0.58616281f, 0.61244839f, -0.76178157f,
  -0.35147777f, -0.41748452f, -0.62647128f, -1.59886491f, -0.26331058f, -1.24851990f, -0.98985249f, 0.96817243f,
  -1.12396014f, -0.00109434f, 0.74467409f, 0.33876634f, 0.94830626f, -1.78345907f, 0.16850711f, -0.54441655f,
  -0.99624336f, -1.09881258f, 1.10898054f, 0.29394522f, 0.02474496f, 0.04567030f, 1.28126073f, 0.26593384f,
  1.29953134f, -0.04155352f, -0.38459435f, 0.55953556f, -0.65980971f, -0.56653404f, -0.57650614f, 0.26733884f,
  -1.47205305f, 0.87211728f, 0.13982865f, -0.24921192f, 1.90528131f, 0.23924324f, 0.53887892f, -0.80807900f,
  -0.58526188f, -1.68431735f, 0.22774771f, -0.79118145f, 0.70637971f, -0.26847872f, 0.22077738f, 0.89632171f,
  0.52854711f, -1.43619967f, -0.20066503f, -2.71183205f, -0.49870721f, -0.94917148f, -1.87398911f, 1.01178074f,
  0.05402594f, -1.20970285f, 0.58563995f, -1.42767441f, 0.46294215f, 0.85357434f, -0.17559963f, -0.26988974f,
  -0.15536152f, -0.26862910f, 1.15134001f, -1.32437110f, -0.13415471f, 0.67052859f, -0.12690742f, -0.61492205f,
  -0.39666650f, 0.93863958f, -0.17743768f, 1.04301035f, 1.90279579f, 1.66804266f, 0.30101499f, 2.31718993f,
  0.36749431f, 0.70415014f, 1.03926504f, -0.78222305f, 0.42204902f, -0.21743470f, -0.39785758f, 2.40392876f,
  -0.25055385f, 0.06468163f, -1.01119566f, -1.03286672f, -0.21490760f, -0.61588925f, -0.23442066f, -0.87114334f,
  -0.41605699f, -0.35390916f, 0.70310378f, 0.58809847f, -0.70478261f, -0.96400332f, 0.19194025f, 0.03953386f,
  -0.81027299f, -1.36297286f, -0.19402225f, 0.45252424f, -0.94755298f, -0.45455793f, 0.92693603f, -0.06026840f,
  0.02094635f, -1.80346894f, -2.07739353f, -0.24819498f, 0.83038133f, 0.68184125f, 0.48347333f, -0.81594235f,
  0.35381928f, -0.26740474f, 0.68101466f, -1.03149390f, -0.22614206f, 1.62706423f, -0.02745117f, -0.22288828f,
  1.00876367f, 0.18936160f, 1.58249187f, -0.46557298f, 0.38247773f, -1.15741968f, 0.13340665f, -0.61673558f,
  0.35742015f, 0.07730558f, 0.56919467f, 1.64565134f, 0.17116407f, 0.46551406f, 0.70885885f, -0.51987541f,
  1.10591590f, 1.01986969f, -0.11495569f, -1.63828659f, -0.42961472f, -0.94744462f, -1.31445992f, -0.50700432f,
  -1.22146726f, -0.04844368f, 0.22349441f, -0.62221473f, -0.90932930f, 0.80357176f, -2.12280440f, 1.84205508f,
  -0.74923658f, -0.33553258f, -2.18160057f, 0.08594757f, 0.51175320f, 2.36396289f, 1.29460824f, -0.11158573f,
  -0.34793308f, 1.36468184f, 0.64256275f, 0.33048561f, 0.19953199f, 2.52700639f, 1.66004074f, -0.48448035f,
  -1.00420117f, 2.03199387f, -0.06472303f, 0.68849027f, 1.11384666f, 1.76568580f, 1.24370074f, 1.76817775f,
  -0.01085008f, -1.04568458f, 1.54061794f, 0.28618664f, -1.10455310f, -0.51282293f, 1.18960059f, -2.13422370f,
  0.05452165f, 0.33416092f, 1.51658070f, -0.92084157f, -1.34138179f, -1.12064075f, -0.31197649f, 1.32555866f,
  -0.50046366f, 1.14740419f, -0.40985221f, 0.12893908f, -0.20827536f, 0.14791068f, 0.66056073f, 1.07610607f,
  0.61724049f, 0.21565326f, 1.74224210f, 0.38665265f, -0.19587918f, -0.68268353f, -0.37627134f, -0.86884266f,
  -0.06060187f, 0.42324692f, 0.48693958f, 1.25610375f, -0.93867171f, 0.59827840f, -0.44135490f, -0.89868689f,
  -1.64193439f, -0.06680311f, -0.92351550f, 0.26288527f, 0.19156788f, 0.55976915f, 0.38111791f, -1.96908414f,
  0.34373608f, 2.05812097f, -1.81184471f, 1.45760751f, 0.85855782f, 0.35923916f, 0.83289105f, 0.63096428f,
  -0.28787410f, 0.51928741f, -0.12348434f, -0.97249657f, -0.85010147f, -0.62350190f, 0.38764232f, -0.89531106f,
  -2.34628963f, -0.19735192f, -0.52929866f, 0.31053224f, -2.12674975f, -0.10000104f, -0.73379540f, -0.88942653f,
  0.22347505f, 1.00202167f, -0.73615807f, -0.77760977f, 1.18473005f, -1.45147884f, 0.17765896f, 0.84379452f,
  1.11629939f, -0.09271376f, -0.17591487f, 0.65840733f, 0.15497959f, -1.88508856f, -0.90801358f, -0.52478397f,
  -0.87504858f, -1.31793106f, 1.12909257f, 1.41779268f, -1.31247044f, 0.12736464f, 0.80432725f, -0.86085033f,
  0.16599207f, -1.83251774f, 0.19030656f, -0.07527079f, 0.73321259f, 0.66085494f, 2.20687842f, 0.46633923f,
  -0.65351957f, 0.97179747f, -0.71812862f, 0.92912889f, 0.61047572f, 1.51125205f, -2.47073817f, 0.16444230f,
  1.32090330f, 1.53744614f, 1.13005507f, -1.62646568f, -0.90916324f, -0.85235661f, -0.80182511f, -0.22485730f,
  -1.60448885f, 1.67282665f, 0.94336438f, -0.50531942f, -0.54085463f, 1.54714084f, -1.13464189f, -0.92839479f,
  -1.88450718f, 0.04429660f, -1.53374410f, 0.14556384f, 0.21677475f, -0.43616831f, -1.48067510f, -0.27491775f,
  0.71595323f, 1.05710542f, -1.67683876f, -0.64343512f, -2.05065727f, -1.00715911f, 1.61764133f, 0.12475232f,
  0.45803896f, 0.48059806f, -0.24087599f, -0.64868355f, 2.00542927f, -0.61477804f, 0.43152514f, -0.84333098f,
  -0.12481573f, 0.10903155f, 0.49588245f, 0.68421632f, 1.23711479f, 0.63995355f, -0.56629628f, 0.15579456f,
  1.11670136f, 0.23579073f, -0.25030559f, -1.40812421f, 0.71938735f, 0.59181756f, 0.44153875f, 0.77250952f,
  0.73009747f, 0.30382508f, 2.05591607f, 0.17706299f, -0.39223936f, -0.15311801f, -0.33664575f, 0.81296223f,
  0.06804325f, 0.05920734f, 0.46364120f, -0.24525042f, -0.94673336f, -0.77749234f, -0.38447997f, 0.24066643f,
  -0.38007569f, -0.27823552f, -0.04292552f, -1.27561522f, 0.27071321f, -0.23257621f, 0.33046415f, -0.13562171f,
  1.57589257f, -1.81497037f, 0.06437252f, 1.72172809f, 0.41156989f, 0.66917461f, 0.57001466f, -0.20886266f,
  0.61274844f, 0.50654745f, -0.29828286f, -0.78844941f, 2.09048748f, -0.70187944f, -1.60904229f, 0.89027184f,
  0.65938753f, 0.03744246f, 0.24191634f, -0.86374426f, -0.25042984f, 1.34427857f, 0.23768327f, 0.85988683f,
  -0.16065228f, 0.15785266f, 0.91121227f, 1.04255843f, -0.23485382f, 0.70710337f, 0.45714459f, 1.21595740f,
  0.08328787f, 0.79211700f, 0.85242057f, 1.00778449f, 0.14292496f, 0.33612844f, 2.23915386f, -1.07543480f,
  -0.39499989f, -1.13498008f, -1.06232464f, 2.64450669f, 1.20187593f, 0.12762851f, -0.42134184f, 0.02208813f,
  0.44830760f, 2.80429411f, -0.86938965f, -0.27604857f, -0.16013809f, 0.75711364f, -0.40694642f, -0.96990931f,
  0.57891417f, 0.31189469f, -0.20649755f, 0.79446852f, 0.59599882f, 2.52486634f, -0.10138437f, 0.07303567f,
  -1.03882217f, 1.38310897f, 0.11729996f, -1.33726716f, -0.25659621f, 1.18529141f, 1.31453753f, -0.53005493f,
  0.82826036f, 0.94385290f, -0.42826110f, -0.01610704f, -0.46266213f, -0.71115452f, 2.41001487f, 0.26666346f,
  -1.02804804f, -0.13987696f, -2.22568345f, 0.63845748f, 1.72544193f, 1.66413450f, 1.08042324f, 0.84615290f,
  -0.54055476f, 0.23866419f, 0.83266813f, -0.58084446f, 1.20045471f, -1.65455139f, -0.53061008f, 0.96278763f,
  -1.07166791f, 0.13089971f, 0.53282756f, -1.61627018f, 0.27475557f, 1.13826025f, -1.49043489f, -0.01501339f,
  1.00490105f, -0.06888182f, 0.52450097f, 0.35746747f, 0.18207258f, 2.19088101f, -0.52966416f, 0.31829295f,
  0.60425031f, -0.26450256f, -2.08313107f, 0.34827572f, -0.26501256f, -1.28206539f, 0.99579483f, 0.41684386f,
  -0.42758334f, -2.13949299f, -1.99328911f, -0.71256930f, 0.37815017f, -0.11162756f, -0.56080467f, 0.10339715f,
  0.55361265f, 1.34390044f, -0.13341258f, 0.11298422f, 0.32932448f, 0.12633611f, 1.42197287f, 1.09731948f,
  -1.32105029f, 1.54474282f, -0.78598684f, -0.77526504f, -1.34806812f, 1.09762144f, 0.29038340f, -0.02641580f,
  1.31395686f, -0.99420077f, 0.71512306f, -1.32826519f, -0.00076699f, -0.83983552f, -2.62793779f, -1.37395895f,
  -1.04228973f, 0.23080409f, 0.96038032f, -0.78574324f, 0.02196934f, 0.34415188f, 0.55535865f, -0.97546649f,
  -0.13183555f, -0.54998249f, 0.46529579f, -1.30832851f, -1.16173708f, -0.27794108f, 0.02279804f, -0.08753228f,
  -0.65652204f, 1.32643366f, -0.22495790f, 0.26184040f, 1.96277177f, 1.87339067f, 0.35518149f, 0.43278009f,
  -0.31717560f, -1.10657823f, 0.14832525f, 0.87631196f, -1.30216980f, -0.85617167f, -0.55875880f, -0.40499371f,
  0.65413284f, 1.89991796f, -0.23976336f, 0.09307744f, 0.20335835f, -0.22207078f, 1.37154531f, 0.04827155f,
  0.31577477f, -1.12538469f, -2.67339778f, -0.43682909f, -0.78118908f, -1.75503731f, -0.75475460f, -0.47020137f,
  -1.68364930f, -0.51129341f, -0.51366943f, 0.83687556f, 0.39796355f, -0.61812687f, 0.79512662f, -0.54527879f,
  -1.10798979f, 1.61399114f, 0.62541103f, 0.54631293f, -0.12333477f, 2.07245946f, -1.20124543f, 0.00186787f,
  -1.17391706f, -0.44103608f, 0.00372035f, 1.60613668f, -1.86946702f, -0.33074301f, -0.04367213f, -0.27733257f,
  1.40123236f, 1.64226067f, -2.21273017f, 0.73897833f, 0.45177376f, 0.22795604f, 0.23912941f, 0.33212438f,
  1.73591256f, -1.21586454f, -0.90061289f, -0.81665123f, 0.49208617f, -1.49445033f, 1.09910476f, 1.28827310f,
  0.53799015f, 2.40103507f, 0.62774444f, 0.23317440f, -1.07194686f, 1.25885797f, -0.99126887f, 0.46431762f,
  -0.27482861f, 0.62844282f, -0.46348545f, 1.11808014f, -0.85619986f, -1.14775991f, 0.34913608f, -0.52078313f,
  1.18414187f, -0.75098759f, 0.33817092f, -0.18641177f, -0.52722627f, 1.19790149f, 0.13516806f, -0.91665077f,
  1.44676018f, -0.34633318f, -0.61774129f, 0.25306872f, -0.58268148f, -0.62792283f, -0.59792930f, -1.36146903f,
  0.05600248f, -0.91308308f, -0.38326111f, 0.45545444f, -0.74384058f, 1.28413868f, -0.45113710f, 0.78427720f,
  1.43439400f, 0.75456917f, -0.27396622f, 1.66534483f, 0.53090942f, 0.55680400f, -0.61693925f, -0.15138333f,
  0.42709553f, 2.11621785f, -0.93749380f, -0.36740813f, 1.17999792f, -1.25072265f, 1.09161270f, 1.28591144f,
  -1.10951877f, 1.04678452f, 1.09451163f, 0.11242234f, 0.90317911f, 0.23218538f, -0.44431493f, 0.53923094f,
  0.06703274f, -1.55983186f, -2.63921857f, 0.26579884f, 0.90966964f, -1.28963637f, -1.17432892f, -1.56179786f,
  -1.21251559f, 0.79625738f, 0.66177797f, -0.46960628f, -0.12586594f, 1.87509799f, 0.29158100f, -1.00989318f,
  0.49427715f, 0.52552772f, 1.19315279f, 0.13778174f, 0.91733223f, -1.01099896f, 0.71723169f, -0.70750618f,
  -1.47133291f, -1.14347279f, -0.94535130f, -1.15663826f, -0.70701122f, -0.55540138f, -2.15202284f, 1.29417288f,
  -0.02809856f, 1.31682408f, 0.88752168f, -0.43211740f, 1.23450363f, -3.44198680f, 0.75726324f, 1.27821910f,
  -0.14894670f, -1.04012036f, 0.06154403f, 0.40800899f, 0.78881580f, -0.47562504f, 0.18858021f, -1.27175426f,
  1.26081395f, -0.41302982f, 0.73121142f, -1.64531863f, -0.41195232f, -0.97626901f, -0.12190951f, -0.27840075f,
  0.64985275f, -0.07041371f, 0.55241245f, 0.52396476f, -0.22594333f, -0.27706054f, -0.92937577f, -1.22152090f,
  1.76177013f, 1.05444407f, -0.93436974f, -1.65963352f, -0.19670987f, 0.66836208f, -0.89998424f, -1.48289227f,
  -1.61414528f, 1.30942190f, 1.59594727f, 0.41546422f, 0.46639124f, 1.37699676f, 1.33644485f, 0.00532607f,
  0.92547780f, -0.07026500f, 0.58478832f, 0.64007539f, -0.72083586f, -0.49239343f, 1.14300299f, 1.18215692f,
  -0.93156886f, 0.65532124f, -0.63204980f, -1.54162204f, 0.85090756f, 1.56457949f, -1.85042667f, 1.25355887f,
  -1.23475409f, -0.40086263f, 0.48302212f, 0.53081840f, -0.95328927f, -0.32039478f, 0.94857520f, -0.21182962f,
  -0.80073488f, 1.65182030f, -0.22288667f, 0.65395045f, 0.05248877f, -0.26366305f, -0.85603321f, 1.16273606f,
  -1.37552214f, 0.96637452f, 0.86736417f, 0.36996484f, 0.63973582f, -1.04317081f, -0.72414821f, -0.94083798f,
  0.32235664f, 0.71242517f, 0.68548232f, 0.39320904f, 0.35879385f, 0.85357893f, -1.27939177f, -0.91800207f,
  -0.46271202f, -0.74691200f, 1.56456470f, 0.10205913f, -0.37476999f, -0.06111190f, -1.02636278f, -0.34015882f,
  -1.62270617f, 0.90719748f, -0.35164446f, 0.67519289f, 0.13397430f, 1.36078000f, 1.32797432f, 1.23454344f,
  -0.04302236f, 0.65142578f, 1.02556026f, 0.21619926f, -0.17144102f, -0.55800283f, -0.02237951f, -0.78329670f,
  -0.07938149f, -1.36447477f, 1.32888341f, 0.14189917f, 1.55224836f, 1.35195839f, 1.78430378f, 1.45360935f,
  0.10988929f, -1.46107662f, -0.05990542f, 1.33200705f, -1.67677689f, 0.56015670f, 0.88213241f, 0.98028356f,
  0.38471138f, -0.07448366f, 0.91149336f, -0.90722787f, 0.03036394f, 0.62045300f, -1.83804965f, 0.34357101f,
  -2.18776035f, 0.80956721f, 0.13849713f, 0.21261890f, -2.05397153f, 1.22553885f, 0.17136876f, -0.76150298f,
  -0.88932019f, 0.40508765f, 0.24449849f, -0.15989929f, -0.01129130f, -0.06380546f, -0.74266738f, 1.44374144f,
  -1.71996498f, -0.20997092f, -1.02353346f, 0.39501792f, -1.16776979f, 0.91698301f, -0.47929204f, 2.37351918f,
  -1.20144987f, -1.72613454f, -0.89192104f, 1.13166916f, -0.55813521f, -0.37664315f, -0.30948502f, -0.77247751f,
  0.28684619f, -0.14902700f, 0.08884332f, 2.40727353f, -1.72623134f, 0.07162788f, -0.73521626f, -1.25573123f,
  -0.38371220f, -2.35550952f, -1.02740741f, 0.26821426f, 0.45151493f, 0.70352787f, -1.51158249f, -3.24972725f,
  -0.19172008f, 0.36301044f, -1.91228485f, -0.16486847f, -0.65346122f, -0.24397251f, -0.01157570f, -0.76869279f,
  -0.59471619f, 1.83577847f, 0.44807938f, -2.63482022f, -1.47774947f, -0.68577552f, 0.98001462f, 0.00506702f,
  0.43284261f, -1.25009990f, -0.67238498f, -0.35361129f, 1.29334629f, -0.45312482f, -0.99702013f, -0.60543787f,
  0.00524313f, -1.33205259f, -0.48133293f, 0.05919384f, 0.33260310f, -1.40327275f, 0.76021439f, -1.56812274f,
  0.00072386f, -1.09269822f, 1.52552962f, -0.65519845f, 0.47728676f, 0.48331499f, -0.52809769f, -0.00689060f,
  0.37892872f, -2.06041265f, 0.56609368f, 0.45500863f, -0.27629197f, 0.21035044f, -0.05776041f, 0.53119522f,
  0.23084797f, -1.13987124f, 0.22467649f, -0.49582556f, 0.79774100f, -0.92105031f, 1.17553270f, -0.31879598f,
  0.67526186f, 1.03499472f, -1.18136001f, 1.39510489f, 0.85896832f, -0.02275845f, 0.16309375f, 1.11544204f,
  -1.12226796f, 0.44081315f, 0.10869900f, 0.44938973f, -0.15534201f, -0.53550136f, -2.46185589f, 0.62588716f,
  0.70640242f, -0.01182699f, -1.88072538f, -0.38680205f, -1.42866516f, -0.99479568f, -0.74454325f, 1.55383265f,
  0.93085980f, 0.21309315f, 0.78929180f, 0.59730005f, 0.32457408f, 2.07036257f, 0.13261348f, 0.85657561f,
  -0.30800375f, 0.89252323f, -0.77428973f, 0.62018585f, -0.40252414f, 0.86299634f, 0.91959679f, -0.01070090f,
  -0.30674028f, -0.59637302f, 0.28450394f, -0.89215237f, -1.38396943f, -0.00340181f, -0.44432041f, 0.71311706f,
  0.23641232f, -0.82469857f, -0.02143898f, -0.78083670f, -0.26830694f, -0.58596128f, -1.90600216f, 0.74761617f,
  1.10471821f, 0.48996517f, 1.22772229f, -0.59420490f, 0.19513904f, -0.02451242f, 0.13933441f, 0.53693461f,
  0.35120660f, 2.56010079f, 2.14984083f, 0.69320577f, -0.73529375f, 3.33183312f, -1.53138423f, 0.00735105f,
  -1.91978073f, -0.67465800f, -0.58902454f, -1.79161334f, 1.01508808f, 0.84429175f, -1.30764318f, 0.82794589f,
  0.73555332f, -0.15981065f, 0.20524256f, 0.64456743f, 1.52756763f, -2.06681395f, 0.67148536f, -0.22212633f,
  -1.28614497f, 1.78156328f, -0.66083783f, 0.97591370f, 0.86765206f, -1.45829356f, 0.44122511f, -1.45922482f,
  -1.37299693f, 1.14869285f, 0.80876768f, -0.23065500f, -0.60004538f, -0.10292667f, 0.39786142f, -0.50289845f,
  0.60368568f, 1.53679001f, -0.37993345f, 1.42272270f, 0.69895422f, 0.12196013f, 0.87120205f, -0.08610412f,
  -0.89112908f, 1.20296288f, -0.44625524f, 0.57868356f, -0.18232089f, 1.07944989f, 0.30083942f, 0.47225335f,
  -1.45243406f, 1.39629614f, 0.78729153f, 1.57042360f, -1.17143750f, -0.38869792f, 0.00495744f, -1.04739714f,
  1.45673203f, 1.04353106f, 0.65787828f, -0.82807076f, 0.15662302f, 0.51178110f, 0.71055508f, -0.77808321f,
  1.26021242f, -0.32262099f, -0.29459438f, 1.37827754f, 0.23703641f, 0.19257444f, 0.93677253f, 1.28538573f,
  -1.99785471f, -0.31650573f, -0.71562445f, 0.43239647f, -1.42509234f, 1.46684134f, -0.56509471f, 0.85925567f,
  1.57560408f, 1.03320789f, 1.03271019f, -0.41410744f, 0.04422746f, -0.06110915f, -0.45245919f, -0.48074952f,
  -0.31234416f, 0.53075153f, 0.69135356f, 0.85704386f, -0.90261108f, 0.28254002f, 2.22034812f, 1.89636481f,
  2.24115634f, 0.96293110f, -1.21911883f, -1.62337244f, 0.94780236f, -1.02539408f, -0.60886151f, -0.52631503f,
  -0.02995667f, -0.83610225f, 1.78603160f, 0.92132902f, -0.69488376f, -1.01505446f, 0.90956765f, -0.51979131f,
  -1.46633780f, 1.28109860f, -2.36939311f, -0.88017911f, 1.41119730f, 1.38954699f, 1.13915718f, -0.61142355f,
  0.71025330f, 0.09963228f, -1.18153167f, -1.20458066f, -0.19398405f, -1.40619218f, -0.70006460f, -0.20664197f,
  0.12395701f, 1.63763702f, -0.88794726f, 0.71549892f, -1.50344038f, 2.80105448f, -0.72291112f, 3.10319591f,
  0.97180718f, 0.06149144f, 0.96394485f, -2.32413268f, 0.66952658f, -1.46880662f, -0.14210242f, 1.19516551f,
  2.28930950f, -1.25860190f, 0.24636197f, -1.70107734f, 0.47332123f, 1.06148076f, -1.25475073f, -0.46862179f,
  -0.52695036f, 2.10575271f, 1.30576503f, 1.08833921f, 0.61267340f, -1.83946514f, 0.26185754f, 2.10139346f,
  -1.21211445f, -0.11068305f, -1.44780195f, -0.04096669f, -1.05465162f, -1.38763738f, 0.86760950f, 0.83014584f,
  -0.00615541f, -1.24065399f, 0.38904208f, -0.80175632f, -1.05156791f, -0.45571095f, 1.06719756f, -1.22409046f,
  0.23284642f, 1.42130566f, 1.62712395f, -0.94310617f, 1.38661134f, 1.72883856f, 2.06030488f, -0.43644464f,
  -1.66387320f, -0.24323885f, -0.38272074f, -0.31110448f, -1.10986781f, -1.27103567f, -1.28243637f, 1.27267051f,
  0.34927231f, -2.40997791f, 0.51804030f, 1.18545914f, -1.14031506f, -2.41926503f, -1.86108398f, -0.32222581f,
  -0.99270469f, 0.03452015f, 0.27989945f, 0.20843691f, -1.82598400f, -0.35066962f, -0.20571119f, -0.20496641f,
  -2.53203273f, 0.99054563f, 0.75440860f, -0.03058169f, 0.23878320f, -0.76503843f, 0.55276811f, 0.56835938f,
  0.00155100f, -0.71620941f, -1.36688113f, 2.31969333f, -0.13437426f, 0.64707547f, 0.33743399f, 0.52186888f,
  0.52581865f, -1.15384471f, 0.26424319f, 0.35992262f, 1.61889875f, -1.80393267f, 0.65898836f, 0.46321231f,
  0.40299341f, 1.13074756f, -1.13122141f, -0.49686223f, 0.47633201f, -0.02867890f, 0.17109947f, -0.13868353f,
  0.88330084f, 1.44204092f, 0.47376037f, -0.06430164f, -0.43444636f, -0.12190469f, -1.70348990f, 2.04254699f,
  -1.14868796f, 0.38957143f, 0.64628118f, 0.23524983f, 0.75991470f, -1.58655238f, 0.62987888f, 0.85675359f,
  1.81174493f, -1.20664680f, 1.79226089f, -1.19958556f, 0.81951678f, -0.46080104f, -0.81328541f, 0.11767894f,
  -0.48409393f, -0.90961218f, -0.86613351f, 1.78220105f, -0.43233770f, -1.21019220f, -1.18252480f, -0.03462778f,
  -1.62272644f, 1.41856790f, 0.61471927f, 1.32235086f, -1.27703071f, 0.70200723f, -1.03169227f, -0.23247997f,
  -1.29981208f, -0.09282169f, -2.10486698f, 1.48367500f, 0.54541546f, 0.00446090f, 0.22133560f, -0.71696717f,
  -0.09636482f, -0.33484945f, -1.01117885f, -0.78920239f, -0.09318066f, -1.44302273f, -2.67939544f, -0.58743709f,
  -0.06471133f, -1.14518821f, -0.42140797f, 2.99125552f, -1.49781024f, 0.44228727f, -0.70971209f, -0.36477870f,
  -0.19902721f, -0.14799878f, 0.95940369f, -1.11145186f, 1.57789648f, 0.89324868f, -0.48088831f, 0.18815795f,
  1.13679159f, -0.40704530f, -0.19278927f, -0.59571338f, -1.26711643f, 0.32942370f, 0.96430653f, 0.62632960f,
  -0.33198556f, 0.38837659f, -1.48578930f, 0.13462409f, 0.69609630f, -2.74878263f, -0.17249668f, -2.09754491f,
  -1.87397683f, -1.33511472f, -1.18279123f, -1.07954025f, -0.98470449f, 1.09372485f, -0.12315217f, -0.37054619f,
  0.78105682f, -0.26405847f, 0.50577188f, 1.42196393f, 1.54926538f, 1.84630048f, 0.29943851f, -1.52070427f,
  0.02681579f, -0.19993496f, 1.40103006f, -0.21638857f, 0.47906107f, 0.06620151f, -0.73879111f, 0.32832843f,
  -1.19839251f, -0.86627114f, 0.79577720f, 1.23999989f, 1.32666326f, 0.16649227f, 0.37937260f, -0.07226668f,
  1.43003273f, 0.43821713f, -0.33496723f, 1.31638181f, -0.71146011f, -0.64739496f, -1.37845707f, -0.87931681f,
  -0.49443847f, -0.91623867f, 0.23513253f, -1.11947763f, 1.89674556f, -0.13035575f, -1.11220717f, 0.48692790f,
  -0.14015362f, -0.77270335f, -0.42692292f, -0.29246861f, -0.40265924f, 0.99917448f, -0.41056320f, 1.35047340f,
  -1.41727674f, -0.80173045f, -0.73411441f, 1.14335477f, -0.37379315f, -2.22170377f, -0.83257383f, -1.03629947f,
  1.38346601f, -2.13238668f, 1.67565107f, -0.40229896f, -1.68092155f, 0.25720248f, -1.79097104f, 0.89432096f,
  1.36930811f, -0.30214006f, -1.24534714f, 0.04069698f, -1.57428789f, 0.62223983f, 0.51963079f, 0.88913852f,
  0.47326595f, 0.50652587f, 0.21817107f, 1.37923825f, 0.80209392f, -0.19473901f, -0.38327578f, -1.33956575f,
  0.37773755f, 1.27077067f, 1.25413001f, -0.23346363f, 0.89382744f, -0.10609724f, -0.53880447f, -1.30422032f,
  -1.91400182f, -0.75562453f, -0.11274413f, -1.43117380f, 0.39621243f, 0.11424433f, -0.94087785f, 1.02504718f,
  0.59826303f, 1.27183044f, -0.14643344f, 0.33795017f, 0.39221820f, -0.41288215f, -0.95448256f, 1.50153530f,
  0.46461627f, 0.08639228f, -0.92622298f, -0.01568951f, -2.22066593f, -0.40851474f, -0.86234134f, 1.11531103f,
  0.39966407f, 0.24937564f, -0.48392177f, -0.87315923f, 0.68362689f, 1.36937439f, -1.20374715f, 0.95642704f,
  1.35734153f, -0.16318268f, -0.43832260f, -0.07832421f, 0.92596197f, 0.56799924f, -0.92378658f, 0.67987239f,
  1.92638779f, -0.42752537f, 0.68986088f, 0.94257718f, 0.91497493f, -0.99310499f, -1.18583429f, -0.84037358f,
  -0.78092921f, -0.53361195f, -1.42600071f, -0.72157198f, 0.25310054f, -0.13490464f, 0.34304222f, 0.73967689f,
  1.11178386f, -0.41791448f, -0.47139403f, 0.04804596f, 0.69076866f, -0.91981918f, -1.03778899f, -1.16715097f,
  -0.16382447f, 0.40297678f, -0.31452015f, 0.04802698f, 3.37791324f, 1.36570871f, 1.69699419f, -0.72693491f,
  1.44669247f, -1.45680964f, 0.23088178f, 1.08194518f, -1.91111553f, 0.43815723f, -1.67878890f, 2.58932877f,
  1.39532268f, -0.72924232f, -0.42877987f, -0.61333883f, -0.94929612f, -0.16071090f, 0.67742151f, 0.95505381f,
  -0.64412487f, 0.11916051f, -0.29557317f, 1.74135661f, 0.21976031f, -0.60645539f, -1.16229773f, 0.31052154f,
  0.73582071f, -0.08314896f, -1.00166070f, -0.90504378f, 0.15526229f, 1.35191381f, 1.04293633f, 0.65086186f,
  0.66559809f, -0.75126505f, 1.26316988f, -0.98850912f, 0.76724535f, -0.12252627f, 1.46179402f, 0.22052978f,
  1.45363152f, 0.51267612f, -0.48827383f, 0.51305419f, 0.20935830f, -0.09578095f, 0.07732674f, 0.22814400f,
  -0.73944300f, -0.07157559f, -0.44280988f, 0.72464705f, -1.38806820f, 1.34982252f, -0.24382523f, -0.56559575f,
  -0.24109448f, -1.22239411f, 0.58917201f, 0.19150333f, 0.44722524f, -0.88830274f, -0.97254199f, 1.72922122f,
  1.00928092f, -1.13261175f, 0.20136566f, -0.68286556f, -1.36842012f, -1.82895863f, 1.71091533f, 0.49305770f,
  -1.53967452f, -0.41342720f, 0.16352081f, 0.44867173f, -0.36707380f, 0.88820648f, 1.07710183f, 0.45240653f,
  2.08566236f, 0.96026218f, 0.20668173f, -0.78369421f, -0.09348470f, -1.12439096f, 0.20399801f, -0.93626088f,
  -2.15271187f, 0.28153202f, -0.31213301f, -0.99721855f, 0.87742519f, -1.71103728f, 0.28674749f, -0.19288100f,
  -0.70242447f, -0.66112810f, 0.69147897f, 1.06935585f, 0.76535290f, -0.67494494f, -2.23903346f, -1.01839972f,
  1.40899587f, -0.97172874f, 0.01857155f, -0.86696416f, -1.65856338f, 1.16588676f, 1.13068175f, -0.14484625f,
  -0.82489693f, -1.40842342f, 0.22372499f, 0.79459554f, 0.95619810f, -0.42271850f, 1.06359518f, 1.01826334f,
  0.60140508f, -0.43206692f, 1.09792674f, -1.02489424f, -0.00866311f, -0.93021226f, -0.36881080f, -2.00784850f,
  -1.62279022f, 0.72808880f, 2.65551710f, -0.97155255f, -0.70992446f, 0.21734683f, -0.17397094f, -0.21413866f,
  0.66195291f, 0.37584227f, -1.49824202f, -1.86040878f, -0.68510151f, -0.22393920f, 0.85884386f, -0.58950305f,
  -1.23624802f, 0.13573338f, 1.12902558f, -1.89062166f, -0.34057993f, 0.65748322f, -0.69444972f, -2.10811973f,
  0.76399779f, -3.67770481f, -1.36111295f, 0.78498244f, 1.03612900f, -0.92954940f, 1.52556503f, -0.39778224f,
  0.65556264f, -0.62700152f, 0.20967671f, -1.05338001f, 0.71851051f, -0.70499825f, -0.14205062f, -1.46767867f,
  1.01462436f, 0.01450665f, 0.16066179f, -1.68445098f, -0.21252084f, 0.56595445f, 0.51239091f, -0.50576681f,
  -1.35078585f, 0.83071744f, -0.34893838f, -0.35070464f, -1.82032263f, 1.09272051f, 0.27918822f, 1.96666896f,
  0.50123543f, 1.02568698f, 0.23461546f, 0.85078293f, 0.16816854f, 1.78410411f, -0.82078099f, -0.08884088f,
  0.67956018f, -1.21631050f, -0.64566582f, 1.78866959f, 0.27025026f, -0.82880270f, 1.13783348f, 1.26484346f,
  -0.75860602f, 0.06496914f, 0.72348177f, 0.54870307f, -0.27386549f, -1.42025852f, -1.28202271f, -0.30728868f,
  -0.35400411f, 0.38681278f, -0.42062029f, -0.67099869f, -0.54912955f, 0.53307682f, 0.07092395f, 0.05107292f,
  -0.43768641f, -0.39228660f, -0.19079648f, 1.56705892f, -0.62114406f, 1.07249928f, -1.18841887f, 0.85311389f,
  -1.30836356f, -0.48913226f, -0.59677929f, 0.30731219f, 0.96232933f, -1.99353993f, 1.28039718f, 1.10306287f,
  1.58345664f, -1.52899504f, -0.37796035f, 0.92588305f, 0.94880694f, -1.07350290f, 0.38870335f, -0.18499038f,
  -0.55248851f, -2.19817019f, -0.13908547f, -0.76989931f, 1.03802276f, -1.29626656f, -1.17154837f, 1.12377357f,
  -0.87583780f, 0.97296995f, -0.93102407f, 0.41651189f, 0.06378075f, 3.02088332f, -0.87922716f, -0.99301285f,
  0.23998238f, -0.04954772f, 0.57477844f, 0.24631844f, -0.24339125f, -0.81154412f, -0.92404824f, -1.16764116f,
  2.10473895f, 1.16610384f, -0.62169856f, 0.76944131f, 0.44147798f, 1.10825753f, -1.00976443f, -0.26607922f,
  -0.49827713f, -0.94612813f, 0.23010288f, -0.03488347f, -1.83700013f, -1.06413579f, 0.27166235f, -0.17772335f,
  -0.14058609f, -0.34279874f, -1.56457508f, -0.48248878f, 0.40493283f, -0.61743444f, -0.29560420f, 0.23208545f,
  -1.24047828f, -1.95249724f, -0.43000853f, -0.77993929f, -0.36402979f, 0.90588981f, 0.12198323f, -1.07646394f,
  1.05411041f, 1.24303997f, -0.40955466f, 1.65676355f, 1.23883235f, 1.37225568f, 0.53106976f, -0.44328275f,
  -0.29191360f, 0.82757026f, -0.90500808f, 0.31884432f, 0.03816929f, 2.12716770f, -0.19560412f, 0.63216406f,
  -1.25175095f, -0.26636481f, -0.06022355f, -0.91725218f, 0.32459638f, 0.79905105f, 0.27838758f, -0.28646007f,
  2.97552085f, 0.74128139f, 0.77384222f, 0.26151681f, 0.00159967f, -0.30051932f, 2.26475859f, -0.40437675f,
  1.51800203f, 1.07240200f, 1.08546388f, 1.90645754f, 1.32640612f, 0.14647332f, -2.57060337f, 1.64548659f,
  0.70062929f, 0.55577970f, -0.48800796f, 0.29353383f, 0.09052303f, -0.36320093f, 1.43165720f, -0.39145893f,
  -1.84654486f, 1.09963083f, -1.08682823f, 0.64177907f, -0.30117387f, 1.10586619f, -0.90482539f, 1.98230624f,
  0.38649508f, -0.03473137f, -0.16808340f, 0.73657942f, -0.91353518f, 0.96703029f, 0.50343180f, -0.25542715f,
  -0.67094487f, 0.60160649f, -0.30683950f, -0.91635376f, 1.56260777f, 0.17021039f, 1.85892165f, 0.84651291f,
  0.19301268f, -0.51107776f, -0.19352081f, -0.57148349f, 2.10900855f, -0.15452106f, 0.00016499f, -1.62849343f,
  0.39482406f, -1.15252864f, 0.83546561f, -1.03536904f, -0.19234395f, 0.63688469f, -0.31095803f, 1.12469983f,
  2.18290019f, 1.33126819f, -0.16409642f, 0.55497509f, -0.39651230f, 0.29851085f, 0.44521183f, 0.23171099f,
  1.26449478f, 0.60374945f, -0.00531795f, -0.74577492f, -1.08023477f, 0.50245225f, 0.53396696f, 0.28434223f,
  -0.20447636f, 1.41093516f, -0.40567160f, 0.44100818f, 0.28232586f, -2.22979450f, 1.23318470f, 0.20676355f,
  0.72198099f, -0.49970964f, 0.25425756f, -0.42590433f, 0.30671549f, 0.32907882f, 1.05409396f, 0.63228291f,
  -0.22298867f, -0.45351583f, -0.51596403f, -0.74468398f, -2.23970652f, -1.12210953f, 0.75687927f, -1.11768687f,
  0.98265910f, 0.49914026f, -0.69981217f, 0.97926039f, 0.60075551f, -0.14119297f, -0.11871343f, 0.72831839f,
  0.08816732f, 1.72649014f, 0.53104186f, -0.00619631f, 0.14351077f, 1.27072132f, -1.04954398f, -0.87576085f,
  0.00383974f, 2.11081409f, 0.60992873f, 0.19913158f, 0.11502057f, 0.34070367f, 0.21189594f, -0.06861846f,
  0.61942160f, 0.23813413f, 2.39430356f, 0.35056549f, -0.54162759f, 0.45965403f, -0.47787735f, -0.06295875f,
  1.58843935f, 0.84001744f, 1.40442359f, 1.62325096f, 0.93483973f, -0.03819933f, 0.39926320f, -0.01280934f,
  -0.41455621f, -2.09205961f, 0.57641745f, -1.47523224f, -0.25908476f, 2.01666784f, 0.06346542f, 0.43726721f,
  -0.80369127f, 0.91677904f, 0.09204628f, -0.26275864f, 0.25708562f, 0.37559247f, 0.63736731f, -0.39760664f,
  3.04946423f, 0.78715080f, -0.37855944f, 0.34874609f, -0.73490155f, -0.15071730f, -0.18135303f, -0.43012282f,
  2.25063777f, 0.34770814f, -0.84573531f, -1.51520002f, 1.52921021f, -0.90004838f, -1.37180531f, 1.28381407f,
  1.24469233f, 0.29524300f, 0.54007167f, -0.26698896f, -0.87033558f, 0.76550519f, 0.01953607f, -1.24721062f,
  0.70671141f, 0.77746201f, 0.43011841f, -0.32244143f, -0.07042270f, 0.22796394f, 1.43798423f, 0.25715682f,
  -1.22595227f, -2.54860210f, 0.60777348f, -0.42370155f, -0.49474111f, 1.50417864f, 0.71813595f, 0.22975232f,
  0.18093731f, 0.47688434f, -0.52410352f, -0.51828986f, 1.11067617f, -1.13167346f, 0.35069776f, 1.07465017f,
  -0.12216036f, 0.33071312f, 0.24837455f, -0.05908493f, -0.85205817f, -0.26435357f, -1.95540035f, 0.50628591f,
  0.49123755f, -0.64011353f, 1.72455990f, -0.67391020f, -0.11988851f, 0.73755926f, -0.98130625f, 0.84005862f,
  0.63550758f, -0.61793345f, -1.11184216f, -0.25230151f, -0.89109522f, -0.21124826f, 0.29463091f, 1.76091623f,
  0.03558812f, -1.41383660f, -0.04637758f, -1.33789456f, -1.22593164f, -1.22969627f, 0.54244411f, -1.54219329f,
  1.09090614f, -0.79470736f, 1.20210612f, 0.58242691f, 0.31134254f, 1.66851318f, -0.90355563f, 0.41138074f,
  -0.64204419f, -1.39765131f, -0.65954727f, -0.66115230f, 0.68841833f, -0.29340926f, -0.77553892f, 0.64852864f,
  0.06200001f, 0.75335467f, -3.12672639f, 0.04527799f, 0.95551914f, -0.78258771f, 0.91850865f, 1.51890910f,
  -0.53653592f, -0.18842790f, -0.56726044f, 1.66712642f, -0.12533629f, 0.57399130f, -1.80585670f, 0.44673562f,
  -0.09990052f, -1.21581042f, 0.81993651f, 0.23977283f, 0.65590203f, 2.32136703f, 0.91053265f, 0.70941156f,
  -0.99586105f, -1.67402351f, -0.10582647f, 1.11539686f, 2.63084412f, -0.09626303f, -0.91804445f, -0.33599976f,
  1.45114243f, 0.39457080f, -0.94539779f, -0.04827784f, -0.47635210f, -0.27650425f, 0.54058760f, -0.45831597f,
  -0.33412290f, 0.43420196f, -0.96473366f, -0.59826088f, -0.42812544f, -0.73323107f, -0.64307910f, 0.23781314f,
  -1.28930426f, -0.46828967f, -0.05762836f, -0.95925444f, -0.65810871f, 0.86034089f, -1.47554278f, 0.53825110f,
  1.38134480f, -0.93804461f, 0.23328286f, -0.67105430f, -1.33539951f, -0.02530860f, 0.60537887f, -0.54056257f,
  -0.52095526f, 0.20418298f, -1.81789446f, -0.37140724f, 0.59948117f, -0.08845165f, -1.94641352f, 0.46761784f,
  -0.67072260f, -0.01901850f, -0.87063277f, -1.76685524f, -0.86276275f, -1.62509644f, 0.82770014f, -0.27686656f,
  0.90159416f, 0.81982785f, 0.65214866f, 2.95604801f, -0.78068179f, -0.48340231f, 0.11099169f, -0.04581027f,
  -1.46373665f, 0.61998659f, -0.58616686f, -2.11064482f, 1.40037167f, 0.79532838f, 1.45115030f, -0.94719559f,
  0.30813009f, 0.43255872f, -0.79339701f, -0.44716385f, -0.13132904f, 0.50427020f, -0.88729233f, -2.31893301f,
  -0.89107853f, -0.60165149f, 0.55893457f, 0.18923220f, 0.49880186f, -2.83577538f, -0.36054310f, -1.27272797f,
  -0.89082307f, 0.04293697f, -0.18559748f, 0.02230529f, 1.18201149f, -0.71959239f, -1.17776573f, 1.21096039f,
  -0.90112197f, 1.49653065f, -0.20123219f, -0.09226010f, 2.40941238f, -0.91325200f, -0.24229719f, -0.15696135f,
  2.60999775f, 0.42970496f, 0.60786569f, 0.25264746f, -0.13004756f, 2.17232227f, -0.22586972f, 0.16791643f,
  0.61530489f, 0.52895880f, 0.67397785f, 0.64864957f, 0.88720167f, 1.96570218f, -1.09919190f, 0.71244562f,
  0.60994387f, 0.64372563f, -1.56468058f, 0.12821777f, -0.08201176f, 0.39085096f, 0.03639370f, 0.25462371f,
  0.30685216f, -0.16533899f, -0.76575273f, 1.71120262f, 0.03729657f, -0.95823306f, 1.61160362f, 0.69368857f,
  1.39835203f, -1.11753678f, -1.17649865f, -0.45318609f, 0.03170106f, 0.13171181f, 0.65658236f, 0.33798251f,
  -1.07830667f, -0.55330586f, -0.07596061f, 0.10904615f, 0.60428607f, 1.40939999f, -0.18433557f, -1.26568818f,
  -1.04355276f, -0.63908052f, 1.30000448f, 1.57640386f, 0.32607356f, 0.34920076f, 0.32392928f, 0.58895892f,
  -0.27295524f, -0.62670606f, 0.71042633f, -0.88748193f, -1.39391494f, -0.65851676f, 0.90680504f, 1.23975670f,
  0.95328510f, 0.16809522f, -0.57979101f, 0.67413229f, 0.44418520f, -0.32196790f, -0.62930745f, 0.53567106f,
  1.22443283f, 0.77583766f, -1.04156399f, 0.57340705f, 0.02570540f, -0.52625704f, -0.49544272f, 0.31352746f,
  0.47635138f, 1.24680448f, 0.80608773f, -0.71615601f, -1.07619190f, -0.00365014f, -0.37641093f, -0.15813690f,
  -1.33814120f, -1.18640721f, -0.14913817f, -0.57167089f, -0.24585482f, 0.53414452f, -0.22570044f, 2.40593910f,
  -0.07999246f, 0.47191444f, -0.69970298f, 0.88425821f, 1.44698739f, 0.44269726f, 0.65351647f, 1.09099078f,
  -1.14027762f, 0.48280260f, -0.02557223f, 1.35535598f, 0.57613254f, -1.57337642f, -0.83061391f, 0.07838885f,
  0.63345426f, 0.11876052f, -1.79607022f, 0.67755163f, 1.27923167f, -1.38639247f, 1.06920731f, 0.04396325f,
  -1.60290432f, 0.56751955f, -1.75579751f, -0.69347936f, 0.49254477f, 1.55208921f, -1.04610014f, -1.17558134f,
  1.00394297f, -1.10842407f, 0.48647732f, 1.10072148f, -0.10349070f, 0.48220146f, 0.81437165f, -0.35602075f,
  0.39007968f, 0.54297042f, -1.27555978f, 1.58629012f, -0.50335276f, -1.59020114f, 0.47876763f, -0.41758791f,
  1.86971748f, -2.07941437f, -2.23815775f, -0.63008833f, -0.43147129f, -3.20281935f, 1.41636896f, 0.86206168f,
  -0.28139615f, 1.19920564f, -0.00891887f, 0.66605568f, 0.16266464f, 0.13574876f, 0.85547602f, -0.55924088f,
  -0.91955304f, -1.79911840f, -2.60540605f, -0.58288056f, -0.76566195f, 0.45529234f, 0.19344345f, -1.61547005f,
  -0.52512109f, 0.43170714f, -1.40213406f, -0.27375534f, -0.89124620f, -1.09799838f, -0.57849574f, 0.71534151f,
  0.27440262f, -0.07122438f, 0.06557174f, 1.34938300f, -1.43065202f, 0.03090398f, -2.15935087f, -1.06534660f,
  1.18407595f, 1.18451583f, -0.70285147f, 1.39861524f, -0.29307473f, 0.63449496f, -0.28634962f, 0.51545167f,
  -0.63863540f, 0.53789514f, -0.99968910f, -0.61356527f, 1.57988477f, 0.21465711f, 0.44749361f, -1.60901046f,
  0.21140242f, -0.57428008f, -0.03288884f, -0.61491871f, -0.36984324f, 1.03903735f, -0.88106596f, -1.33278847f,
  -1.18359685f, -0.38456720f, 0.68332493f, -0.88098806f, 0.73676354f, -2.08749604f, 1.03961420f, 0.16649882f,
  0.04189071f, -0.43351775f, -0.29943863f, -1.35527408f, -1.78404570f, 1.46111345f, -0.47861168f, 0.53542811f,
  -1.52714455f, -1.88410640f, -0.44934633f, 0.14283583f, 0.89603674f, 0.47396439f, 1.04925179f, -0.12051871f,
  1.20610464f, -1.04716766f, -0.08418866f, 0.87577868f, 0.79857433f, 0.83666146f, -1.08314991f, 1.18448067f,
  -2.01164579f, -0.05444366f, -0.25612265f, -2.74164510f, -1.69228637f, 1.52833474f, -0.25880566f, 0.23346658f,
  0.63705707f, 1.08284342f, -0.46970379f, 0.34787464f, 0.04097013f, -0.41056183f, 1.26714361f, 1.26697528f,
  1.06841278f, 1.39094257f, -0.14082947f, 0.04265126f, -0.28078973f, -0.37882581f, 0.56918448f, -0.75781822f,
  -1.31357086f, -1.24539638f, -0.44843328f, -0.05358534f, -1.54079306f, 1.03134048f, -2.10995984f, -1.83651400f,
  -0.07432479f, -0.88496113f, -1.87126601f, -1.39429200f, -0.44181523f, 0.54364723f, -0.70217246f, -0.44161835f,
  -0.47768146f, 0.73178077f, -1.64923716f, -1.45593727f, -0.57249755f, 0.66302907f, -0.30988678f, 1.62699926f,
  -0.78257734f, -1.05339479f, 1.63182616f, -0.37148353f, -0.90048659f, -0.94600976f, -0.61442584f, -0.87200123f,
  -0.93606323f, 0.74509758f, -0.81615007f, 0.01453722f, -0.25652841f, 0.27135792f, -1.16129160f, 0.86525404f,
  -1.08719218f, -0.53150094f, -0.76894444f, 0.96740294f, -0.65876228f, -1.20520329f, -1.06086504f, 1.60383809f,
  -0.86065513f, 0.34653133f, -1.78160834f, -0.09980541f, -0.97594774f, -0.03633835f, 0.20143303f, -0.77161807f,
  -0.41714537f, -0.18079685f, -1.68585587f, 2.12475777f, -0.90366936f, 0.49910784f, 0.02354008f, 1.69664717f,
  0.60929376f, 0.72981113f, -0.30366132f, -1.01500773f, 0.17008547f, -0.53049386f, -1.27194488f, 0.56093615f,
  1.20598614f, -0.82807511f, 0.62840343f, -0.57168955f, -0.76712906f, -0.98596537f, -0.00605738f, 2.49907422f,
  1.35218656f, 1.17106581f, 1.17867494f, 1.26231194f, -1.50592494f, 0.40042335f, -2.01068687f, 0.13956495f,
  -0.93528372f, 1.13900602f, 2.36031079f, 1.70688498f, -0.30920064f, -1.10121119f, 1.54273486f, 0.51212496f,
  0.26336825f, -0.11527221f, -1.42015851f, -1.12727594f, 1.01060581f, -0.23114246f, 1.44236815f, -2.38441801f,
  0.63249475f, -2.17391157f, -0.03626784f, -0.14428858f, 0.28228828f, -0.36866006f, 0.06966996f, 0.87325448f,
  0.95974267f, -0.46435553f, -1.54495823f, 0.50703043f, 1.24169552f, -0.73595071f, 2.00406528f, 0.08895152f,
  -0.26460075f, -0.66556907f, -0.17785160f, -0.03149667f, -2.18376732f, -2.14690924f, 0.47450262f, -0.94312984f,
  0.69223720f, -0.14493170f, -0.78666538f, -0.01753803f, 1.40096331f, -1.05552173f, -0.44203332f, 0.21258713f,
  -0.27853155f, -0.59689367f, 1.05119669f, 0.23097324f, -1.07000101f, -1.15342474f, -0.88403869f, -2.76980352f,
  0.14651258f, -0.91419727f, -1.33100402f, -0.39809564f, -1.71211219f, 0.19638725f, -0.20007893f, -1.12414896f,
  0.50145650f, 0.62004775f, 1.91736400f, -0.02420090f, -1.38241291f, -0.00736333f, -0.63744640f, -1.01901829f,
  0.45633891f, -0.93151927f, -0.66342610f, -0.15178363f, -0.02141413f, -0.34782875f, -0.70440447f, -1.28333819f,
  -1.23686564f, -0.69359869f, 0.60232842f, 0.15762383f, 0.85250652f, 1.04358900f, -0.20367624f, -0.15980907f,
  -0.18842784f, -1.00593317f, -0.73783374f, 0.60563987f, -0.36057371f, -1.64405465f, -1.41967499f, 0.71768409f,
  -1.12311161f, -0.85945117f, -0.49307910f, -0.28371346f, -0.58604395f, -0.64867210f, 0.48741764f, 0.72326571f,
  0.66991180f, -1.37764180f, -1.83143640f, -2.47343993f, -1.74377847f, 1.23240411f, 0.47751132f, -0.48587260f,
  -2.39300680f, 0.57846272f, -0.96200192f, 0.74549228f, 1.63499093f, -0.38255087f, -0.71391529f, -0.45783260f,
  0.29010746f, -1.27676475f, 0.24737801f, -0.45758036f, -0.90066499f, -1.72448671f, 0.13586564f, -0.29400885f,
  -0.52763414f, -0.52411240f, -0.24619119f, 2.00162578f, 0.67713398f, -0.34610650f, 0.48796469f, 0.32691258f,
  0.96891958f, -0.74661618f, 1.60300004f, -0.20232970f, 1.09595847f, -0.90943813f, 0.68133587f, -0.44266981f,
  0.39408362f, 0.98404479f, -0.85890156f, 0.17188565f, 0.61753422f, -0.26600078f, 0.91460025f, 0.49143547f,
  0.52572727f, 1.42643797f, 0.47651985f, -0.27242753f, -0.12403098f, 1.43149388f, 1.27182853f, 1.02323294f,
  1.00827849f, -0.09519771f, -1.76346743f, 2.05819035f, -0.11334163f, -1.81317294f, -1.23885536f, -0.06941783f,
  0.40632495f, -0.18396752f, -0.79302192f, 0.61644405f, 0.06482330f, 0.56580269f, 0.60693818f, 0.74714071f,
  -0.94753194f, -0.17260334f, -1.75336897f, 0.17818320f, -0.65099907f, 0.29196998f, 0.39171019f, -0.68989384f,
  0.34514606f, -0.14495647f, 1.00091577f, 0.92244762f, -0.12628882f, 0.71250778f, 1.23445928f, -0.25321034f,
  -1.36174643f, -0.70833081f, 1.14520478f, 0.86245495f, 0.57044977f, -0.49636602f, 0.73645198f, 0.16288248f,
  0.50956470f, 1.13628662f, -0.28520656f, 0.42841205f, -1.08913934f, -2.29622960f, 0.46398455f, -0.57856876f,
  -0.04483544f, 0.11957730f, -1.44018114f, 0.41920155f, 0.00140187f, 1.36723840f, -1.34343088f, 0.26306692f,
  -1.16991889f, 0.16525055f, -0.62061423f, 0.51408511f, -1.58423936f, 0.79643959f, 0.01652908f, -0.14961308f,
  0.06103243f, -0.52005100f, -0.68818504f, 0.79013246f, -1.35401607f, -1.19851363f, -0.10091610f, 0.00101929f,
  0.48442677f, -0.30405241f, 0.01590179f, -1.61542332f, 0.09736741f, 0.03360242f, 1.20172167f, 0.79185116f,
  1.20887947f, -1.88090348f, -1.35100710f, -0.41866142f, -0.21068904f, -0.90661991f, 1.24704623f, 0.35843199f,
  0.59097314f, 0.05132298f, -1.67932725f, 0.40040663f, -1.27459013f, 1.07164621f, 0.07974435f, -0.12862669f,
  0.49262384f, 0.48965386f, -1.49171174f, 0.72803426f, -1.19528401f, -0.12853794f, -0.40454292f, -1.13017023f,
  1.97179592f, 0.57689321f, -2.90051007f, -0.67107630f, 0.50234222f, 0.27870443f, -0.34326518f, 0.03431602f,
  -0.47008890f, 0.76311696f, 0.81717008f, 0.65892005f, 1.66564286f, -0.34272471f, 0.75880128f, -0.68471211f,
  1.46914673f, 0.84541088f, 0.52518922f, -0.05835662f, 0.53116620f, 0.60550100f, -1.32305872f, 0.81088889f,
  0.12806083f, 2.52473879f, 0.78333867f, -0.69437319f, 1.30356848f, 0.62333477f, 1.37231457f, 1.02368462f,
  1.74110794f, -0.26641098f, -0.20970762f, 1.73932648f, 0.14581519f, -0.06586484f, 1.59224463f, -0.66373664f,
  1.58973134f, -0.35528508f, -0.63745564f, 1.11066675f, 2.33063436f, 0.95870775f, -0.53311372f, 0.08803573f,
  2.47168946f, 0.18543595f, -1.12761760f, 0.54822403f, 1.85866404f, -0.29918900f, 0.34981108f, -0.68393791f,
  -0.02885874f, 0.65191072f, 1.15537989f, 0.38481158f, 0.93914831f, 1.46990371f, -0.33324510f, 0.15817747f,
  1.65830195f, -1.26755691f, -0.43290722f, -0.64968550f, -0.20516536f, 0.67222041f, 0.02573702f, -1.20850980f,
  -0.38922611f, 1.12782276f, 0.44654748f, 0.27964598f, 2.06427097f, 1.24341476f, -1.20092905f, 0.83554018f,
  -0.40065873f, 0.18888989f, 0.12489347f, -0.00496121f, -0.21989678f, -1.31347251f, -1.02532649f, 0.38792667f,
  0.16496080f, -1.53670311f, 0.65278631f, 0.22540724f, 1.45726299f, 0.24497446f, 0.29187331f, 0.18389307f,
  -0.23437633f, 0.59945697f, 0.36456540f, 0.39779803f, 0.12721135f, 0.26313108f, -2.22605872f, 1.24844718f,
  -0.43476316f, 0.01708420f, -1.25610471f, 0.37480649f, 1.27894807f, -1.07720184f, -0.71393067f, 0.25875381f,
  0.95389438f, -1.14648151f, -0.60840684f, 0.01946997f, 0.45686644f, 1.80515909f, -0.82746357f, -1.17970860f,
  0.94781208f, 1.02960539f, -0.90377653f, 0.27135903f, 1.83675504f, -0.44375941f, 1.11363637f, -1.28632832f,
  -0.76440799f, -2.76915479f, -0.65017819f, -1.80547237f, -0.23781824f, 0.01516807f, -1.13396025f, 0.09199413f,
  0.07874330f, -1.14890850f, 1.39134395f, 1.19639933f, 0.07112330f, 1.15775013f, -0.87793136f, -0.55318934f,
  -0.90781152f, -0.75220883f, -2.28327918f, 2.00942159f, 1.17736351f, 0.16287674f, -1.08999503f, 1.79244041f,
  0.57620174f, -0.42878312f, 1.01044285f, -0.60797530f, 2.34252262f, -0.72988939f, 0.96524227f, -0.56831783f,
  -0.15882403f, 0.82338417f, 0.73667687f, -0.16720834f, 0.39355525f, 0.55213803f, 0.70146310f, -0.43896869f,
  0.26091215f, 1.06324971f, 1.07515955f, -2.07243347f, -1.45687151f, -0.74309814f, -1.06467032f, -0.68359065f,
  -1.66032434f, -1.25327599f, -0.19529654f, 0.87365782f, -0.69517684f, 0.31948584f, 0.35379168f, -0.54978085f,
  1.86041260f, -0.26972157f, 1.66701412f, -0.33053011f, 0.35688475f, 0.43469372f, -0.51688313f, 0.88027203f,
  1.03892028f, -0.38499185f, -1.60359836f, 1.60884762f, -1.60926449f, -1.15351284f, -0.35022968f, 0.45736304f,
  -1.51159990f, -1.02978122f, -1.03351593f, 1.07526267f, 0.52992517f, -0.32179812f, -0.72658455f, 0.30467966f,
  2.02815723f, 0.03207462f, -1.06819797f, -0.34422332f, 0.64754564f, -0.18011503f, -1.20822883f, -0.22936055f,
  -0.77917498f, -0.57795399f, 0.46532047f, 0.75609785f, -0.51247859f, 0.00255426f, -2.01803708f, -0.55677366f,
  0.80579293f, -0.36637142f, -0.12084817f, -0.46566632f, 0.03460326f, -1.07682276f, 1.78351712f, 2.36153579f,
  -0.70220822f, -0.22462569f, -0.92863274f, -0.59711355f, 0.36000097f, -0.39840466f, -0.74605793f, -0.62318331f,
  -0.99574327f, 0.15054582f, -1.08086431f, -0.71923345f, -0.76600766f, -0.08615664f, -0.21335822f, -0.73317647f,
  -0.63778204f, 0.20918985f, 2.39769053f, -0.66864514f, -0.34269124f, -0.07442505f, 2.65899897f, -1.30719388f,
  -1.03241360f, -1.12269366f, 1.67951047f, -1.91694355f, 0.57191920f, -0.48419064f, 0.11331592f, -0.51399070f,
  -0.71395296f, -0.34351480f, 1.62701750f, 1.26576471f, 0.10087090f, -0.30232227f, -0.33795467f, 0.63339514f,
  0.60366642f, 3.70605922f, 0.66827357f, -0.36102125f, 0.50957608f, 0.69183224f, -0.15406398f, 0.01869930f,
  -0.02831750f, 0.86113483f, -0.04982832f, -0.51504761f, 0.04399877f, -0.11194550f, 0.97797954f, 0.41835871f,
  -0.16212553f, -0.16826567f, -0.95816571f, -0.01303742f, 0.00508249f, 0.66440868f, -0.33487284f, -1.57850075f,
  0.31920353f, -0.69563872f, -0.19944783f, -1.08540058f, 0.93760931f, 1.02599812f, -0.57410568f, -1.01599681f,
  0.85563821f, 0.27697536f, -0.40233791f, -0.06904939f, -1.18746793f, -0.95872551f, 0.37967440f, 1.35501063f,
  -2.07390547f, 0.79412436f, -0.51262659f, 0.45484644f, 0.01375166f, -0.18565975f, -0.98613489f, 0.49799192f,
  0.99029779f, -0.06525531f, 0.71974134f, 0.37629816f, 0.47686636f, -0.38472041f, 1.36676764f, 0.68140614f,
  0.43713740f, -1.85262036f, 0.54005378f, 0.65803885f, 0.22917642f, 0.66214126f, 0.70559299f, -1.16827750f,
  0.51008338f, 0.13838711f, -1.09436965f, 0.28619751f, 1.51616430f, -0.36391133f, -0.75052476f, -1.07709897f,
  -0.21976434f, -0.31930014f, -1.15878427f, -0.98845375f, -0.39143780f, 1.57946789f, 0.37532693f, 2.01913762f,
  -0.76081532f, 1.51499784f, -0.12960711f, -1.26672947f, 3.26189566f, -0.79112810f, -0.85353351f, 0.65450358f,
  -3.06855607f, 0.21085562f, -0.18268748f, 1.96457040f, 1.38144529f, 1.27429891f, 0.23240446f, -0.40927565f,
  -0.42324528f, 1.59680498f, -0.99013275f, 1.25245965f, 0.31464905f, -0.35458887f, -0.82317662f, -0.97271532f,
  0.10646179f, -1.33990884f, -2.30017781f, 1.32531512f, -2.04948306f, 1.23555756f, -1.07110310f, -0.05108253f,
  -0.50672078f, -0.43458104f, -0.24932237f, 0.92967206f, 0.63500375f, 0.00631194f, -1.16929388f, -0.66289502f,
  -0.60529429f, 2.65549517f, -0.93338352f, 0.96272349f, 0.17781527f, 0.36395583f, 0.80833858f, -0.05764438f,
  1.20701385f, 0.41387466f, -0.61595875f, 2.09616804f, -2.15912104f, -0.58079046f, -0.97764868f, 1.29457414f,
  -0.24999644f, -0.43449470f, 0.05044675f, 1.30507028f, 0.37702316f, 0.47240895f, -0.36287296f, 1.25002205f,
  -0.81096238f, -0.11591254f, -0.19930658f, -0.26279920f, -0.08075049f, 1.94561291f, 0.98115891f, -0.99915057f,
  -0.90733093f, -0.01243196f, 1.28421521f, 0.46223375f, -0.02892273f, 1.17794120f, -0.23943175f, 1.14936543f,
  1.68943012f, 0.10520838f, -0.80630910f, 0.88275868f, -1.50989866f, 0.88238752f, 0.11969908f, -1.70243037f,
  -0.35801694f, -0.05732708f, 0.29103339f, 1.43998075f, -0.45329371f, 0.58818060f, 0.50847673f, -0.48440692f,
  1.39545643f, 0.03289812f, 0.07452941f, -0.60999763f, 1.20905983f, -0.46006009f, -0.23673956f, 0.29388666f,
  1.53829026f, 1.17722523f, -0.52306992f, -1.12567902f, 1.63942468f, -0.97999877f, 0.95050591f, 0.76212490f,
  0.91500723f, -1.25041378f, 0.84345895f, -1.30973732f, -0.62629294f, -0.63737541f, 0.08334721f, 0.25996706f,
  -1.55399132f, 1.84768236f, 1.17550743f, 0.59117001f, -0.21692054f, -0.32874322f, 0.93787009f, 0.06404860f,
  -1.71635258f, -1.73140800f, -1.07222462f, 0.08566283f, 1.14520407f, -0.07770184f, -0.05379838f, -0.21479237f,
  0.83866763f, 1.09420240f, 0.26782301f, -1.26114333f, 0.10125349f, 1.50802302f, 0.18178923f, 0.01356736f,
  0.59497643f, -0.32999122f, -1.05597222f, 1.13444126f, 1.66083539f, 0.56203306f, -0.80123883f, -1.08407140f,
  -1.09559464f, -0.14785634f, -0.66745681f, 0.12300679f, 1.35427248f, -0.43560058f, 1.60761356f, -0.63589346f,
  -1.14480567f, 1.76867425f, -0.12342474f, 0.34830320f, 0.78648031f, 2.67208099f, 0.20841345f, -0.21499811f,
  -0.95627993f, -1.58809364f, 2.29460955f, 0.72129536f, 0.83854860f, 1.26825440f, 1.01811242f, -0.90005064f,
  0.44226992f, -0.06367382f, 0.64538080f, -1.23358560f, 1.41825223f, -0.84812015f, 0.07219646f, 0.70687526f,
  -0.01471223f, 0.39662305f, -1.85614860f, -1.10598469f, -0.22095761f, 0.20244874f, -0.11235348f, -0.38498056f,
  0.14955774f, -0.94442523f, 0.52615982f, 0.16833532f, -0.10893849f, 0.17018977f, -1.15365922f, -0.13375174f,
  -1.37983155f, -0.62919593f, 1.00842702f, -0.71389991f, 0.37955263f, 0.55391890f, 0.12858580f, 0.09334113f,
  2.62092113f, -0.63600647f, 0.36364329f, 0.14485654f, -0.97317034f, 0.58746588f, 1.27528095f, -0.23775755f,
  -0.12071467f, -1.31646740f, -1.17239201f, -0.46963677f, -0.54235059f, -0.93951035f, -0.35497835f, -1.56778026f,
  -0.48794925f, -1.09854448f, -1.02938807f, -1.76917386f, -0.55592740f, 0.24176191f, 0.29089808f, 0.14166351f,
  -0.69899285f, 0.54367399f, 0.80969137f, -0.90346283f, 0.15160897f, -0.22710814f, 1.91327643f, 0.50881720f,
  0.57525522f, -0.49061218f, -1.28814542f, -0.48048022f, -1.24938834f, 1.37520421f, 1.21322691f, -0.42866185f,
  -1.44310200f, 0.22575030f, -0.16962576f, -1.24010015f, -0.07895520f, 1.19519138f, -0.42181015f, 0.02759627f,
  0.49737439f, 0.37343818f, -0.50272447f, 0.09917936f, 0.07391192f, -1.47071636f, 1.17182136f, 1.60232198f,
  -0.31701478f, -0.98692983f, -1.81743348f, 1.58008420f, 0.81761509f, 0.18619291f, 0.27747536f, 0.60915309f,
  0.95096666f, -0.45281252f, 1.88223147f, 0.20688379f, -1.39538229f, -0.21824913f, 0.32433715f, -1.61370301f,
  -1.49826181f, 0.14156570f, -0.16499190f, -0.64912134f, -1.16501987f, -0.95079315f, 1.77200663f, -0.48885018f,
  2.38472509f, -1.24336803f, 0.22182049f, -0.88690782f, -0.01231959f, -0.51195395f, 1.67479253f, 0.18693149f,
  -1.32686293f, 0.47040400f, -1.05252469f, -0.79156703f, -0.35668525f, 0.19071464f, -0.00911825f, 0.42373213f,
  -3.33079147f, -0.35676467f, -0.13589963f, -0.31751132f, 0.16249228f, -2.55556726f, -1.52063930f, -0.46409857f,
  -0.26494819f, -0.13181365f, 0.70719850f, 0.04846879f, 0.31228974f, -1.28541911f, 0.34620187f, 0.63969314f,
  1.08384907f, 0.62657195f, 1.81688929f, 0.13707794f, -1.10077119f, -0.08013482f, 0.18885830f, 1.04883516f,
  -1.76934469f, -0.80123645f, -0.20464031f, -1.26576805f, 0.45924050f, 0.87041450f, -2.43343258f, -0.26599765f,
  1.86313462f, -1.42516613f, -1.20040905f, 1.22477257f, -1.01984191f, -0.50388539f, 0.66876549f, -2.74683261f,
  0.08576320f, -0.77649438f, -0.98077577f, -0.22510037f, -0.41988531f, -0.75311255f, 1.04935932f, -0.99941087f,
  -0.24671586f, 2.03257751f, 0.33191136f, 0.66533017f, -0.99817300f, -0.06281205f, 0.51946235f, -0.51178277f,
  0.34008995f, -0.61975789f, 0.45827192f, -0.09551757f, -0.56747872f, 1.67402935f, 0.60153496f, 0.23989531f,
  -0.99489868f, 0.77312398f, 0.51057768f, 0.21374483f, -0.16199419f, -1.18625414f, 0.78707975f, -0.74184519f,
  1.02968240f, -0.60571122f, 0.14825346f, 0.22549851f, -0.32447386f, -0.89770019f, -0.00855311f, 0.72572935f,
  1.47161055f, 0.24241336f, 0.42309615f, -0.26620787f, 1.08317566f, 0.78522122f, -0.68878281f, -0.14084640f,
  -0.71891433f, 0.38584703f, -2.22160101f, 0.23781355f, 2.17383814f, 0.61474776f, -2.89449263f, -0.48321429f,
  -0.34844631f, -0.73842984f, -1.25522304f, -0.61641991f, 2.03944731f, -0.07365499f, 0.43713951f, -0.14296444f,
  -1.34200025f, -0.75231826f, -1.50612724f, 0.42058256f, -1.14400113f, 0.80162340f, -0.51210904f, -0.16124277f,
  -0.15838449f, 0.49784988f, 1.28780985f, 0.26655966f, -0.03290239f, 1.08325386f, 0.18839672f, -0.14270686f,
  -0.20776388f, 0.18091805f, 1.36038160f, 0.56958121f, -1.16714716f, 2.51402926f, 0.32804483f, -1.02674782f,
  1.58457434f, 0.19824681f, 1.16336787f, -1.05311942f, 0.22933391f, 0.96656102f, -2.47918010f, -1.44713724f,
  -0.54783535f, -0.42221925f, -2.31078768f, -0.34438184f, 0.63924295f, -1.03563213f, -2.66956711f, 0.04693999f,
  1.54105008f, -0.49450892f, -0.50956398f, 1.96772969f, 0.10547727f, -0.08585036f, -0.43008885f, -0.95767587f,
  2.52890706f, 0.42604721f, -1.30405295f, 0.38943273f, -0.46118209f, -0.82974303f, 0.15196897f, 0.66423666f,
  -2.88122869f, -0.93886650f, 0.37751773f, -1.34041142f, 0.61797535f, -0.10801674f, 0.26477876f, -0.61215407f,
  0.43351674f, -2.26771522f, -0.28106096f, -0.22536971f, -1.41737211f, 0.43004268f, 2.83791184f, -0.37736377f,
  -0.87408775f, -1.27095890f, -1.53729260f, -0.28173962f, -0.33911008f, -0.39962021f, 0.00661558f, -0.06163419f,
  -0.18049064f, 1.51485682f, -0.64393318f, 0.55501610f, -0.82487929f, -0.05028134f, -0.23728520f, -0.09891257f,
  0.23381566f, -1.29414606f, 1.00371695f, 0.77943778f, -0.86645246f, 0.03189720f, -0.31517896f, 0.95550996f,
  1.11392391f, 0.55555403f, -0.49709287f, 0.45663109f, -0.36730215f, -0.07266887f, 0.29863837f, 0.29818165f,
  -0.56676745f, 1.20409453f, 0.65366650f, -1.73323560f, -1.68577600f, 0.29425421f, -0.09779957f, 1.31209826f,
  -0.74971068f, -0.45377332f, -0.31719020f, -1.46588433f, -2.32298756f, -1.02735531f, 0.94560719f, -0.59129506f,
  0.88067985f, 1.17896128f, 0.04020276f, 1.07926941f, -0.51860994f, -0.79023242f, 0.50744426f, 1.59589326f,
  0.53137517f, -0.05388384f, -0.94317323f, 1.12027442f, 0.54018921f, 0.23147729f, 0.25492930f, -0.04350285f,
  -0.09537325f, 0.35067472f, -0.16672818f, 0.67438501f, 1.19664538f, -1.53347087f, 2.35153103f, -0.40429688f,
  -1.32440674f, -0.14451562f, -0.05078891f, 0.70764595f, 0.83523589f, 0.03772030f, -0.85754287f, -0.47724468f,
  1.06999505f, -0.83791608f, 0.87514067f, 1.01305592f, 1.59930933f, -1.02841437f, -1.39268100f, 1.42811990f,
  0.67437291f, -1.47574008f, -0.38896969f, 2.08676648f, -0.67370361f, -1.84760737f, 0.46245494f, -1.95531893f,
  -0.24050066f, -0.71972865f, -0.81370550f, 1.23523510f, -0.08675958f, -0.31239641f, -1.62964559f, -0.62345743f,
  0.13992494f, 0.77470124f, 0.35116389f, -1.67127800f, -0.76003027f, 0.53526604f, -1.04768264f, -0.66041714f,
  1.73713112f, 0.43622324f, 1.42525983f, -0.06987929f, -1.84482729f, 1.92527580f, -1.09444392f, 0.90536135f,
  -1.10930920f, -0.74082047f, 0.42781347f, -1.05564106f, 1.97001636f, -0.76431453f, 0.96964580f, 0.03055212f,
  -1.93116319f, -0.50463831f, -0.66155320f, -0.36736354f, 1.90478277f, 0.63251460f, -0.40483236f, -0.84746552f,
  1.16768444f, -0.39808282f, 0.31672537f, -0.11207466f, -1.17901874f, -0.36546820f, 1.17690003f, 0.86888301f,
  -0.59847802f, -0.64956492f, -0.40501174f, -0.73165292f, -1.67583287f, 1.31562340f, 0.53718674f, 1.55243123f,
  0.86519653f, -0.30369106f, 0.49928451f, 2.02415800f, -0.68722743f, -1.01310706f, 1.16197956f, -0.50167841f,
  0.10224926f, -0.27052864f, -2.23389721f, 0.09087400f, 0.68801939f, 0.34164760f, 0.63890100f, 0.98842287f,
  -0.40387887f, -2.39354920f, -0.57795209f, 1.22370982f, 0.32564166f, 0.87545806f, -1.28486371f, -0.91438323f,
  -0.52765179f, 0.59968811f, -0.21793433f, 0.38968378f, -0.21337608f, -2.18296123f, 0.49891281f, -0.17212480f,
  -1.40926957f, -0.77337927f, 0.49670228f, 0.76802015f, -0.01498260f, 0.90150738f, -0.13144159f, -0.52250785f,
  0.07989775f, -0.97142762f, -0.76360017f, -1.34313667f, 1.87485278f, 1.88527608f, 0.36402512f, -1.06867695f,
  -0.72067022f, 0.34727874f, -0.96066886f, -0.99766177f, -0.83895230f, -0.48084965f, 0.48326060f, -2.09325862f,
  -0.26959667f, -0.51491171f, 1.67895293f, 0.76670140f, 0.27119240f, 0.46397734f, -0.31102717f, -0.35993102f,
  -0.25422052f, 0.42846215f, -0.34108269f, -1.21178210f, 0.17454916f, 1.11531591f, 1.09973824f, 0.69183773f,
  0.25622621f, 0.28044873f, 0.76656526f, 0.45578223f, -0.27553979f, 0.14233258f, -1.10446286f, -0.50380993f,
  1.74960113f, 0.24344565f, 1.38903821f, -0.53240991f, 2.80110884f, 0.61671007f, -0.20932132f, -0.29895106f,
  0.98491794f, 0.42713737f, -0.45960727f, 0.38255352f, 1.43085539f, 0.49668434f, 0.53524029f, -0.63848925f,
  -0.75055456f, 0.43265420f, 0.06528725f, 0.38159168f, -0.26688355f, -0.38833496f, 0.65967846f, 0.36349058f,
  -0.33360866f, 0.31515285f, -0.54415113f, -0.70776600f, 0.78578120f, -1.36283183f, 1.26360452f, -0.23903857f,
  1.12377524f, -0.98928595f, -0.58957011f, -0.23044497f, 1.40226185f, 0.20040843f, 0.39708921f, -1.77311862f,
  1.37412429f, -0.00567231f, -2.00639915f, -0.87185198f, 2.54541278f, 0.64474106f, 1.11081851f, -0.86223716f,
  -0.21880661f, 1.10393775f, 0.18873867f, -0.47683924f, -0.76633596f, 0.33575433f, 1.78703344f, 0.65477580f,
  0.09493551f, 2.09098291f, 0.99767530f, 0.09030139f, 0.92245930f, -0.03594737f, 1.31479847f, 0.68739182f,
  0.84734744f, -0.03315759f, -2.12985206f, 0.38064712f, 0.74252814f, 1.22588217f, -1.63193464f, 1.59481621f,
  -1.49061751f, 0.26675615f, -0.73873895f, 0.37467074f, -0.37331727f, -0.09137835f, -1.64549482f, -1.05435431f,
  1.35070467f, 1.01212072f, 2.29619813f, -1.58890855f, 0.02929892f, 0.46903917f, -0.79643804f, 0.78612471f,
  1.53743362f, -0.75745094f, -0.22113536f, -1.78975797f, -1.52299798f, 1.30344391f, 0.53131634f, -1.62472785f,
  -2.59262657f, -0.66794991f, 1.66642785f, -1.02648008f, 1.29500628f, -0.21767682f, 0.37423331f, -1.36913693f,
  -1.13371491f, -1.89359617f, -1.04174185f, -0.28502986f, 0.26557407f, -0.08863809f, -1.74681866f, -3.46742272f,
  0.39220333f, 0.91683692f, 0.96352077f, 0.92393589f, 1.00393331f, 1.32233882f, -0.72437292f, -0.33248490f,
  -0.22173427f, 0.06269780f, -0.75555271f, -1.37871790f, 0.17575431f, 0.78084075f, 1.44925690f, -1.69554710f,
  -0.69422764f, -0.30515882f, -0.35952321f, -1.68858147f, 0.34733057f, -0.65840393f, -0.14377923f, 0.25616759f,
  1.30998409f, 2.21889567f, 0.85795516f, 0.02523996f, 1.00604272f, 0.45118955f, -2.20686817f, -0.06272411f,
  1.98230600f, -0.36225018f, 1.88818800f, 0.10241348f, -0.40067130f, -2.39306045f, -0.37772703f, -1.74543607f,
  -0.24443451f, 0.06581101f, 1.01741302f, -0.60510069f, -0.48099986f, 0.38911897f, 0.08269889f, 1.12861085f,
  2.29683280f, 1.42250049f, 0.60853541f, 1.43102682f, 1.09413576f, 0.85413927f, -0.25730425f, -1.05033839f,
  -1.48276198f, -1.19837725f, 1.13582361f, 0.12000652f, 1.05753481f, 1.28661823f, 0.42271537f, 0.11125132f,
  -1.64818132f, -0.20047361f, -1.85541236f, -0.19898549f, 0.35351044f, 0.43520728f, -0.85657221f, -0.21742582f,
  0.11061428f, 1.05033779f, 0.04045664f, -2.32992339f, 1.34070528f, 1.04170454f, 1.04695714f, -0.68610579f,
  -0.57253850f, 0.32821366f, -0.07845251f, -0.72508037f, 0.55802149f, 0.48660597f, -2.36754012f, -0.02298089f,
  -0.16648655f, 1.01833069f, -2.82756257f, 0.32019791f, -0.42778695f, 0.09725548f, 0.38037339f, 0.17850834f,
  0.45409244f, 2.33992028f, -0.23403761f, -0.63673264f, -0.05650249f, 0.71506870f, -1.15062761f, 0.56080925f,
  -0.18368618f, 0.48409471f, 0.97054756f, 0.94891274f, 0.56608039f, 1.62734354f, -0.17388149f, -0.30263695f,
  0.17719626f, 0.14501438f, 1.42822039f, 0.49988908f, -0.93642396f, 1.43120050f, 0.36121699f, -0.64235902f,
  -0.87520409f, 1.46058095f, -0.56339782f, 0.73322886f, -0.77415651f, 0.05897347f, 1.89533615f, 0.14010763f,
  0.05955085f, 0.03006506f, -0.76911110f, -1.45805204f, 0.11575699f, -0.02507613f, -0.30205211f, 1.05632043f,
  -0.33776104f, 3.42720509f, 0.18615690f, -2.06014132f, -0.44352677f, -0.24425063f, -0.55030811f, -1.06158543f,
  0.12138420f, -0.83031255f, 1.03883839f, -0.16185223f, 0.07427645f, -0.40983462f, 0.74129951f, -0.07993717f,
  -1.48231316f, 0.93154186f, -0.19886538f, -1.69808364f, 0.75122714f, 0.28203341f, 1.13556921f, -0.58243871f,
  0.65734529f, 0.11132310f, 1.14743376f, -0.77924073f, 0.30482325f, 0.84119964f, -0.25139859f, 0.52456933f,
  1.07350349f, -0.89360923f, 1.30424035f, 0.77955341f, 0.23234205f, 0.29537579f, 1.47113693f, -0.79833233f,
  1.77630043f, 0.06087274f, 0.33710146f, -0.92800647f, 1.41484571f, -0.52610576f, 0.09434884f, -0.37483686f,
  -0.43025506f, 0.78156328f, 0.86571902f, 0.23911469f, 0.46456471f, 0.28405738f, 0.98862296f, 0.62312192f,
  1.91899097f, 0.35284564f, -0.89949232f, 0.07567965f, 1.01182163f, -0.11808322f, -0.90417290f, 1.20672214f,
  -0.08524146f, -0.00443198f, -1.14717746f, 0.33932754f, -0.66255051f, 0.07237253f, -0.05251599f, -0.60492361f,
  1.81454897f, 0.78159779f, 1.35484982f, 0.82052547f, 1.20866168f, -1.17811465f, 0.68379831f, -0.81058675f,
  1.61133969f, 2.03721690f, 1.85294855f, 0.07730193f, -0.56719482f, -1.21839571f, -1.54079437f, -0.46069235f,
  -1.11676908f, -1.14378595f, -0.73592049f, 0.83245885f, -1.92792702f, -0.82147437f, 0.12438619f, 0.54752505f,
  1.07881653f, 1.18165314f, -0.15124333f, -0.32798517f, 0.30102077f, 0.08733166f, -0.55107147f, -1.32281721f,
  -0.50814080f, 0.25331482f, 0.74095392f, -0.38578629f, -0.96282876f, 0.02379134f, -0.90172094f, -1.07721078f,
  0.59662127f, 0.98230773f, 0.76509577f, 1.88989460f, -0.36444947f, 0.16057248f, -1.68421650f, -0.95466930f,
  -1.77441680f, -0.30355552f, -1.15251911f, 0.76079851f, -2.57290816f, -0.69304228f, 2.09173822f, 1.26770675f,
  0.34500596f, 0.54673517f, -1.95552158f, -0.21232399f, 1.57453215f, 0.21881516f, 0.50071180f, 0.16258028f,
  -0.36651656f, 1.60518181f, 0.09113215f, 0.67544550f, -0.95325631f, 0.88359219f, -0.17227502f, -0.70067322f,
  -1.46039426f, 1.03093374f, 0.77724779f, -0.90192020f, 1.92742097f, -1.68542230f, -1.42175746f, -1.12335575f,
  1.31594658f, -0.36205855f, -0.59697038f, -0.11994875f, -0.43125021f, 0.13475347f, -0.40529191f, 2.30489826f,
  0.77330101f, -0.63967550f, -0.28669101f, -0.35321423f, -0.36595476f, 1.46284139f, 1.49107611f, -1.04549861f,
  0.56310451f, 0.10961060f, 0.25061676f, 0.61398166f, 1.37403226f, -0.60309821f, 0.13467243f, -3.03235984f,
  1.15503585f, 0.30905849f, 0.47817340f, 0.21663466f, -1.02375495f, -0.66752726f, -0.21338941f, -1.73269987f,
  0.41922015f, 0.69717818f, -0.11587557f, -0.39089707f, -0.06719919f, -0.07430380f, -1.49824035f, 1.31679869f,
  0.96185756f, -0.70764661f, 0.74079216f, 0.25292069f, 1.06198573f, 0.65095484f, 1.30459058f, 2.43810606f,
  0.20558812f, -0.90027946f, 1.53876710f, -0.34462005f, 0.46671715f, -0.06149192f, -1.39048350f, -0.42012843f,
  -1.55583131f, -1.35292387f, 0.78471947f, 0.30312350f, -0.49667913f, -0.33788300f, 1.08505464f, -0.48169118f,
  0.85639262f, -0.60282260f, 1.56071424f, 0.19493634f, 1.88808703f, 0.15622048f, -0.15212463f, 0.55955875f,
  0.16688119f, 0.69394797f, -0.86263245f, -0.24934901f, 0.23672871f, 0.32202742f, -0.88091028f, -0.76192123f,
  1.59491074f, -1.34802139f, -0.42868853f, -1.29880333f, 0.79362381f, 0.45814890f, 0.44422385f, -0.77574515f,
  -2.18365002f, 0.73761290f, -1.49401057f, 1.00915909f, -1.29697824f, -0.54062599f, 0.59891105f, -0.77896559f,
  0.09135049f, -0.44779837f, -0.53157336f, -1.90611827f, -0.82674676f, 0.66759294f, 2.34376836f, -0.62236083f,
  1.47057545f, 0.56313586f, 0.78486061f, -0.99458712f, -0.11325558f, -0.43780068f, 1.59469140f, 0.20049953f,
  -0.50113899f, 0.25597546f, 0.40333426f, -0.44416460f, 0.34879267f, 2.09829497f, -1.03635168f, -0.56558549f,
  -1.14429176f, -0.29176033f, -1.05459952f, 0.46585912f, -0.51740205f, 0.16948110f, 0.63602555f, -0.95555115f,
  -0.47848302f, -1.99696028f, -0.86501098f, 0.02831598f, 0.25247294f, -0.49868169f, 2.84452224f, -0.67917919f,
  0.15928484f, 0.61386704f, -0.05145593f, 1.96243107f, 0.37535152f, 0.51932794f, 0.41645488f, 0.05822782f,
  -0.96813345f, -1.13006127f, -0.02435145f, -1.04832363f, 0.41519469f, 0.12676577f, -0.84342408f, 0.10980783f,
  -0.91432559f, 1.40043068f, -0.19186805f, 0.14723709f, -0.20443064f, -0.18467183f, 0.60463196f, 0.91989118f,
  -0.75070536f, -0.38584751f, 1.07677436f, 1.10754859f, -1.02356553f, -0.37731117f, 1.11506248f, -0.34340355f,
  1.61117983f, -1.78652489f, -0.19895631f, 0.75009894f, -0.34515053f, 1.38001108f, -0.09555220f, -0.69667393f,
  -1.14634025f, 2.19088674f, -0.35578698f, 0.13008218f, -0.22734086f, 0.36609238f, -1.01678205f, 0.99140048f,
  -0.66391379f, 2.65136504f, -0.52294999f, -1.04283464f, -0.23688495f, -0.43467307f, -1.94854057f, 0.86133057f,
  -0.72774053f, -0.72011572f, -0.08716878f, -0.09940665f, 1.38012767f, 1.58668959f, 1.55556142f, 1.55675673f,
  -0.52160525f, -1.40539634f, -0.66647840f, -0.05489227f, 0.19514732f, -0.14323488f, -0.79137951f, -1.32144046f,
  -0.01441136f, -0.68888342f, 0.60580701f, -1.37721372f, 0.63108176f, -0.36027983f, -0.06991387f, -0.34640285f,
  -0.25575924f, 0.94774848f, -1.36588788f, -0.18727133f, 0.32063669f, -1.58932316f, -0.84722334f, -0.04502107f,
  -1.60994017f, 1.08581018f, -0.74380749f, -0.17390507f, 0.01754506f, -0.60384721f, 0.08980985f, -0.09493225f,
  0.81009316f, -0.87253612f, 0.60579771f, -0.75410736f, -0.65062940f, 0.39955384f, -0.34167546f, 0.53000957f,
  0.79448366f, -0.53675330f, -1.76370144f, -0.43130633f, -2.44706178f, -1.77535200f, -1.42064333f, 0.73761928f,
  -0.20904543f, -0.31548050f, 1.00197387f, -0.34995255f, 0.17879343f, -0.22548263f, -2.37433076f, 0.24969120f,
  0.64045173f, -0.09581865f, 0.91130996f, 0.67373663f, -0.28187224f, 0.52186269f, 0.16556633f, 0.50279504f,
  1.70511138f, 0.17775290f, -2.48792744f, -0.27180877f, 0.61922252f, 1.65382302f, -0.26008740f, 1.16407168f,
  0.85895818f, -0.70651048f, -0.12391629f, -0.60770321f, -1.00747752f, -1.86076605f, 0.59815973f, 1.16460800f,
  1.39879143f, -0.11603284f, -0.69313598f, -1.36435831f, 0.28508815f, 0.65545583f, -0.23874637f, -0.04541107f,
  0.23737712f, -0.12257411f, -0.15241499f, -1.08209527f, 0.75398821f, 0.98220378f, 0.33028707f, -0.49060175f,
  -0.36533660f, 0.93649536f, -0.40035081f, 0.50939792f, 0.19744340f, 1.22506225f, -0.46983385f, 0.18780223f,
  -0.19641803f, 0.70575207f, -1.36071658f, 0.48281249f, -0.38633135f, -0.69956708f, -0.85638291f, -0.01421775f,
  0.56267762f, -0.22114040f, -0.62476140f, -0.07775567f, -0.36680609f, 0.00054288f, 0.68171376f, -0.42232698f,
  0.38494688f, -0.01389315f, 0.04900564f, -1.65383255f, -1.82860947f, -0.79116279f, 1.17010581f, 0.40160498f,
  -0.27221474f, 1.33561599f, 0.32309639f, -1.52421176f, 0.85043734f, 1.68035412f, -0.34550035f, -0.06765012f,
  1.12934923f, -1.71411180f, 0.35625508f, -0.01888048f, -0.80001473f, 0.81475943f, -0.68453491f, 0.08847816f,
  -0.68996042f, 0.45695624f, 1.72257137f, 0.63008159f, 1.01035118f, 0.33153245f, 0.50507140f, 0.52671576f,
  -1.29433119f, -1.65046942f, 0.10642815f, 1.74011314f, 0.16845170f, -0.40875489f, 0.49991691f, 1.48192239f,
  -0.91437823f, 1.05792165f, 0.16412549f, -0.69902921f, 1.91141415f, 0.85042161f, -1.12439466f, 1.05161011f,
  1.85980403f, -0.83425677f, 0.17019996f, -1.30947053f, 0.98144239f, -0.23954161f, -1.29127359f, -1.78095078f,
  -1.19070494f, -0.83571762f, -1.12380505f, 0.56135726f, 1.06986642f, 0.33384126f, -0.44150564f, -1.41576111f,
  -0.36726132f, 0.80943912f, 0.49366367f, 0.45655501f, -0.02732644f, 0.64985299f, 0.42559698f, -1.67062867f,
  -1.24415159f, -0.46248960f, -1.13609433f, 2.05669141f, -1.57166255f, -0.00250067f, 0.06015101f, -1.37443447f,
  0.43611413f, -0.79119188f, -0.34820873f, 0.62859285f, -0.68450218f, 0.84339023f, 0.60120946f, -2.03806448f,
  -1.82384932f, -0.65705550f, -0.23022690f, 0.27936581f, 2.46698618f, 0.81098115f, -1.49356973f, -0.35980943f,
  1.58172286f, -0.34997243f, 1.03477418f, -0.08434791f, -1.80793881f, -0.29211313f, -1.70977139f, 0.64715701f,
  0.16532670f, 0.55750096f, 1.58160460f, 2.12909842f, 1.81709349f, 0.61329514f, -0.01269973f, 0.27748930f,
  -0.09222467f, 2.32587481f, 0.29979208f, 1.43593514f, -1.91346431f, 0.79116952f, 0.70133680f, -1.16547465f,
  0.49338907f, 0.14394148f, 1.03403151f, -1.57338941f, -0.72314018f, -0.24368548f, 0.27559233f, -1.02869666f,
  -0.28145725f, 0.37281531f, -0.84644777f, -0.46694580f, 1.37446642f, -0.77000624f, -0.14700867f, -0.09108094f,
  -0.88487440f, 2.33848357f, 0.31414604f, 0.62545890f, 0.38794819f, -2.08846140f, 0.55607069f, 2.35718298f,
  0.74424171f, 0.06974052f, 1.02553666f, 0.69823635f, -1.25676382f, 1.54735708f, 0.73053670f, -2.08119106f,
  0.88563180f, -1.62213814f, 1.03770566f, 0.17953864f, -1.68869245f, 0.22207439f, 0.67014390f, -1.15611291f,
  0.22883683f, -0.31768796f, -0.21885273f, -0.60642064f, -0.20656621f, 0.94023967f, 0.36900577f, 0.06259126f,
  0.41521218f, -0.88922656f, -0.01401437f, -1.44871843f, -1.30461490f, 0.07149371f, 0.48192295f, -1.40903389f,
  0.81212199f, -0.17023262f, -1.26480877f, 0.06012834f, 1.37820601f, -0.51240474f, -0.40143809f, -1.32140172f,
  0.03410483f, 0.95083195f, -1.27410364f, 0.67628860f, 2.29583573f, -0.20618944f, 0.35411799f, 1.43364298f,
  -0.78593183f, -0.08017419f, -0.26527649f, 1.42022777f, 0.64511406f, -0.47590879f, -0.75311458f, 0.51647329f,
  1.50196564f, -0.78740513f, 0.83992213f, 0.04721013f, -0.13954584f, -1.48979115f, 1.72904825f, -0.80278915f,
  -0.43144011f, -0.74297857f, 0.48727229f, 1.05770600f, -0.23012471f, -0.53408271f, -0.35542962f, -1.44365430f,
  -1.04550219f, -0.41582000f, -0.29734054f, -0.51122218f, 1.82549918f, 0.93189162f, 1.47050440f, -1.64033556f,
  1.73153710f, -0.63523221f, 1.04942977f, 1.89885795f, -0.08681393f, -1.27540183f, -1.63681984f, -0.51423234f,
  0.57705522f, -0.63518685f, 1.23225081f, 0.16375867f, 1.25722039f, -1.54017043f, -1.09768093f, -0.16454618f,
  0.72298360f, -0.12165008f, -1.12159085f, 1.45361483f, -0.15540136f, -0.40879712f, 0.54824960f, 0.08376143f,
  -0.30141857f, -0.27199838f, -1.23853743f, 1.33525550f, 0.11104090f, -0.96072143f, 1.96312082f, 0.89659035f,
  0.26627502f, -0.26287404f, 0.58669066f, -0.85333657f, 0.14560550f, -0.58251274f, 0.06448279f, 2.28070331f,
  -1.37680602f, 1.24741232f, -0.14595073f, -0.73710126f, 1.88016474f, -0.36899561f, 0.40798575f, -0.31284872f,
  0.22573081f, -0.38551664f, 0.03359084f, 0.95352453f, -0.13940148f, -0.49203163f, -1.32386160f, -1.23187792f,
  -0.90471607f, 0.73499274f, -0.91049689f, -0.38076064f, 0.12508088f, 0.47734067f, 0.31507424f, -0.17501032f,
  -0.11453693f, -0.70705009f, 0.04524193f, -1.53502154f, 0.27161586f, -0.19987856f, -1.00184846f, -1.02626991f,
  -0.81644577f, -1.49996924f, 0.22579387f, 0.37433881f, 1.92498994f, 0.02081308f, -0.47311777f, -0.08494785f,
  1.42703807f, 1.72241485f, -0.32481590f, -0.57809591f, 1.75985372f, 0.51124191f, 0.79329824f, 0.67415601f,
  -0.46212325f, 1.49953389f, 0.76372051f, 0.65917981f, 0.64557725f, -0.54673761f, 0.91835535f, 0.45143592f,
  -0.65210289f, -1.28511822f, 2.29676270f, -1.45956254f, -0.47137532f, -1.66331065f, -0.12414718f, 0.93224317f,
  -1.26181507f, 1.17043388f, -2.12711191f, 0.80565226f, 0.40866733f, -0.54990029f, 1.02404237f, 1.35109019f,
  1.47746634f, 2.25745463f, 0.61992389f, -0.48076341f, -0.39030814f, -1.06893706f, -2.43639731f, 0.70664847f,
  0.82016248f, 1.03600168f, -0.85316837f, 1.69536448f, 0.82941473f, 2.02895832f, 1.35782385f, 1.25371766f,
  -1.35091186f, -0.62874615f, -0.52295220f, 0.88957644f, -0.42430857f, -0.51758724f, 0.96888715f, 1.22946239f,
  0.45382470f, -0.46259600f, 0.18199107f, 1.34057033f, -0.52664882f, 1.58453131f, -0.55756754f, 0.16687331f,
  -1.41989338f, 0.61090100f, -0.10112023f, -1.10232496f, -0.68391269f, 0.13755412f, 2.04477596f, -0.99113518f,
  1.14187372f, -0.82112169f, 0.47453448f, -0.61074418f, -0.32235748f, -1.02603185f, 0.77050376f, -2.22904754f,
  0.09271769f, 0.23543760f, -0.03015476f, 0.65073866f, -0.37653989f, -1.68796504f, 1.33129942f, -0.54948908f,
  1.41965771f, -0.29404947f, 1.72490013f, -0.56340015f, -0.17123386f, -1.23232400f, -0.95708275f, 0.18437117f,
  0.38712624f, -0.51769108f, 0.16463743f, 0.82240123f, 0.36611924f, -0.44151613f, 0.80363744f, 0.33654085f,
  -0.82809633f, -1.01572096f, 0.45026174f, -0.56839240f, 0.08803903f, 0.60279101f, 0.16393220f, 0.01658119f,
  -0.45828173f, 1.19394767f, 0.42358461f, -1.45793116f, -1.24529290f, 0.43745115f, 1.79813707f, 0.67111790f,
  0.87246621f, 0.88636810f, -1.42505836f, 1.16488218f, 1.54069686f, -0.62735987f, -0.58884841f, -1.18420744f,
  -0.03937829f, 1.16740417f, -0.61399442f, 0.36593759f, 2.79169536f, 1.53595507f, -0.09316278f, -0.53194249f,
  -0.18008552f, -0.55065590f, -1.09941101f, -0.81348932f, -0.55867958f, -0.26265249f, 0.13274442f, -0.79451311f,
  0.22324745f, 0.06273744f, -0.25959936f, -0.80008805f, -1.33231246f, -1.49807584f, -0.42559856f, -0.92709124f,
  -1.02839649f, -1.29156208f, 0.07835017f, 0.76671743f, -0.19464712f, 0.13592012f, -0.42934221f, 0.44453558f,
  -0.43718973f, 0.28469732f, -1.86566317f, 0.04057697f, -1.27429724f, -0.78566635f, 0.90821052f, 0.33436552f,
  0.25694621f, 0.52644539f, 0.91224277f, 0.53163975f, 1.01694179f, -0.14945103f, 0.72427887f, 0.20666273f,
  -1.12618756f, 0.11785427f, 0.71670890f, 1.63815975f, 0.10475511f, 0.61990333f, 0.71052080f, -1.14245105f,
  1.26787889f, -1.86499441f, -0.14480706f, -0.42600402f, 1.69630325f, 0.62857348f, -0.64586180f, 0.41973239f,
  0.25026533f, 0.36329213f, 0.82012951f, -1.34046578f, 0.77002782f, 0.82319891f, 0.50128686f, 2.43020868f,
  -0.42021868f, 0.78763258f, -0.55937135f, -0.16842157f, -2.42302251f, -1.07368886f, 0.83531392f, 0.29468045f,
  1.10055971f, -0.44597438f, -0.33440924f, 2.27332401f, -1.25390685f, -0.34799343f, -0.00754960f, -1.35074091f,
  1.64596987f, 2.66791224f, 0.63900959f, 1.68950117f, -1.47559905f, 0.59871179f, 0.20034029f, 0.55979067f,
  0.11693205f, -0.59363383f, 1.74694610f, -0.11471733f, -0.58520752f, 0.81561548f, -1.03722239f, -1.02050376f,
  0.05427507f, 0.56130105f, 0.13523519f, -0.47379908f, -1.21642613f, 0.80191934f, -0.56053227f, -1.24936366f,
  -1.43860340f, 0.63291550f, -0.27593634f, -1.14121723f, -1.59940970f, -1.10552597f, 0.73260057f, -0.54026854f,
  0.17102444f, 0.35032392f, 0.42885253f, 0.65956110f, -0.35333386f, -0.91547465f, 1.21505702f, -0.42135787f,
  0.02554362f, 1.21867383f, -0.73240507f, -0.98674482f, -0.13318363f, -0.49054924f, -0.29166329f, -0.03508400f,
  0.02648424f, -0.84911668f, -1.27354980f, -2.26019359f, -0.34922448f, -0.92875129f, 0.30840290f, -0.53109372f,
  0.67203939f, -0.62032473f, 0.59883773f, -1.13719285f, -1.07419372f, -0.63184077f, -2.47913527f, -0.27621421f,
  0.77552474f, 0.47721624f, 1.35648882f, -0.97313881f, -0.54193443f, 0.66731930f, 1.92812574f, -1.69215190f,
  0.19743836f, -1.08130622f, -1.89347494f, 0.17719762f, -1.45571983f, 1.29645681f, -0.54615545f, 0.04129534f,
  -0.50155365f, -0.41443059f, 0.03654781f, 0.29093456f, -0.86978662f, 0.47200570f, 0.96976912f, 0.79994839f,
  -1.81196332f, -1.21677983f, 0.17794053f, -1.40239382f, -2.02514720f, 0.00792744f, -0.32389557f, -2.90594769f,
  0.95314974f, 0.38794148f, 0.99060410f, -0.84192443f, 0.73476803f, -0.95988810f, -1.94354510f, 0.33368751f,
  0.21741827f, 1.79123819f, 0.20647688f, 0.80011761f, -0.62660968f, 0.02778657f, 0.11576854f, 0.89796555f,
  -0.02199405f, -2.68762517f, 1.01322508f, 0.30686551f, 0.07645787f, -0.18361734f, -1.68211985f, -0.14513414f,
  -0.37663132f, -0.46258003f, 0.05082037f, 0.54317856f, 2.23748398f, -1.18487549f, 0.94739306f, 1.00278890f,
  1.14115548f, 0.52986085f, -0.17609507f, -1.88094234f, 0.34042278f, -1.42305171f, -1.27960718f, -0.47401366f,
  -0.88928497f, -1.23859167f, 0.50897568f, -1.94655049f, -0.29977912f, 0.66622794f, 0.60034430f, 0.65914363f,
  0.85639179f, -0.16777261f, 2.99944568f, -0.25719339f, -0.00252710f, -0.79227895f, -0.88538021f, 0.61312735f,
  1.32489407f, 0.13055496f, 0.49122259f, -0.18142547f, 0.42897114f, 0.20742914f, 0.74068576f, -0.66617978f,
  -0.65077418f, 0.65124899f, 1.32840455f, 0.81419426f, 1.37322199f, 0.30567044f, 0.83178806f, -1.04010868f,
  0.31669265f, -2.09520555f, -1.99197876f, -0.13330753f, 1.03095770f, -0.57877338f, 0.13399051f, 1.04205966f,
  1.48436713f, -0.67386979f, -0.13952097f, 1.29687738f, -0.84431136f, -0.17460231f, -0.17952673f, -0.52342212f,
  0.98531038f, -0.10837305f, 1.01701355f, 1.55416775f, -0.15745829f, -0.46887892f, 1.78951418f, -0.22698876f,
  0.50649643f, -1.74051583f, -0.22541927f, -0.08857043f, -2.18811536f, 0.04452933f, -0.80840981f, 0.66473359f,
  -0.13435735f, 0.32930171f, 0.00390918f, -0.37567481f, 0.84005910f, 1.04311991f, 1.26411986f, 1.00170076f,
  1.21891439f, 0.91892350f, -0.82411700f, -0.09568281f, 0.80937964f, -1.15525758f, -0.34176177f, 1.38672853f,
  0.65949708f, -1.11717153f, 1.62914550f, 0.61022681f, -0.89176315f, 0.47719935f, 0.27293843f, 0.82513297f,
  0.33619750f, 1.68482804f, -0.56036174f, 1.89034247f, -0.58239514f, -1.25054872f, 0.12564397f, 0.16967383f,
  -0.71357673f, 0.47420749f, -0.85786653f, 0.75951564f, -1.58407056f, 1.15495515f, -2.02550197f, 0.45144919f,
  -0.88035607f, 0.70597446f, -0.66393292f, -0.67715341f, 2.84553576f, -0.36232647f, 1.34718823f, -1.13855183f,
  -0.98245955f, 0.01309844f, -0.63661951f, 1.03316307f, 0.96958715f, 0.20235741f, 0.86058557f, 0.08468731f,
  -1.44183266f, -2.38839340f, -0.68351597f, 2.01478457f, 2.06958246f, 0.55139291f, 1.03393149f, -0.58918172f,
  -0.78983819f, 1.30193019f, 0.36521062f, 0.29197896f, -0.58920270f, -0.18956625f, -0.15081078f, -0.21820873f,
  1.75258160f, -0.57555598f, -0.99070919f, 0.67268109f, -0.24294314f, 0.97821891f, 0.03619922f, -0.46896672f,
  1.45175004f, -1.12056267f, -1.79287553f, 1.77597117f, 2.04645491f, -0.31955293f, -0.13570933f, -0.07836726f,
  -0.71466440f, 0.35320008f, 0.93362504f, -0.40872392f, 0.25289395f, 0.25682658f, 1.66237926f, -0.16123950f,
  0.43904352f, -0.18173178f, -0.63550025f, 0.06077521f, 0.03277826f, -0.77710801f, -0.18077019f, 0.80116028f,
  1.48268569f, -0.52749407f, 0.17296562f, 0.16376573f, 1.55893660f, -0.88497061f, 0.69503003f, 0.02302130f,
  -0.25106147f, 0.16329864f, 0.12398862f, 0.61342341f, -0.27628663f, 0.11073190f, -1.41416347f, -0.25932032f,
  -0.43765047f, 0.59110940f, -1.77597606f, 0.14014162f, 1.27386761f, 0.46291217f, -0.21552770f, 0.05601025f,
  1.52639151f, 0.05392897f, 0.85915154f, 1.09351408f, 0.08969139f, -0.98978436f, 0.64067817f, 1.97176814f,
  -1.53564608f, 0.03651257f, -0.64213306f, 1.46904886f, 0.00815801f, -0.47907823f, 0.51993620f, -0.05614719f,
  -1.72171533f, -0.88879108f, 0.96642733f, 0.26377299f, -1.12621021f, 0.40320930f, 0.18359092f, 1.12508714f,
  0.20144799f, 3.18650389f, 0.30710754f, -1.38212121f, -0.70270711f, 1.96821439f, 1.36347234f, -1.15526903f,
  -0.56121510f, -0.45222273f, 0.38803473f, -1.57244408f, 1.27417064f, -0.41201562f, -1.41519237f, -0.63105637f,
  1.03237534f, 0.67140323f, 0.55363041f, -1.61198235f, -0.07041905f, 0.23796599f, 1.54376721f, 0.49055257f,
  0.33207667f, -0.55426776f, -0.18154638f, 0.00100564f, -0.21541779f, -0.77529168f, 0.38342953f, 0.28221226f,
  1.15871787f, -0.63250601f, 0.86242795f, 1.33678687f, -0.09520794f, -0.04198547f, 2.43047333f, 0.25122160f,
  0.01408838f, 0.23566875f, -0.49266121f, -0.42873573f, -0.31128934f, -0.76625270f, -0.92094696f, -1.67325962f,
  -1.01277483f, -0.40684950f, 1.08113992f, 0.10532258f, 1.31836796f, -1.10356629f, 0.42028922f, 1.69217563f,
  -1.59751654f, 0.33900824f, -0.63452315f, -0.05583400f, 0.13349964f, -0.59029251f, -0.79810148f, 0.10876722f,
  -0.45069006f, 0.08936000f, -1.52117395f, -0.54836589f, -0.78291923f, -0.30853572f, -0.55165625f, 0.51902354f,
  -1.33976495f, -0.34874988f, 0.41709629f, 1.41466975f, -1.11652184f, 1.36681283f, 0.23256382f, 2.72882462f,
  0.03140502f, -0.41681212f, 0.38757646f, -0.50664037f, -0.18102111f, 1.64132452f, 1.09362435f, 1.40510499f,
  0.85122949f, 0.57144922f, -0.43390533f, 0.21480621f, -1.33680642f, 0.89367735f, 2.05382276f, 0.67478096f,
  -1.87046885f, -0.58240050f, -0.81143248f, 1.47746098f, -1.60632622f, -0.30730528f, -1.28469348f, 0.24379700f,
  1.02792180f, 0.47038883f, -0.82807702f, 2.89951706f, -0.32780701f, -0.46384102f, -0.78592932f, 0.95261377f,
  0.16475371f, -0.00351100f, -0.14587945f, 0.20167094f, -0.61502612f, -0.27946711f, -1.90887141f, -0.71448064f,
  -0.36345586f, 0.95042950f, 0.04325818f, 0.97853285f, -0.05687515f, 0.82758367f, 0.46755078f, -1.29713869f,
  0.15407513f, 0.81502169f, -1.08348286f, 0.31386954f, -0.55753392f, 0.00740503f, 0.49421424f, -0.58544803f,
  0.66874927f, -1.05839086f, 0.02956915f, 0.53150606f, -2.15497160f, 0.64538133f, -1.35875583f, 1.18094277f,
  1.12952340f, -1.01982176f, 0.37831873f, 2.28198528f, -0.81210792f, 1.17412758f, 0.06870533f, 0.84726679f,
  -0.76089364f, -0.90369010f, 0.36628464f, 1.40129781f, -0.97310567f, 0.86387068f, -1.64560366f, -2.55690503f,
  -1.83133304f, 0.71818066f, -0.23479362f, 0.88112080f, -0.72075421f, 1.17513514f, -1.24221492f, -1.00876629f,
  0.23474979f, 1.20590401f, 0.30360696f, 0.57763416f, -2.49904156f, 2.47696805f, 0.57136422f, 0.25509846f,
  -0.73298395f, 1.17113984f, 0.90714246f, 0.42640182f, -2.28895044f, -0.68699402f, -1.56237900f, -1.25822783f,
  0.01283732f, -1.02280045f, 0.56321371f, 0.29573324f, -0.40240091f, 0.72789347f, -0.92853087f, 0.25457445f,
  -1.05277908f, -0.17325865f, 1.17257953f, -0.62727624f, -1.59282231f, 0.65888560f, 0.48486108f, 0.08657931f,
  1.32244515f, -0.83215094f, -1.31134343f, -0.41430953f, 0.22908980f, -0.28066677f, -0.73763174f, -0.41997918f,
  0.81512028f, 0.45878205f, -1.38719869f, 2.07881784f, -0.97177553f, 1.41039062f, -1.65711403f, -0.85749680f,
  1.46805108f, 3.01379514f, -1.12206602f, -1.20315838f, -0.20413339f, -1.40775990f, -1.41423976f, 0.91864693f,
  0.45629910f, 1.54173243f, 0.07602248f, -1.13709629f, 0.36222306f, -0.37339669f, 1.74232519f, -0.13326485f,
  -0.23175570f, -0.34037116f, 0.79393196f, 0.41139951f, 0.68587244f, 2.15057540f, -0.25450978f, 0.56089324f,
  -0.41683859f, -1.25053716f, 0.56248862f, -0.06560722f, 0.12496809f, 0.14189515f, 0.69094139f, -0.17901021f,
  1.33564401f, -0.81285316f, 0.78100652f, -0.39159897f, -0.61894721f, -0.88134074f, -0.18470275f, 1.10460567f,
  0.61383134f, 0.09555106f, -1.04085982f, 0.23644799f, -0.11952070f, -0.85399354f, 1.90972102f, 1.81611013f,
  -0.18513453f, 0.05967832f, -0.20240758f, 0.92053854f, 0.03212627f, 1.34598446f, -2.26495957f, 0.68668550f,
  -0.78616279f, -1.78943229f, 0.41198745f, -0.75224662f, -3.35533714f, -1.67646003f, -0.71450508f, 1.97974777f,
  -2.63640833f, 2.82468939f, -1.63307703f, -1.53453469f, 1.32074678f, -1.14501369f, -1.47310448f, 0.16313073f,
  1.43462014f, -1.80102444f, 0.67417490f, -1.23817253f, -0.55020106f, -1.00633121f, 1.58981407f, 3.15008950f,
  0.67223698f, 0.32484576f, -0.60542274f, 1.09376299f, 0.20493703f, -0.74941802f, 0.03493039f, 1.02151167f,
  -0.75653774f, -1.60526001f, 0.61808777f, -1.10372436f, -1.53181541f, -0.43692353f, -0.97708929f, 1.87758255f,
  -0.05444130f, -1.04947937f, 1.24560189f, 0.56742907f, -1.18259358f, 0.24829240f, 1.09544706f, -0.03008884f,
  -1.18025470f, -0.16867635f, 0.24505307f, -0.40956667f, 0.79554582f, 1.02250385f, -0.88248158f, -0.58938652f,
  -1.76773071f, -0.15524592f, -0.43794572f, 1.31038630f, -0.02264685f, 0.43242604f, 0.34933522f, 0.07144654f,
  -0.37385178f, 0.81738192f, -0.20775653f, 0.14179055f, -1.05662894f, 1.16131639f, 0.96305186f, -0.71299440f,
  1.04572737f, 1.30832469f, 0.38986608f, 0.09032816f, -0.24646467f, 0.67389977f, 1.39620078f, 1.41750634f,
  -0.54447442f, 2.18734550f, 2.87866020f, -1.11451507f, 0.44981146f, -0.15982641f, 0.17541593f, -0.77019644f,
  -0.95085925f, -0.09624887f, -2.21816754f, -0.89870799f, 1.02200663f, 0.82627457f, -0.71156299f, -0.22525877f,
  -0.33033276f, 2.63930583f, -1.55325997f, 1.38531089f, 0.68818456f, -0.97036344f, 1.80260122f, 0.36475113f,
  -0.11257929f, 1.32255518f, 0.65257698f, -0.70492619f, 0.73784310f, 1.49791324f, -1.49843264f, -0.51285535f,
  1.82438862f, -0.81227607f, -0.77396923f, -1.95937693f, -0.98220223f, 0.92478204f, -1.12668300f, 0.71543401f,
  -0.09664416f, -0.75043720f, -0.62657779f, -0.76558679f, 0.01065905f, -1.23616958f, 0.21334511f, 1.13617539f,
  0.43013868f, -1.52636099f, -0.73159963f, -1.02369142f, -0.36110449f, -0.90763205f, -1.96164191f, 1.22123075f,
  0.42821279f, -0.42984071f, -0.51662004f, 0.43115363f, -0.70898038f, 0.35606417f, -0.34715793f, 0.16734122f,
  0.41975260f, 1.42534280f, 0.29323557f, -3.19175577f, 0.58683604f, -0.66640663f, -0.56198382f, 0.74183404f,
  0.78553671f, 1.03400326f, 0.60771286f, -3.01140451f, -0.86004275f, 0.64540452f, -1.42594016f, 0.43636009f,
