/* Autogenerated – 47655 float32 */
static const float g_nn_weights[] = {
  -0.65382582f, -0.35846505f, -1.72355366f, -1.29896748f, -0.85568768f, -0.20772642f, 0.33744544f, -1.75341618f,
  0.51241988f, -1.90203214f, -0.91219282f, -0.72593933f, -0.74485165f, -0.17129026f, 1.89070475f, 0.06358380f,
  -0.02807709f, -1.81146312f, -0.65899932f, -0.51994151f, 1.10789442f, 0.86243796f, -0.41433847f, -0.76017469f,
  0.55324388f, -0.33347851f, 0.22216344f, 1.45848036f, -0.11823636f, 2.34625888f, -0.12388505f, -0.36645672f,
  0.26242772f, 0.87959909f, -0.40903166f, -1.51478636f, 0.01672399f, -0.08478497f, 0.02391965f, -0.31391147f,
  -0.73394042f, 0.13192117f, 0.93317479f, -0.13533956f, -0.10451414f, 0.85045135f, -0.61688584f, 0.31315723f,
  -0.17380989f, -0.41215152f, 1.01605141f, 0.78829378f, 1.13495970f, 0.89908361f, -0.15704279f, 0.73477536f,
  1.15425158f, -0.03580306f, -1.27367389f, -1.22503316f, 0.25922948f, -0.49181068f, 0.80280179f, 0.03889781f,
  0.47276035f, -0.20309883f, -0.09921407f, -0.34599990f, -0.34921077f, -0.22528993f, 0.78160042f, -0.50589561f,
  -0.82691252f, 0.76204866f, 1.27668631f, 0.98809803f, 0.49381375f, -0.44094905f, 0.45352286f, 1.16896820f,
  0.11781756f, -0.84189087f, -0.31512311f, -0.89387977f, 0.82240909f, -0.27079505f, -1.14076197f, -1.48244178f,
  0.36153278f, 0.65538108f, 0.09176198f, -0.79957014f, 0.38337064f, 0.91435933f, -0.85329503f, 0.62923127f,
  0.20610450f, -1.39429772f, 0.14028431f, 1.24407768f, -2.13463020f, -1.21714532f, 0.64726442f, -0.27268636f,
  0.81400687f, -0.03587553f, -0.30371252f, -0.43119085f, 1.06959653f, -1.88526881f, 0.52689707f, 0.39986137f,
  0.70313698f, -0.51016486f, 0.51358604f, 0.07357438f, -1.35319042f, 1.02175856f, -0.98072731f, -0.43805543f,
  1.57307768f, -1.36236310f, 1.74646771f, 0.34816042f, 0.50273424f, 0.15611435f, 1.25424159f, 0.57811564f,
  1.12701404f, -0.87276804f, -0.07156119f, 0.28022137f, 0.32327572f, -0.05808936f, 1.40933597f, 0.44756013f,
  0.58737755f, -0.17380418f, 1.67223823f, 1.18497539f, -0.60507351f, 0.08800209f, 0.34273815f, 0.53085828f,
  1.14378941f, 1.23303938f, 2.97419286f, -1.34984541f, 1.19341385f, -0.91162819f, -0.54139620f, -1.41896594f,
  0.46002883f, -1.02015126f, 0.38078931f, 0.59517384f, -0.87364501f, 0.03078608f, 0.39845398f, -1.29878008f,
  -0.06115235f, -0.77689153f, -1.66866267f, 0.64768142f, -1.10417807f, 1.03632259f, -1.19760013f, 0.56510276f,
  0.13294442f, 0.10513089f, -0.94963741f, 0.85985529f, 0.09355172f, 0.52043706f, -0.05112074f, -1.28905702f,
  0.90958488f, -1.10537302f, -0.27334133f, -0.52089036f, 0.64538985f, -0.30952132f, -0.50323910f, 0.36161783f,
  -1.17864859f, -0.83214009f, 0.63034588f, 1.16127408f, -1.12095189f, -0.71642882f, -0.31844932f, 0.66902864f,
  -0.58998829f, 1.66746235f, -0.37327322f, 0.18809178f, 1.48208606f, 0.12179043f, -1.92974460f, 1.36147046f,
  0.77099413f, 1.17293823f, -1.12633693f, -0.46689102f, 0.67842710f, 0.18907782f, -0.89850336f, -1.46180654f,
  0.16803707f, 0.54156113f, 0.75058323f, 2.40326285f, -1.78503335f, 0.37117890f, 0.05599138f, -0.99508816f,
  0.26799762f, -0.15042742f, 1.80971181f, -0.03629964f, 0.29882815f, 0.22647269f, -1.57420850f, -0.22717199f,
  -1.98692048f, -0.20873973f, -0.99022257f, 0.67533451f, 0.89787257f, -1.00284994f, 0.57430357f, 0.71018803f,
  0.11248966f, 1.41271305f, 0.49511853f, -0.59096253f, 0.43649289f, -0.30210403f, -0.27656093f, -0.82558435f,
  1.26309645f, 0.35866144f, -0.19550985f, 0.46452594f, 1.14802575f, -1.08980501f, -1.46270359f, 1.14122224f,
  -0.07810546f, 0.64024252f, 0.96185374f, -0.15499404f, 0.89197558f, 0.85980213f, -0.66236740f, -1.95081842f,
  -0.00629705f, -0.18731137f, 1.42522919f, 0.42553169f, -0.53404737f, -0.49965230f, 0.21666145f, 2.19599938f,
  0.50064981f, -0.95667887f, -1.61597335f, 0.56480700f, -0.56353164f, 1.33762097f, 0.77379918f, 0.74747127f,
  1.08233726f, -0.11059075f, -1.10799241f, -1.06035018f, -1.14717031f, -0.37059605f, -0.55283970f, 0.08146267f,
  0.27059278f, -0.12013254f, -0.41460946f, 0.24439220f, 0.94207042f, 1.41662502f, -0.19922246f, 0.76014119f,
  0.57011259f, -0.60883576f, 1.03994703f, 1.50030100f, 0.09813810f, -1.41089082f, 0.61536402f, -0.03132995f,
  -0.84059411f, 1.59920883f, 0.82043535f, -2.01407051f, -0.14830290f, -0.68810689f, 0.32279804f, -1.00219822f,
  -1.52660275f, 1.26930237f, 0.52170473f, 0.59308362f, 0.57826424f, -1.00823009f, -2.78961468f, 0.10228210f,
  0.43187052f, 1.58632088f, -0.77570277f, 1.43314052f, -0.20219114f, 2.16660261f, 0.93620682f, 1.31099057f,
  1.01926637f, 1.01914561f, 0.62418187f, -0.01562640f, 0.08604257f, -0.28828993f, -0.48000842f, -1.32833254f,
  -1.11142278f, 0.27265069f, -0.01752109f, -2.70072818f, 1.58961737f, 0.44559732f, -0.48316935f, 1.43252671f,
  -0.64174128f, 0.30082557f, 0.30518967f, -1.44686007f, -1.51453149f, 0.11602966f, 0.89147407f, 0.86799967f,
  -0.09750289f, 1.57416832f, 1.41427672f, -1.74490666f, -0.19555402f, 0.15214327f, -1.98857915f, -1.73484206f,
  -0.05712236f, -0.18655132f, 1.25279832f, 0.38555989f, 0.94623548f, -0.11732581f, -1.12299073f, -0.42718491f,
  2.00782990f, 0.62476128f, 0.66862071f, 0.11578850f, 0.34387174f, -0.63514203f, 0.75620776f, 2.00116348f,
  1.37881708f, 1.50574887f, -1.26632726f, 0.67650729f, 0.11710022f, -0.89137083f, -0.82544881f, -1.56849897f,
  0.71291417f, -0.61279893f, 1.91591358f, -1.10040605f, 1.41401148f, -0.01826634f, -1.21070445f, 0.05055219f,
  0.16527890f, 0.49620840f, -1.15855706f, -0.04626369f, 1.44169319f, -0.48265240f, 0.40782064f, 0.11987465f,
  -0.08486766f, -0.20759642f, 0.04507380f, 0.85271734f, 0.24387667f, 0.18759216f, 1.41723251f, -1.25770605f,
  1.38897991f, -1.23053229f, 0.83350664f, -0.43872046f, -0.01359567f, -1.86862504f, -1.00946426f, -0.25177333f,
  0.87087399f, -0.95127147f, 0.77618194f, 0.34635890f, 0.10518540f, -0.65574503f, -0.40459219f, 0.94725752f,
  1.02401388f, -0.32891604f, 1.04230392f, 0.39231512f, 1.17773795f, -0.31087857f, -1.22178197f, -0.16406870f,
  -0.79093039f, 1.32896042f, 0.23209205f, 1.72477984f, -0.60941786f, 0.40532407f, -0.51093918f, -0.67232263f,
  -0.57322633f, -1.45887089f, -0.13665062f, -1.02273309f, -0.05968560f, 0.51988703f, 0.81990343f, -0.77437848f,
  0.22227637f, 0.16397198f, -0.04449330f, 0.40468091f, 1.13069236f, 0.13790932f, -0.24351467f, -0.40231270f,
  -0.19713479f, -0.71799874f, -0.95186788f, 0.42844728f, -0.04487012f, 1.10053861f, -0.23723505f, -1.45010877f,
  1.21244013f, 0.01503862f, 0.29652789f, -0.83973306f, 0.02207845f, 0.80377287f, -1.01953602f, 0.05219799f,
  -0.69809753f, -0.88246024f, 0.87913543f, 0.05416900f, 2.12338114f, -0.44005376f, 0.56498784f, 0.03544927f,
  0.31162941f, 0.33111373f, 0.90845734f, -0.93202370f, -0.06742994f, -0.28873438f, -1.86180949f, -0.31581318f,
  -0.59068310f, -1.71149540f, -0.50725222f, 0.46366969f, -0.28550974f, -1.63779104f, 0.30747870f, -0.68059200f,
  1.38921368f, -0.67212701f, -1.09884381f, 0.73799706f, 0.53054732f, -0.64875811f, -0.36082518f, 1.99741232f,
  0.40839341f, 0.73286802f, -0.77768332f, 0.00679940f, -0.90757269f, 0.21557036f, 1.44589067f, 1.24662554f,
  0.39481634f, 0.52478027f, 0.04564316f, -0.97866267f, 2.72600865f, -0.71041733f, -1.45894468f, 0.45590276f,
  -0.35464108f, -0.10719806f, -1.31885433f, -1.03647065f, 1.82679129f, 0.49887010f, 0.69669485f, 0.76533043f,
  -1.31092370f, 0.65978938f, 1.39051151f, -1.54809010f, 1.50281882f, -0.53623235f, -2.32950282f, -0.23946223f,
  0.04056427f, 1.47763801f, -0.71165210f, -1.50934088f, 0.35610437f, -0.16802116f, -0.54062963f, -0.21068271f,
  -0.66706014f, -0.35042408f, -0.58407652f, 0.22507849f, 1.05304813f, 0.12782982f, 0.10593650f, -0.36981365f,
  1.41472888f, 0.53557992f, -0.59958351f, 0.01713261f, 0.69296688f, -0.02485928f, -0.40888518f, 0.58428866f,
  1.19003296f, 1.14749610f, -0.72996473f, -0.54915476f, 2.33939052f, -1.10384989f, -1.43963575f, 1.25972164f,
  -0.21403453f, 0.49689960f, -3.02809215f, 0.40015027f, -0.39373380f, 0.69191533f, -0.83370000f, -0.94643271f,
  1.89284968f, -0.09102908f, 2.97416592f, -1.98962653f, 1.63343573f, -1.19938624f, 0.48283076f, -0.76652908f,
  -0.65978414f, 0.23609443f, -0.98251647f, 2.30312157f, 0.01947707f, 1.53814244f, 0.57527810f, 1.52231872f,
  1.59753978f, 1.02812028f, -0.01567135f, -0.40299776f, -2.65956354f, -2.13761401f, -0.94074345f, 1.05837440f,
  0.83105683f, 0.64886248f, 0.37957799f, 1.46702147f, 0.85191363f, -0.02475308f, 0.24496107f, 0.12558730f,
  -0.32783228f, 0.47931245f, 0.51703990f, -0.57470673f, 0.43918547f, 0.52715874f, 1.37685251f, -0.70155728f,
  0.16096853f, -0.33348024f, 0.19674174f, 0.78441584f, -2.24966311f, -1.04717934f, 0.70539218f, 0.53856969f,
  -0.50419933f, -0.77794194f, -1.46290779f, -0.40620124f, -0.39867595f, 1.50566077f, -1.54949212f, -0.86291009f,
  0.14284869f, -0.81053966f, -0.49726522f, -1.98350060f, 1.29036701f, -1.94943333f, 0.60581142f, -0.64641428f,
  0.83044684f, -0.39483339f, -0.54844481f, 0.26798701f, 0.17144154f, -1.28234982f, -1.03002560f, 0.96849930f,
  1.04744065f, -1.34159935f, -0.21515371f, -1.05848515f, 0.94746786f, 0.56436574f, 0.09186564f, 0.47409844f,
  0.17302154f, 1.91919196f, 0.61433327f, 0.42079297f, 1.61166239f, -0.18551868f, -0.62962627f, 1.71135402f,
  -0.19262373f, 0.36177629f, 0.14694640f, -0.24396768f, 1.12819159f, -0.22389768f, -0.40700859f, -0.24646983f,
  0.62178612f, -1.95560324f, 0.07736012f, -0.84091216f, -0.23975681f, -0.89311886f, 1.17017162f, -0.46522936f,
  -1.42923510f, 0.47187924f, 0.48385069f, -0.34449682f, -0.20354664f, 0.51007313f, 0.88403785f, -0.61825788f,
  -0.83679134f, 0.64010268f, 0.23540170f, 0.52645588f, -2.80837512f, 0.20035192f, 1.94926870f, 2.03196573f,
  0.97431904f, 2.15962815f, 0.94806510f, -0.43610114f, 0.30042052f, -0.21215595f, 0.38956442f, 1.93874824f,
  -1.20557046f, -0.14433008f, -0.58443755f, 0.09289718f, -0.14778355f, 0.30719915f, -1.16428685f, 0.67401803f,
  -0.00479160f, 0.56968981f, 0.24073729f, 0.84707707f, 0.14675033f, 1.24936402f, 0.06064701f, 0.04476527f,
  -0.48451725f, -0.40987912f, -0.60121602f, 0.01455243f, -0.61263698f, 0.17958730f, -0.20536298f, 1.26823366f,
  -2.56923223f, -0.56578851f, -0.13368101f, 0.69384104f, 1.11743367f, 0.76361632f, 0.12375724f, 1.26551127f,
  0.57845867f, -1.90377283f, -0.20976159f, -0.58257467f, 0.52884686f, 1.32028317f, 0.67360419f, 0.69740945f,
  0.10316574f, -1.81612372f, 0.08417000f, 0.36425713f, -0.06933673f, 2.46556520f, 1.00766993f, 1.13257325f,
  0.64520794f, -1.64568138f, 1.49645996f, 0.26992932f, 0.15566526f, -1.01920235f, 0.44307089f, -0.06874476f,
  2.51396227f, -0.13343112f, 2.66685200f, 0.52857018f, 0.40225589f, -0.85386801f, -1.57197976f, -0.66586596f,
  0.03848385f, -2.48783112f, -0.49318206f, -0.28554606f, 0.41633701f, -0.77436459f, 0.10796751f, -0.45993799f,
  -0.67711347f, 1.57855797f, -0.12097741f, 0.44270265f, 0.85369915f, 0.20564231f, 0.68800414f, 0.41471055f,
  0.52275026f, 2.04683065f, 0.64242154f, -0.55223155f, -0.18199174f, 1.02374911f, 1.07561564f, -1.28619194f,
  1.20546567f, 0.73579466f, -0.02391303f, 0.07652145f, 1.01164234f, -0.42529711f, -0.01760127f, -0.85456538f,
  0.03442289f, -0.12965238f, 0.69165462f, 0.08044070f, -0.59373099f, 0.63138235f, 1.80120540f, 0.95180094f,
  -1.38109112f, -1.12547958f, 0.05680862f, -0.08714161f, 1.63418496f, 0.61006230f, 0.16013230f, -0.21171792f,
  0.90789211f, -0.29502985f, 1.19538760f, 1.00386524f, -1.04066873f, 1.61642683f, 0.96783602f, -0.45308831f,
  -1.13556850f, -0.87644213f, 1.11729896f, 1.04045916f, -0.99374098f, 2.11622047f, 0.03582484f, -0.14669198f,
  1.89517987f, 0.16347821f, -0.12580775f, 3.19493008f, -0.73478031f, 0.58399832f, 0.25780660f, 0.61468875f,
  0.71810281f, -1.14311242f, 0.32906213f, -0.51341653f, 0.57478482f, 0.36878645f, -0.42964444f, 1.42577326f,
  0.37904447f, -0.56975669f, 0.59599197f, -0.61169320f, -0.34745607f, 0.68118089f, 0.65887284f, 1.53620243f,
  -1.02986622f, -2.09939075f, 1.14433289f, -1.07121921f, -1.58168161f, -1.10469639f, 0.90327114f, -0.02820782f,
  -0.26867461f, -1.88834667f, 0.31490162f, -0.50043029f, 0.09563654f, 0.52223754f, 0.14823540f, -1.97186816f,
  0.47194132f, 0.16486159f, 0.63636446f, -0.84425378f, 1.04060149f, 0.70921183f, 2.85962582f, -1.99128664f,
  0.54027301f, 0.56139207f, -0.39635724f, 0.07831200f, 1.00735569f, 0.90422052f, -0.49515653f, 0.71816963f,
  -0.00655481f, 0.21828245f, -0.34403595f, 0.30122980f, 0.86222607f, 0.31929985f, 1.46450818f, 0.21833830f,
  0.24255648f, 0.20858201f, 1.94472682f, 0.91885847f, 2.25814629f, -1.35220885f, 1.54817176f, -0.06590597f,
  -0.85977232f, 0.72152776f, -0.52940124f, 0.82951623f, -1.23770463f, -0.34290922f, 0.97855490f, 0.46627316f,
  0.46466610f, -0.51538795f, -0.97085416f, 1.16305113f, 1.11890507f, 0.34358877f, -0.62319171f, 0.08524141f,
  -0.65305954f, 0.39309329f, -0.22746457f, -2.43274212f, -1.12717974f, -0.40121961f, -1.46569431f, 2.14744043f,
  -0.73820347f, 1.92576063f, 1.53762305f, -0.37596965f, -0.15619671f, 0.24089961f, 0.62606168f, -2.28303933f,
  1.50147927f, -1.34224451f, -0.84514940f, -0.80197746f, 1.30591583f, -1.61501503f, -1.30478871f, -0.25704703f,
  -0.46944603f, -1.48140168f, 0.63565296f, 0.62064928f, 0.31923923f, -1.15529418f, 0.40330341f, 0.74662191f,
  0.06056694f, 0.33693001f, -0.40372145f, 0.21553445f, -1.80377686f, -0.10899424f, 0.94944584f, -0.67125612f,
  0.77293605f, -0.51948649f, 1.03806067f, -0.34868571f, -0.21557398f, -0.57275313f, 0.78497261f, -0.76270664f,
  -0.76109183f, -0.96582001f, 1.10189426f, 2.77293563f, 0.47620308f, -0.36700797f, 1.40306294f, -0.03119574f,
  -1.30834055f, -2.19448614f, -0.82657260f, -1.38743496f, -0.81585401f, -1.72907126f, -0.45869657f, 0.62698841f,
  -1.76583314f, -1.21437824f, 2.40275645f, 1.30254221f, -1.45439470f, 0.10234369f, -0.07174852f, -0.24672739f,
  0.64337409f, -0.50969577f, 0.00637275f, 1.13860750f, 0.05468387f, 0.04110482f, 1.06263196f, -1.20142591f,
  1.63658249f, -0.92521894f, -2.00810051f, -0.71337175f, 0.46486649f, 0.98707688f, -0.80375499f, 0.32656786f,
  0.39015174f, -2.57166314f, 0.69987327f, 1.15022302f, -1.09899652f, 0.88859737f, 0.00692255f, 0.88417929f,
  -0.17104483f, -0.06415001f, 0.57799256f, 1.20060647f, 1.89769733f, 0.90849495f, -0.86993575f, -0.67242408f,
  -0.20125550f, -0.16210252f, -1.34829700f, -0.99426055f, -0.23554826f, 1.27952456f, -0.36527631f, -0.39751303f,
  0.61672753f, -1.20512748f, -0.23348561f, 0.67347765f, -0.56468970f, -0.68837357f, -0.81461614f, 2.10347342f,
  1.36758769f, -1.15014362f, 0.77424550f, -0.21107671f, 0.80501223f, 0.75878030f, -0.40061668f, -1.46859622f,
  -1.21837616f, 0.03453398f, 0.33122405f, -1.32225072f, -0.62110341f, 0.84081715f, -0.79858226f, 0.07866821f,
  0.86590177f, -0.97209024f, -0.73437405f, 0.55486697f, 1.73380995f, 0.14286229f, 1.23627913f, -0.62456447f,
  0.83396530f, 0.48236424f, -0.52622193f, 0.54782736f, 1.57592475f, 1.04130054f, -1.10390508f, -0.17563573f,
  -0.14755806f, 0.90400290f, -1.75803888f, 0.44143340f, 1.05019367f, -0.20280994f, 1.47718501f, 1.45547569f,
  -2.04032516f, 0.68201381f, 0.74035537f, -0.45274612f, -1.13879406f, -1.13839197f, 0.76770276f, -0.59772903f,
  0.72244722f, 1.31159544f, 0.07170830f, -2.60743165f, -0.16704689f, 1.25154519f, 0.97946668f, 1.59600008f,
  -0.16368484f, -1.53477645f, -0.12615526f, -1.92210472f, 0.03105634f, 0.96946877f, 0.90388900f, -0.59994054f,
  0.30065989f, -0.62860972f, -1.31989002f, 1.24311578f, 0.87057316f, -1.40130615f, -0.96634912f, 0.32726455f,
  -0.16089326f, -1.95926630f, -0.00164799f, 0.58069456f, 0.08189233f, -0.52132714f, 0.70069408f, -3.02654004f,
  -0.40914145f, 0.15611063f, -0.02099220f, -0.21148331f, -0.55287987f, -0.47818130f, 0.28748003f, 0.51484674f,
  -0.47963685f, 0.08561914f, 0.53160769f, 0.30656192f, 0.47276279f, -0.04395654f, 0.46110624f, 1.36876869f,
  1.68100333f, 0.36738116f, 1.24161839f, 1.00264418f, -0.29543909f, -0.51912886f, 2.08597517f, 0.05288597f,
  -0.07491241f, -0.57276952f, -1.59364045f, 1.49566162f, -0.33083630f, -0.46674562f, 0.57589281f, -1.60932648f,
  1.60978341f, 0.32676449f, -1.11086106f, 0.15859579f, -0.23792508f, 1.06183994f, 1.66015184f, 0.71232700f,
  0.61171436f, 0.19951630f, 0.77084017f, 0.70832843f, 0.02496576f, -1.28900015f, -1.74193990f, 0.12292833f,
  -0.52429044f, -1.32354641f, -0.66577852f, 1.64451945f, 0.11291482f, -0.22988422f, -0.63505065f, 0.30588651f,
  -0.13939387f, 0.12769067f, 0.28304049f, -0.62975973f, -0.42904297f, 0.81985652f, -0.77655017f, 0.17155029f,
  0.90952486f, -0.41833973f, 0.76345843f, -1.87664974f, 1.65148497f, -0.27566573f, -0.56618875f, -1.97986698f,
  0.47089362f, -1.56315851f, 0.27584085f, -1.14829004f, -0.00204826f, -1.21487188f, -0.56690651f, 0.33967519f,
  -0.27519143f, -0.19749883f, -2.20099020f, 1.07621968f, -1.24256527f, -0.34076014f, 0.15397511f, -0.26281798f,
  -0.38995737f, -0.57614088f, -0.24100623f, 0.24785931f, 0.08460271f, -0.25165325f, -0.64355958f, -0.29001799f,
  2.34455276f, 0.10480289f, 1.16154337f, -0.33360252f, -1.31424725f, 1.16704059f, -0.38657469f, 0.70522040f,
  0.47425497f, -0.09735455f, -0.21716681f, -1.34930384f, 0.44842002f, -0.50015473f, -0.34620020f, 0.39474413f,
  -2.25122070f, -0.06225604f, 0.28894383f, -0.38002485f, 1.04096925f, 0.08960413f, -0.70153451f, -0.61704189f,
  -1.29727829f, -0.14009146f, -1.72111738f, 0.48062819f, -0.87034780f, 1.54530215f, 0.30206797f, 0.17604570f,
  -0.45405218f, 0.76626050f, 0.37687451f, 0.78396809f, 0.21710342f, 0.24762726f, 0.11607715f, -0.68355870f,
  1.13770747f, 1.21811521f, 0.08589116f, 0.28673425f, 0.63559353f, 0.07554453f, 1.06026566f, -0.88326961f,
  -0.58359116f, 1.08772933f, 0.59886879f, 1.25206935f, -0.88026780f, -0.81256211f, 0.24906251f, -0.54608023f,
  -1.46340501f, -0.25335041f, 0.05585585f, 1.07242799f, -0.68710643f, -0.49471158f, -1.98547292f, -0.59176964f,
  -0.37133002f, 1.61535192f, -1.33848596f, -0.45490068f, 0.44278219f, 0.68869013f, -0.69256419f, 0.14046739f,
  -0.22565013f, -0.86140716f, -0.15266258f, -0.57317150f, 0.14400712f, 1.80476964f, 1.61656141f, -1.06445408f,
  0.70062137f, 0.74852741f, 0.34824234f, 2.38571668f, -0.05696602f, 1.66353202f, -0.98895568f, -0.55197746f,
  -0.76490700f, -0.51898277f, 0.89571434f, -0.23465674f, 0.78022957f, -0.31515405f, 0.36956191f, 0.14868082f,
  -1.34754837f, -1.42855954f, 0.16193633f, 0.07333677f, 0.17676939f, 1.04557240f, 0.03901265f, 0.71803731f,
  -1.30503690f, -1.12139034f, -0.19974811f, 1.00881684f, 0.47280651f, 0.35433301f, -1.69089127f, -1.62198985f,
  -0.75835013f, 0.33615291f, 1.15581942f, 1.14414847f, 0.36340988f, 0.61290318f, 0.34459338f, 1.18196070f,
  1.91851079f, 0.85482568f, 0.44616535f, -1.11629272f, 0.11351080f, 0.76082879f, 2.01879454f, 0.62676597f,
  1.91801810f, 0.43679485f, -0.80276906f, 1.29534411f, -0.80200052f, 0.04684094f, 0.13725832f, -0.59939802f,
  -0.78691846f, 1.42039990f, -2.01648617f, 1.19991803f, -0.67774320f, 0.86227787f, -1.43736231f, -0.97308147f,
  0.48806140f, 0.95352155f, -0.55722719f, -0.32409811f, -1.24917352f, 1.02065170f, -0.24784471f, 0.43659025f,
  0.61238551f, 0.87430269f, 1.35495985f, -0.73322517f, 0.26400083f, -0.09701255f, -2.74092340f, 0.26916859f,
  -0.88630152f, -1.00931704f, 0.02183763f, 0.87542266f, 0.71937174f, -0.57959682f, -0.46428150f, 0.35806796f,
  -0.37473619f, 1.00868058f, -0.40594745f, -1.66056693f, -0.59508157f, 1.28017306f, 2.60797501f, 1.54549050f,
  0.67037219f, 0.39422682f, -0.49993989f, -1.46751964f, 0.23040038f, 0.85132086f, -0.00181893f, 0.39070755f,
  0.03920368f, 0.45065784f, 0.33759171f, 1.06094778f, 2.17352509f, -0.12420616f, 1.18216503f, 0.42112666f,
  -0.11532585f, -0.91479141f, -0.88156903f, -0.55838639f, -0.50337124f, 0.89092875f, -0.99704701f, 1.37491596f,
  -0.76343715f, 1.42052221f, 1.28672659f, 0.48131189f, -0.86621052f, 0.00088655f, -0.56520975f, -0.62204504f,
  -0.82082456f, 0.83077693f, -0.14022462f, -0.94793135f, 0.35845029f, -0.72062486f, -0.26743904f, 0.16813962f,
  -0.75314373f, 2.45549202f, 0.85837686f, -1.37975538f, -0.27760991f, -0.14670403f, 0.49262708f, 0.21660858f,
  0.60520923f, -0.06506598f, -1.12702405f, 2.37165809f, 1.77322268f, 0.79983896f, 0.09395386f, -0.19706848f,
  1.34842157f, -0.58315033f, 1.42353714f, -0.44674015f, -1.59314454f, -0.85268378f, -0.25634143f, 2.17017961f,
  -0.22585505f, -1.03738725f, 0.82563901f, 0.14635228f, -0.63079828f, -1.25569236f, -0.53065896f, -0.45816666f,
  0.98811877f, -1.46235728f, -1.67541289f, 0.88187349f, -0.80153275f, 1.48198867f, 0.30693823f, 0.38657388f,
  -0.03366487f, -0.23076218f, -0.37203750f, -1.01355898f, -0.32617119f, 1.75762773f, 0.92836565f, 0.56021351f,
  -0.17758548f, 0.94985646f, 1.34007692f, -0.27960294f, -0.56428874f, 1.51280105f, -0.04071640f, 0.62971574f,
  0.35115284f, 0.67586422f, 0.96779001f, -0.77958339f, 0.61042053f, -1.20264113f, -1.50789165f, -2.84467196f,
  2.86538911f, -0.05707046f, -1.06103945f, 2.09616184f, -1.47773409f, 0.17756835f, 1.29764867f, 1.04612708f,
  0.19741358f, 0.55424035f, 0.79619014f, -1.37001789f, -0.19914652f, 0.02320257f, 1.70226848f, 0.45455167f,
  0.53830379f, 1.14150238f, 0.39958993f, -2.77389646f, 1.26129925f, 0.83231407f, 1.07082999f, 0.58637458f,
  -1.13003075f, -0.12881748f, -0.72731596f, 0.56282604f, -1.32731700f, -0.33015591f, -0.70191383f, 1.36540973f,
  1.68141949f, 1.23282051f, 0.75911868f, 0.68192059f, 1.29429674f, 1.33574033f, 2.23466730f, -2.01833820f,
  1.90814507f, -1.31920505f, -1.02688658f, 0.65104371f, -0.06907830f, -0.95663345f, 0.59463632f, -1.69433868f,
  1.40656936f, -0.19048376f, 0.10729474f, -1.23078310f, -1.18802524f, 0.63856763f, 0.09793604f, -1.50604808f,
  1.95923400f, -1.42140889f, 1.53870583f, 0.13135579f, 1.26531184f, -0.56279087f, -1.83671606f, -0.89831221f,
  -0.39294860f, 0.27588972f, 0.33391884f, -1.07249057f, -2.02101326f, 1.01821661f, 1.22481978f, 0.73084974f,
  -0.78005290f, -0.20039240f, 0.53858280f, -0.09974571f, -1.42535043f, 0.72072279f, -0.49878916f, -0.26761082f,
  -0.34979734f, 1.47905755f, -0.24218778f, -0.77755290f, -1.10683477f, -0.42635816f, 1.06731427f, 0.80173421f,
  -1.95502579f, 1.26950526f, -0.66488773f, 2.00062490f, 0.98920578f, 2.28586030f, -0.70033133f, 2.06218362f,
  -0.19928195f, 3.06698966f, -0.81847024f, -1.06068742f, 1.55762553f, -0.70744091f, 0.92785108f, -1.13603914f,
  1.94041383f, -0.36280155f, 2.48492932f, -1.16972208f, 2.24388742f, -1.32183206f, -0.57430291f, 0.92994452f,
  -0.55200016f, 0.85965413f, 1.44751191f, -0.38314161f, 1.93488300f, 0.01425923f, 0.46350643f, 1.11077809f,
  0.29514119f, 1.12412298f, 2.20363259f, 0.62852746f, -0.54805362f, 0.29649064f, 0.94993144f, 2.29868221f,
  0.55931073f, -3.04950857f, -0.23454459f, 0.77115434f, -0.34193820f, 0.18619515f, -0.90542799f, -0.26528111f,
  -0.65815067f, -0.38194159f, -0.26814517f, -0.96330655f, 0.54082334f, -0.65190738f, 0.60087818f, 0.73803800f,
  1.13416088f, 2.28470039f, 0.87423384f, 0.37854141f, 1.05751896f, -1.31172824f, 0.18701336f, 0.34898391f,
  0.78002858f, -0.44913891f, -1.43482101f, 3.01616764f, 0.69662315f, -2.13302183f, 1.47359979f, 0.31574205f,
  0.23314831f, -0.81347942f, -1.12410235f, 0.42476135f, -0.75619429f, 0.04513555f, -1.10676253f, -0.67915398f,
  -1.15376830f, -0.03360388f, -0.31785813f, -0.14884892f, -0.58362180f, 0.71786404f, -1.52721798f, 0.43740714f,
  0.40654501f, 1.38865030f, -0.16103867f, 1.92278087f, 1.71242201f, -1.75121558f, -0.66758209f, -0.04725807f,
  0.11813887f, 0.77798510f, -0.89032185f, 0.85319519f, -0.53809649f, 0.84859115f, 0.94690073f, -0.82859159f,
  0.47641125f, 0.13231741f, 0.12804091f, -0.01807474f, -0.69795382f, -0.55614018f, -0.43224630f, 1.16288519f,
  0.38957804f, 0.55380028f, -1.67188442f, -0.92811996f, 1.21640778f, -0.16230173f, -1.09084904f, 0.77518517f,
  1.50389266f, -0.12139085f, -0.28503171f, 0.94302464f, -0.22997412f, -2.55673051f, 1.54764223f, 0.12696025f,
  0.47590798f, -0.05433747f, 0.89430147f, 0.01437263f, 0.37221122f, -0.31797916f, 0.36577132f, -0.34505850f,
  -0.72870612f, -1.25938809f, -1.26639879f, -1.89690399f, -1.39376664f, -0.55130386f, -0.77953374f, 0.15756637f,
  -0.58693218f, 0.37325963f, 0.68466759f, -0.81498057f, 1.25861216f, -0.92922789f, -0.30593207f, 1.04097044f,
  0.35130474f, 2.06593108f, -0.16262668f, 0.26815066f, 0.78811395f, 2.71325994f, -1.60686886f, -0.18913516f,
  -0.92910153f, -0.38056728f, -0.27014461f, -0.34326538f, -1.37591577f, 0.18251529f, -0.15219361f, 1.21441174f,
  0.15905979f, -1.47276986f, -0.18295196f, -0.72633111f, 1.11529195f, 0.16362961f, -0.18957463f, 0.41978493f,
  0.56717592f, 1.44850242f, -1.17244935f, 0.88305789f, -0.71169364f, -0.89638287f, 0.41697833f, -0.28885880f,
  -0.79026222f, -1.35199392f, 1.27743328f, 1.61684036f, 0.03799924f, 1.26332176f, -1.07325149f, 0.50524008f,
  -1.18709219f, 1.29270697f, -0.59208661f, -1.00909221f, 1.10082412f, 0.46323529f, -1.20975602f, 0.91899502f,
  3.50899291f, -0.98476517f, -1.40334475f, 0.79791695f, 0.22445737f, -0.38130638f, 0.75818378f, 1.41645503f,
  -0.58958429f, -1.04310906f, 1.18069744f, 1.12397742f, 0.34996361f, 1.35360372f, -0.21303159f, -0.66329712f,
  2.07716441f, 0.02675824f, -0.48830795f, 0.16128522f, 0.20092823f, -0.92431414f, 0.69992185f, 0.68644685f,
  -0.66229826f, -0.74332249f, 0.28845125f, -0.26707482f, 0.60230035f, 1.49599946f, -0.90806246f, 0.29442352f,
  1.47789919f, 0.62350488f, 0.68991059f, 0.61691290f, 1.01589739f, 0.53942609f, 0.01272524f, 0.06383955f,
  -0.39824721f, -0.14878744f, -0.30205157f, 0.56412309f, -0.74909729f, -0.12698388f, -0.07197256f, 0.40976512f,
  -1.11103809f, 0.98943198f, 0.64722973f, -0.53097630f, -0.84942281f, 0.36821964f, -1.56863010f, -0.94866639f,
  -0.32090890f, -0.50065261f, -0.04158158f, -1.09455860f, 0.89397699f, 0.49161422f, 1.75920928f, 1.52829874f,
  -0.75693303f, 1.46631348f, -0.02804330f, -0.94255388f, -0.62290776f, -0.02340954f, -0.73792070f, 1.51687682f,
  0.62438959f, -0.17998827f, 0.03899857f, -0.29760715f, 0.66616976f, 1.93286014f, -0.75496483f, -0.04578353f,
  0.66989076f, 0.41431725f, -0.86322224f, -0.48315272f, -0.38421175f, -0.18940938f, 0.18118665f, -0.55440611f,
  0.43023106f, -0.99898046f, 0.55632126f, -0.39952210f, 2.40204167f, 0.11876972f, -1.13851309f, 1.94944072f,
  0.28363183f, 0.66523999f, -0.76728147f, 0.27278566f, -0.43590888f, -0.59106249f, 0.52491957f, -0.15352574f,
  -0.39209050f, -1.32587814f, -1.31626308f, 1.71754432f, 0.77640295f, -1.39349377f, 0.86525142f, 0.06269909f,
  0.68076956f, -0.36951929f, 0.44514519f, -0.14485466f, 0.85850835f, -0.77360898f, -0.22057825f, -1.52963650f,
  -0.58055979f, -1.26756716f, -0.66291821f, -1.30736697f, 0.56845748f, -0.63336593f, -0.30030495f, -0.42917097f,
  0.13908131f, -0.01418239f, -1.59427321f, -0.52500111f, -0.21484984f, -0.23914218f, -2.20697141f, -2.72045302f,
  0.52720749f, 0.43944949f, 1.47791719f, -0.42578563f, 0.48593080f, 1.38182890f, 0.81370890f, -0.47956970f,
  -1.68900514f, -0.34981099f, -0.58948940f, -1.99789464f, -0.15122531f, 1.68933201f, 1.94804621f, -0.33293897f,
  0.72160316f, 0.17384857f, -0.47526655f, -1.75552428f, 0.17743972f, -0.99543256f, -0.48381320f, 0.66352761f,
  1.83738184f, 0.54481453f, -0.39570335f, -0.56828737f, -0.31810379f, -0.22301127f, -0.81484926f, 0.20574023f,
  -0.68217111f, -1.09816897f, -0.01067896f, -0.37758449f, -0.33806983f, 0.70024669f, 0.46233675f, 0.01268510f,
  1.40510285f, 1.01475859f, 0.71197236f, -0.26199618f, 0.01274536f, -0.05810605f, 1.19251418f, 0.92891788f,
  0.30464116f, 0.70130795f, -1.66925740f, -0.51399565f, -1.53672767f, 0.15334959f, 1.96704316f, -0.17200463f,
  -1.06479490f, -0.14930113f, -0.65442234f, 0.09548314f, 1.00558567f, 0.18358564f, -0.19044763f, -0.75383896f,
  0.32597041f, -1.94498181f, -0.50435776f, -0.77024233f, 1.28283870f, -1.37825537f, -1.50684857f, -0.06236944f,
  0.39714286f, 0.18534131f, 0.08951283f, 1.39574301f, 0.31287298f, 0.22985260f, 0.25973299f, -0.50834602f,
  -1.18845415f, -1.24968362f, 0.96977192f, 0.81802642f, -0.73487550f, 2.26502275f, -0.71149027f, 0.38079846f,
  0.37919655f, -0.60923678f, -0.59549755f, -1.18839395f, 0.69547510f, -1.33316672f, -0.31322706f, 2.58746839f,
  -0.14253889f, 1.35982358f, -1.91437268f, 0.82017606f, -0.05345982f, -1.69491982f, 0.58249253f, 0.07103963f,
  1.43813801f, 1.94393039f, 2.03488564f, -0.28956896f, -0.62080896f, -0.06702331f, -2.04214740f, 1.16624522f,
  1.62813222f, -0.68996644f, -0.09165484f, -1.00079274f, -1.05077958f, 1.90377319f, 0.40342730f, 0.92409956f,
  0.75348502f, 0.85189009f, -2.68380427f, 0.36556885f, 1.02442229f, -0.98955745f, -1.15942478f, 0.28761584f,
  -2.47471261f, -1.77648914f, 0.08697813f, 0.72400671f, 1.06834483f, 1.04418921f, -1.62758577f, -0.78664958f,
  -0.73868769f, -1.38700938f, 1.76886499f, -1.35549223f, 0.64909440f, -1.01305473f, -0.08240358f, -0.29782534f,
  0.65000451f, 0.62528455f, -0.24125905f, -1.29241788f, -1.22962642f, 1.51939690f, 0.01082157f, 0.38921106f,
  -0.22801925f, 0.15831555f, 2.69520545f, -0.89414030f, 0.28002664f, -1.05443478f, 0.49413335f, -0.65792507f,
  0.07798209f, -0.20322125f, -0.57639194f, 0.43013352f, -0.40879664f, 1.31997252f, -0.22054990f, 1.35644293f,
  -0.57131612f, -0.27282447f, 0.35155857f, 0.22194913f, 0.99297142f, -0.00747401f, 0.27466768f, -1.29902482f,
  0.61368698f, 0.67330354f, 0.93601680f, -0.76437801f, 0.40400609f, -0.64478582f, 0.25997296f, -0.03475650f,
  -0.82627398f, 0.57530689f, -1.62670863f, 1.66824448f, 0.86616486f, 0.23191334f, -0.55609852f, -0.09126906f,
  0.78971827f, -0.60381699f, -1.87276733f, -0.97603232f, 0.83681649f, 1.04667842f, 0.20234661f, 0.07353490f,
  0.95132744f, 0.22686996f, -1.65641367f, -1.05058241f, -0.34577981f, 0.78861135f, 0.86489046f, -0.23852669f,
  -0.61683148f, 0.26093179f, -0.72375458f, 0.26380989f, 1.19211280f, -2.02370143f, -1.73074937f, 0.51477617f,
  1.86813235f, -0.27204716f, 1.87373841f, 0.05668454f, -1.58584321f, 0.19052480f, -1.28540993f, -0.04329328f,
  -1.00875449f, -1.61162758f, 2.21930885f, 0.36545613f, 0.83979511f, -0.95119572f, -0.42191166f, 1.15500271f,
  0.86000192f, 1.43424499f, 0.33298621f, -1.13816881f, 0.08865546f, 0.94337046f, 2.20194459f, 0.70324081f,
  1.09025550f, -0.43152875f, 0.96249324f, 0.54068595f, -2.26057959f, -0.02449431f, -0.37367582f, 0.70995915f,
  -0.25444067f, -0.59183341f, -0.98115486f, -1.37877393f, -1.01954329f, 1.35884869f, -0.27307656f, -0.41384017f,
  -0.58887935f, -2.28475094f, -0.33807042f, 0.03288653f, -2.48803973f, 1.48757660f, -0.20164829f, 1.21537530f,
  0.09287325f, 0.79658431f, 0.15712278f, 1.21846235f, 1.08130062f, 0.51448637f, 0.41918749f, -0.29676640f,
  -0.06998300f, 1.59631073f, 0.80429441f, -0.06809089f, -1.60183513f, 0.19969141f, -0.14781108f, -1.46417904f,
  -0.80703598f, 0.25961241f, 0.17859054f, -1.14063013f, -0.33221227f, 0.29027715f, -0.64697498f, -1.22315562f,
  0.39307433f, -0.69771922f, 1.13344240f, 0.27096909f, 2.09485674f, -1.10095584f, 0.76854670f, -1.09411860f,
  -0.32459313f, 0.82155669f, -1.45485115f, -0.81781781f, 2.43963218f, -0.26262024f, -1.24736059f, 0.26070321f,
  1.11265087f, -1.02830946f, 1.25288010f, 0.43636280f, 0.55261439f, -0.29577181f, -0.44481727f, -0.34291247f,
  -0.92693305f, 2.08652806f, -1.05557823f, 1.66618490f, -0.06543013f, -1.01613212f, 0.50970328f, 1.40284395f,
  -0.10244499f, 0.12887108f, 2.94050169f, 1.29850519f, -0.89694548f, 0.40613368f, -1.16938448f, -0.14941822f,
  -2.50061584f, 0.58634377f, 0.08140447f, 0.27652338f, -1.44010317f, -1.02209234f, 0.03009246f, 0.44744536f,
  1.41847742f, -1.49049890f, -0.07454247f, 1.46504378f, -0.21165766f, -1.79994798f, -0.22988990f, -0.92916000f,
  -1.61866784f, 1.28253388f, -1.50735950f, -0.19572908f, -1.48101509f, 1.00434840f, -0.28449017f, 0.26769853f,
  -0.61423028f, 1.90607035f, -0.29177147f, 2.68703747f, -1.69044840f, 0.06048824f, 0.39154384f, 0.62672502f,
  -0.09479982f, -1.26853096f, -1.29751718f, -1.73837125f, 0.02799808f, 0.38836816f, 1.08063817f, -0.80196887f,
  0.36959365f, 0.57403827f, 0.25275698f, 0.82663912f, -2.28340626f, -0.40956077f, -1.45068359f, -1.38352287f,
  0.50670469f, -0.23319229f, 0.81437063f, 0.43921089f, 0.45474949f, 1.62114727f, -1.87936580f, -2.17556405f,
  -0.83910221f, -0.73920143f, -1.75272584f, -0.29003096f, 0.61192113f, -0.22440851f, 0.10079505f, -0.90363401f,
  1.31218278f, 0.24500436f, -0.86132342f, 0.54675364f, -0.65854371f, 0.77649659f, -0.44890022f, -0.66253501f,
  -0.02733108f, -0.87429082f, 0.54061174f, 0.50648004f, 1.70636940f, -0.20580570f, 0.40750045f, -0.25347006f,
  0.59032762f, 1.13196957f, 0.02391978f, 0.79538971f, -0.38431171f, -0.14742510f, -2.13035226f, 1.24911427f,
  -0.74082297f, -0.57680845f, -0.71510231f, -0.41738015f, -0.40242830f, -0.07607448f, 0.77764529f, 2.29884195f,
  -0.24000289f, 0.28071877f, 1.53154421f, 0.59056324f, -0.51991069f, 0.84150434f, 1.74799383f, -2.31340122f,
  -0.06997722f, 1.99920595f, -0.78263336f, -0.24048178f, -0.57150626f, -1.39713609f, -0.17647339f, -1.03094804f,
  0.78788632f, -0.81191278f, 0.64747214f, -1.46962285f, -0.35543451f, -0.13865137f, -0.64708406f, -2.11900854f,
  -0.06614894f, -0.82743382f, 0.12341027f, 0.70549434f, 0.44143966f, 1.64944565f, -0.20773669f, 0.09107313f,
  1.19021249f, 0.67508155f, 1.05165541f, 0.25020796f, 0.81735849f, -0.52185577f, 0.82751507f, -0.62694180f,
  -0.38686898f, -0.42553866f, 0.41209504f, -0.20090318f, 2.41216087f, 2.17113686f, -0.85109657f, -0.49994603f,
  0.38780284f, -1.28399718f, 0.62177110f, 0.18825261f, -0.35031161f, -0.42585322f, -0.30076456f, 0.36985153f,
  -0.57856375f, 0.26696569f, 0.81695139f, -0.88456672f, 0.34185332f, 0.60215557f, 0.62410724f, 0.21395288f,
  -1.66093683f, -1.43803120f, 0.62934238f, -0.72502655f, 1.13759029f, 0.55252624f, 0.29883489f, -0.04165970f,
  -0.84570265f, 0.25224581f, -1.10039675f, -0.19058844f, 2.14038467f, 0.06324485f, -0.91479599f, -0.42037106f,
  -0.20843188f, 0.50929683f, 1.30767226f, 1.36137581f, 1.59240615f, -0.87776494f, -0.06214287f, 0.00507592f,
  -1.65062296f, -0.71810919f, 0.22860062f, -1.37496960f, -0.02035436f, 0.24983756f, -1.53506684f, -2.44485426f,
  -0.02400026f, -1.00421870f, 0.73681915f, 0.37204811f, 0.68076849f, 0.68543965f, 0.52068067f, 0.02143536f,
  -0.19025427f, 0.83293366f, -0.04059103f, 0.51908630f, 0.82870901f, 0.51017874f, 0.71361244f, -0.76504105f,
  -0.77412659f, -0.33726916f, 1.01226008f, 0.42943463f, 1.67855895f, 0.61974776f, 1.57296121f, 0.51964831f,
  0.25806355f, -1.42488384f, 0.58677077f, -0.79069066f, -2.44638705f, -1.94470298f, -0.11815290f, 0.93133581f,
  2.16246986f, 0.14008719f, -0.28015170f, -0.49254990f, -1.07230663f, -0.35450539f, 0.04429737f, -0.44970077f,
  1.02334404f, 1.10767448f, 1.01019311f, -1.16837907f, -0.53751838f, -0.33730137f, -0.55437416f, -1.14177001f,
  -1.00705421f, 1.22927725f, -1.19375312f, -2.22551417f, -1.57280874f, -0.01119558f, -1.20909595f, -0.39074284f,
  -0.16600586f, 1.55760121f, 0.19076736f, -0.76619589f, -1.56963038f, -1.20007098f, -0.17769265f, -0.36067387f,
  -0.74552405f, 0.07404455f, -0.86103380f, -0.61913306f, 0.73856360f, -0.37022763f, -0.09876233f, -0.73404235f,
  -0.33979720f, 2.25986576f, -2.23018169f, 0.58280873f, -0.00611517f, -2.34029078f, 0.44449073f, 0.37044454f,
  1.14931846f, 0.08153804f, -1.46821511f, 2.06343293f, 0.07983754f, 0.88011175f, -2.10613966f, 0.85827827f,
  -2.15060353f, 0.23278724f, -0.61482060f, -0.47715101f, 0.61069995f, -0.96751493f, -1.11618543f, -2.09653401f,
  1.43718016f, 0.07524218f, -0.05183733f, 0.39373437f, 2.20475411f, -1.47870862f, 0.05892486f, 0.57629251f,
  -1.66071486f, -0.76765180f, -0.87959552f, 1.07386935f, 1.46667635f, -0.05200776f, -0.87390554f, 0.00637834f,
  0.37845910f, -0.76612335f, 1.03611183f, -1.12103736f, -1.48890066f, -1.80082726f, 0.41763589f, -0.13743076f,
  -0.49897042f, 1.58738053f, -0.66152710f, -0.57121670f, -0.52623820f, -0.16916251f, 0.68253809f, 0.70132929f,
  1.89350533f, -1.68643415f, -0.37259251f, 0.15434298f, -0.98981172f, -1.45456064f, 0.05164943f, 0.88130122f,
  1.17273712f, 1.01325214f, 2.11459517f, 1.06123507f, -1.44723368f, -0.73871428f, -0.41995460f, 0.93269449f,
  -1.02214622f, -1.67670381f, 0.49440646f, 1.58578706f, 1.72388840f, -0.49339375f, 1.04874516f, -0.28225148f,
  2.43312240f, -0.38858464f, 0.04555118f, -0.28651965f, -0.58678532f, 0.99034929f, 0.15255132f, 0.34187627f,
  1.40873313f, 0.93618864f, -0.14466427f, 0.34796774f, 0.84888786f, -0.18869959f, 1.88878155f, -0.83717680f,
  -0.29311901f, 1.85934985f, -0.44811317f, 1.72766972f, -0.88791567f, -0.46771523f, 0.00882653f, 3.08006573f,
  -1.52049839f, -1.15569925f, 0.68745667f, -0.86471927f, -1.13156414f, 1.61775291f, -0.19868109f, 1.18389618f,
  -0.66638130f, -2.28246331f, -0.17586115f, -0.15802051f, -1.00057960f, 1.32208741f, 0.99626482f, 1.38631976f,
  0.89276952f, 0.43234307f, -0.95594412f, 0.09722608f, 1.64503503f, 1.21490967f, 1.23505878f, -1.20083439f,
  1.00329340f, 1.28062761f, 1.41338050f, -0.26095116f, -0.61494470f, -1.09471536f, 0.36597654f, -1.24764311f,
  0.89906174f, 0.67606395f, -0.14970797f, -0.17874728f, 0.31992859f, -0.89287525f, 0.02309622f, -0.27440852f,
  1.11499619f, 0.68171388f, 0.92580795f, -0.94994456f, 0.71183389f, -0.47813049f, -1.47839761f, 1.41513872f,
  0.89273059f, -1.19541967f, -0.31995207f, -0.03668564f, 0.88698679f, 0.14624588f, -0.98365784f, 0.50023758f,
  -0.18518187f, 1.57232642f, -0.74752796f, -0.81657362f, 0.69758427f, -1.03615725f, 1.09389889f, -1.39811242f,
  0.18918809f, -2.26323342f, 0.33421347f, 0.50577360f, -0.83982116f, -0.37318021f, 0.88931775f, 1.35172689f,
  0.90030003f, 1.44804490f, 0.55084747f, 0.22680190f, -0.10065427f, 1.46761286f, 1.42486906f, 2.08424687f,
  -0.28768224f, 0.60881078f, 0.75420785f, 0.47922763f, -0.76015627f, 1.14885175f, -1.03309202f, 0.00311566f,
  -1.30307662f, 0.72796822f, 0.27813178f, 0.51302636f, 0.58576030f, 0.77318501f, 0.83870816f, 0.22534537f,
  0.68221486f, 0.05605517f, 0.98808634f, 1.07044137f, 0.70788771f, -0.46265057f, -2.95218754f, -0.46098179f,
  0.21146776f, -1.08645260f, -0.72391802f, 0.90112847f, -0.59035951f, -1.03998959f, -0.98546791f, 1.06408298f,
  -1.09942186f, 0.49782377f, 0.14695936f, -0.73989099f, -1.00493526f, -1.01184738f, -0.42997336f, -0.09728871f,
  -1.83246469f, -0.30077422f, 0.14410290f, 0.53457332f, -2.03908157f, -0.92478424f, -0.43288654f, 0.02046295f,
  0.51658630f, 1.44731486f, -1.35222101f, -0.25597647f, -0.90823674f, -0.18071194f, -1.08458948f, 0.21504104f,
  0.55586755f, -0.75104016f, -1.41575694f, -0.55492365f, 0.39905974f, -1.43941772f, 0.32661185f, -1.18484461f,
  -0.58921921f, 0.99689800f, 1.18038702f, 0.71775299f, 0.23909831f, 0.09696799f, 0.65843320f, 0.74600726f,
  -2.48951507f, 1.11380410f, -0.65770173f, 2.00594783f, -1.35211420f, -0.32746759f, 0.28370509f, 2.47503066f,
  -1.43167055f, -0.20525411f, 2.32769895f, 0.21371232f, 1.25298953f, 0.99498808f, 0.34689415f, 0.77603304f,
  0.05938829f, 0.41969571f, -1.29941761f, -0.48286077f, -0.49227428f, -0.97410101f, -0.65276271f, 1.23204422f,
  0.83633852f, -1.41995859f, -1.14120841f, -1.29961836f, 2.26852822f, 0.66202134f, -1.48498893f, 0.72198856f,
  0.40132940f, -1.06974220f, -1.31237078f, -1.03455782f, 0.38872960f, 0.54988497f, -0.14829211f, 2.10162330f,
  0.15566136f, -1.56742668f, -1.66911411f, 0.20403816f, -0.01938996f, -0.51522982f, -0.36445221f, -0.43455744f,
  -0.15472054f, -1.23850608f, 0.33057877f, -1.52095520f, -1.46829081f, 0.07707509f, 1.61979544f, 1.49607968f,
  -1.45700204f, -0.54335511f, -0.63051659f, -2.58900952f, 1.29398596f, 0.30722678f, 0.00318996f, -2.36831760f,
  -0.02986374f, -0.95486730f, -0.82061076f, 0.82778788f, 1.16582751f, 0.47143224f, 0.99076581f, 0.37070340f,
  -0.57866156f, -1.26691163f, -0.94901168f, 0.07591301f, -0.85375541f, 1.00241065f, 1.93101549f, -1.38529360f,
  0.89872044f, -0.03333658f, -1.16222513f, 1.06814969f, -0.81171322f, -0.78589040f, 0.33972457f, -0.89924216f,
  2.17213368f, 1.12463081f, 0.06270020f, 0.62761718f, -1.59289014f, -0.36111656f, -0.43041852f, -0.12523641f,
  -1.54451334f, -0.38544858f, 0.47232395f, 0.77288997f, -0.08431351f, -0.50193340f, 0.17382118f, 0.13270414f,
  1.99903643f, 1.28854215f, -0.71442789f, -1.01333427f, 0.44511735f, 0.21820062f, 0.53078490f, -0.02356324f,
  -0.28748620f, 1.64180064f, -1.01201463f, 0.06772877f, -1.17160606f, 0.21207109f, 1.68901360f, 0.48802403f,
  -1.30102432f, -1.42871320f, -0.18185277f, 0.61488461f, -0.09061561f, 0.55383611f, 0.56258965f, 0.75085574f,
  -0.97569609f, -2.07584620f, 0.35527036f, -0.17654328f, 0.61918157f, -0.00748334f, -1.26653278f, 1.15270650f,
  0.84949046f, -0.52924317f, -0.27272898f, 0.11772497f, 1.95676613f, -1.01385248f, -0.34457216f, -0.25667736f,
  0.88318825f, 2.45088649f, 0.42865035f, 1.33684790f, 0.24814388f, -0.00339363f, 1.09764767f, -0.33485603f,
  -0.22412738f, 1.10656905f, -0.44347045f, -0.45078275f, 1.72862315f, 0.71059197f, -0.82250971f, 1.05180335f,
  0.72309995f, -1.39517462f, -1.08268535f, 0.94345671f, 0.64145321f, -1.50095809f, -1.22798467f, -0.76741004f,
  0.24711016f, 0.68506116f, -0.45414773f, -0.25983071f, 0.05371365f, 0.99567294f, 1.21006763f, 0.20255426f,
  -0.52524281f, 3.11770606f, -0.36168128f, 1.54849052f, -0.06864604f, -0.07107228f, -0.44412187f, 0.82665324f,
  0.77392662f, 0.43450922f, 0.97050452f, -0.17132646f, -1.42033672f, -0.52637970f, 1.40145528f, 1.60554993f,
  -1.65339458f, -0.35626763f, -0.48425719f, 0.18943018f, -0.12824862f, 1.07744551f, 0.09573138f, -0.32200593f,
  1.85740733f, 0.05324831f, 0.58411479f, 0.53239959f, -0.98033160f, -2.35224533f, 0.39995065f, -0.32771999f,
  0.58661419f, -1.07439899f, 0.87768328f, -0.10724081f, -0.62929004f, 1.83838224f, -0.82993263f, 1.37145746f,
  1.26895201f, 0.77223265f, -0.81806868f, -0.65726709f, 1.20126152f, -0.84970570f, 0.41007459f, -1.60487938f,
  -1.19489431f, 2.09501457f, 0.67172903f, 1.06236303f, -0.20915307f, 0.56160384f, -0.34657034f, 0.68471026f,
  1.31998205f, -1.15369439f, -0.47378621f, -0.05249488f, -1.03984809f, 1.40189528f, -0.37997979f, -0.42475334f,
  -2.03465343f, -0.40391400f, -0.65385151f, 0.65016109f, -0.68783826f, 1.84564042f, -1.06204104f, -2.12340617f,
  0.63554114f, 1.33649254f, 1.64524353f, 1.18058908f, -1.87707222f, -0.41114867f, -0.95957351f, 0.75663698f,
  1.43565857f, 0.28197190f, 0.05993157f, 0.09629212f, 0.47712946f, 0.21412654f, -0.42980808f, -0.06382146f,
  -1.92131686f, -2.91626430f, 0.55198205f, 0.30338579f, 0.07689617f, 0.44815323f, -0.65028316f, 0.40030530f,
  0.88354367f, -1.54219234f, -1.16443563f, 0.20842037f, 0.81478697f, 0.26672387f, 0.96265268f, -0.25306740f,
  -0.12509912f, -0.34988859f, -2.43553543f, 0.27368087f, 0.13200182f, 0.99851114f, -0.56530875f, -0.03927409f,
  -0.50129700f, 0.97009474f, -1.00116241f, -0.72553873f, -0.35816246f, 0.36852938f, -0.49500501f, 1.36449647f,
  -1.70462203f, 0.40290755f, -0.90841329f, 1.30504334f, 0.57221889f, 0.34784701f, 1.07657325f, 0.11673886f,
  0.34331849f, -0.87699312f, 1.38712740f, -0.41828591f, 1.00634027f, -0.33926836f, 2.28693223f, 0.29595920f,
  -2.22890687f, -1.73819709f, 0.36342663f, -1.21093142f, -0.28908524f, 1.52692163f, 0.86434478f, 0.25681028f,
  -0.03768308f, 0.33243531f, 0.83639133f, -0.46281475f, -0.50504202f, 0.74228680f, -0.65000933f, 1.35005999f,
  -0.23768562f, -0.22160408f, 0.95783150f, -1.51697540f, -0.15836772f, -0.79596335f, -1.16665101f, -0.22790639f,
  -1.31273019f, -0.99585718f, 0.78517020f, 1.37474978f, 0.40932152f, 1.05041337f, -0.56737691f, 1.63573110f,
  -0.39273834f, 0.72933573f, -0.23566280f, -0.43569687f, 1.73453355f, -1.83426535f, 0.34239155f, 0.33054352f,
  -1.15833867f, 0.92779303f, 0.49824193f, 0.86691350f, -1.16146135f, -0.51548499f, 0.25517669f, -0.91290134f,
  -0.61989594f, -0.02773865f, -0.97608078f, 2.38675928f, -0.75385016f, -0.02372455f, 0.64535999f, -0.29973862f,
  0.70057791f, 1.62483811f, -1.15532362f, 0.26702592f, 1.31551898f, -1.74326241f, 0.70857894f, 0.23671483f,
  0.53089112f, -1.60191143f, 0.75003839f, 0.80233663f, -0.58819616f, 0.03164718f, -0.50386512f, 0.89743799f,
  1.56129456f, -0.62098408f, 0.31568879f, 1.85610998f, 0.21720244f, 0.94656235f, 1.50376451f, -1.12826061f,
  0.05537287f, 0.98482621f, -0.13256346f, 0.61251134f, -0.22721487f, 0.63432306f, -1.04644930f, 1.62426949f,
  -0.74865979f, 1.56637788f, -0.62691504f, -0.55885851f, -0.41895494f, 3.03587842f, 1.34802175f, 0.25960201f,
  0.80252528f, 0.81655365f, -1.07378531f, 0.44492915f, 1.13389432f, 0.90143615f, 1.93420649f, 0.65931511f,
  -1.12710810f, 0.08942714f, 0.17081283f, -1.05309105f, 0.62915480f, 1.11120188f, 0.12315384f, 0.76301754f,
  -0.53620136f, -1.05754840f, 0.92804545f, -0.86429191f, -0.39384541f, -2.49751997f, -0.93393403f, 0.91306561f,
  -0.04027352f, -0.23234439f, -0.52111429f, 0.79962134f, -2.13422298f, -0.98542601f, -0.50759399f, -1.49504519f,
  0.97260916f, 0.46607703f, 0.59750670f, 1.12464476f, 1.68043280f, 0.65580666f, 1.53013277f, 0.68496740f,
  -0.23322755f, -1.08240974f, 1.42568624f, 0.25285318f, 1.27219462f, -0.13167596f, -0.93765563f, 1.49534428f,
  -1.57540607f, -1.24911880f, -0.29386383f, 0.39541146f, 0.29336369f, -0.24308972f, 0.04536172f, -1.04403877f,
  0.11201991f, 0.65605295f, -0.25499904f, -0.92306513f, -0.38227361f, 2.04606032f, -0.07337298f, 0.11546472f,
  0.09952734f, -0.38450286f, 0.36730191f, -2.22951722f, 0.57666266f, 0.62570935f, 1.82878745f, -0.26861626f,
  0.24496850f, -0.84780478f, 2.78905034f, -1.09426141f, 0.01762817f, 1.28958499f, -0.57212985f, -1.11792505f,
  1.05888653f, -0.36646473f, -0.40138325f, 0.69049567f, 0.56817019f, 0.50846523f, -1.37402177f, 0.88171673f,
  -1.42145789f, -1.10813904f, -1.15062499f, -0.14053479f, -0.54560554f, 1.23731518f, 0.02480295f, -0.26267356f,
  -0.42469344f, 0.44083416f, 1.25242531f, 1.02717352f, -1.29651952f, -0.30075997f, -0.15135109f, -0.58680081f,
  -0.56757146f, 1.65295768f, -1.03767478f, 1.71623540f, 0.58140421f, -1.13972962f, 0.29778960f, -0.82957679f,
  -0.06447809f, 0.27193573f, -1.95001340f, -0.54591537f, 1.25393224f, 0.84035045f, -1.31520307f, -1.65888417f,
  -0.85825658f, 0.62256062f, -0.23331691f, 1.32052255f, -1.42891467f, -0.10440505f, -0.83343196f, -0.56108159f,
  -0.07626233f, 2.68158889f, -0.14163259f, -2.25207329f, 0.84427428f, -1.57607698f, 1.51824951f, -0.86662561f,
  -2.04118371f, -1.80879474f, -0.80691892f, -1.97153687f, -2.21622682f, 0.27922028f, 2.54024625f, -2.06542516f,
  0.52293205f, 0.70198363f, 0.37420285f, 0.15073146f, -0.06676852f, 1.08233225f, 0.49821293f, -0.14632398f,
  -1.98084998f, 0.71928507f, -0.84565330f, 0.35095346f, 0.98804492f, 0.32328624f, 0.56280404f, -1.68447089f,
  0.28288952f, 1.62248349f, -0.14605859f, 0.43113604f, -0.19966359f, -0.57218134f, -0.46297628f, 0.51794201f,
  1.41987503f, -0.21945317f, 0.08579823f, 1.16582537f, 2.18954253f, -0.40283653f, 0.75885314f, 0.75228137f,
  0.47700921f, -1.71749103f, -0.68690211f, 0.04631084f, 0.51736009f, 1.02257204f, 0.43111935f, -1.22900605f,
  -0.31358826f, -0.78822255f, -0.39618927f, 0.61588532f, -0.93529439f, 0.93318099f, 0.13859501f, 0.49018908f,
  0.74368244f, 0.81148338f, -0.47940993f, -1.23911548f, -1.62591457f, 0.20609362f, -2.08169270f, 0.67349136f,
  0.14819084f, -0.62592161f, 0.77266264f, 1.41808879f, -0.25838220f, -0.24140562f, 0.70896661f, -0.45146194f,
  -0.29331303f, 1.52476227f, 0.33826432f, -0.02312011f, -0.23873471f, 0.44740450f, -0.58811003f, 1.87717676f,
  -0.54397470f, 0.51078570f, 1.69506431f, -0.13023156f, -0.23239218f, -0.55121398f, -0.55455619f, -0.39040917f,
  1.33028400f, 1.71655059f, -0.27850756f, 0.14729036f, 0.52505606f, 0.07015516f, 1.19044387f, 0.56916845f,
  -0.77748430f, -0.25177482f, -0.12498038f, -0.08809133f, 0.70156282f, -1.46465862f, -0.87032664f, 0.89896566f,
  0.01128609f, 0.86108136f, 0.03568512f, 0.93285263f, -2.20213008f, -0.38428897f, 0.19832307f, 1.03085005f,
  -1.55691373f, -0.47789451f, 1.30360115f, -0.00525810f, 0.57861745f, -0.15603244f, -0.45054305f, -0.48625427f,
  -0.40086412f, 0.52595603f, -2.59400201f, -0.31302413f, -2.30093336f, 0.06981119f, -0.08036701f, 0.58328664f,
  1.00982440f, -1.35967064f, -1.67442322f, 0.67106175f, 0.74976200f, 0.31593487f, 0.85500705f, 1.06443119f,
  1.62303257f, 0.57628435f, 2.80062628f, -0.84969270f, 0.20891573f, -0.61050224f, 0.22851799f, 0.04759566f,
  1.12834573f, 0.82685077f, -1.28523147f, 0.30915213f, -0.22993289f, -0.32651305f, 0.58256930f, 0.61331141f,
  -0.43973395f, 1.00887382f, 0.12797368f, 1.31529260f, -2.14566231f, 0.21658061f, 1.82122791f, 0.53188932f,
  1.25423157f, -0.36216572f, -0.54030144f, -0.95511413f, 2.23958564f, -0.84520000f, 1.26714480f, 1.01981032f,
  -0.34533650f, -1.54978859f, 0.26052827f, 0.41878158f, 2.18262482f, -1.13147593f, -1.83394897f, 0.27304596f,
  -1.37769496f, -0.35010231f, 0.86093074f, 0.25165674f, -0.43841746f, -0.94387650f, -0.12759575f, 0.22497705f,
  -0.42557505f, -0.79542071f, 0.08201419f, -1.01712132f, -0.06869308f, 0.67076439f, 0.14351185f, -1.00483596f,
  -1.26010692f, 1.05797982f, 1.44382942f, -0.80508345f, 1.05330956f, 0.22835536f, 0.82153285f, -0.11905664f,
  1.09659851f, -0.31253919f, 0.81364089f, 0.38762498f, -0.40704903f, -0.11100901f, -0.51706910f, 0.33643389f,
  2.19871116f, -0.46206319f, -0.01901638f, -1.29842472f, 1.39046788f, 0.72694260f, 1.75604296f, -1.52916121f,
  0.78682011f, 0.80506754f, 0.07414277f, 0.16034696f, 1.27464700f, 0.31351602f, -0.85628259f, 0.65252054f,
  -0.96804452f, -0.52102470f, 1.48316288f, 0.27783439f, -0.18796334f, 0.51330221f, 2.34042096f, 0.62482542f,
  0.01792594f, 1.22589087f, -0.21398248f, -0.11556146f, 0.22484289f, -0.94180304f, -0.64688295f, 0.53911525f,
  0.58036947f, 1.58017278f, 0.30212453f, 1.15242314f, 0.82773852f, -0.52336210f, -0.31767294f, -0.25858057f,
  0.59631902f, 0.29289070f, 0.03331681f, 0.57241142f, -0.18601996f, -0.99919838f, 0.30837673f, 0.84146494f,
  -0.99880159f, 0.19960463f, 0.94216979f, 0.50259149f, -0.16365804f, 0.11143702f, -0.16138302f, -0.17536101f,
  0.61721671f, -0.61622280f, -0.07388274f, -0.24738030f, 0.10155666f, 0.06332672f, -1.26285601f, 0.39468625f,
  -0.75753474f, 0.26180384f, 1.33752942f, 1.01924014f, -0.56934685f, 1.36872518f, -0.01940889f, 0.03835001f,
  -1.05007851f, 0.41110072f, 0.06856561f, 0.99174404f, -0.27418792f, -0.79328460f, -1.21686220f, -0.04500977f,
  1.07857275f, 1.02733386f, -0.80061668f, -0.03381111f, 1.29558873f, 0.37530118f, 1.23810065f, -1.42819953f,
  -0.59986311f, 1.28795791f, 0.17114817f, -0.15087067f, 0.81357324f, -1.53565860f, -0.33979833f, 0.24427691f,
  -0.78995496f, 0.19132805f, -0.86108255f, 1.86748540f, -0.32440367f, 0.51734531f, 0.37033579f, -0.69310778f,
  0.43907031f, 1.16511214f, -1.12132502f, -0.28244537f, 1.35127878f, -0.32833871f, -1.29824781f, -1.32141137f,
  -0.70404488f, 0.22782180f, -1.85039020f, 0.65143073f, -0.30363876f, -0.03084322f, -0.63722187f, 0.14609750f,
  -0.48997283f, 0.74916941f, -1.40685892f, 0.27559325f, -0.15235025f, 1.05028880f, 0.08468048f, -0.25742370f,
  1.28973341f, 0.10380322f, -0.29653153f, -1.28264678f, -1.39809048f, 0.10182387f, 1.12034154f, -0.96321124f,
  -0.23775949f, -0.27058709f, 1.21396327f, 1.26565886f, 1.98811018f, 0.00648256f, -0.22696677f, 1.60227442f,
  -0.90787679f, -0.56654608f, -0.82839626f, 1.26268756f, -0.36737970f, 1.32711220f, 0.05110139f, 0.38677552f,
  0.18415388f, 1.50308764f, -0.06922615f, -1.73964810f, -1.09953701f, -0.34331417f, -0.06724957f, -0.08731828f,
  -0.18438627f, -0.93422312f, -0.61797148f, -0.27887374f, 0.30406523f, -0.11482751f, -0.38481867f, 1.95463550f,
  -0.24103753f, 0.01051717f, -0.91170591f, -0.72358322f, 0.49612346f, 2.35579228f, -1.87729883f, 0.70717692f,
  -0.37218428f, 0.54943091f, 2.49913073f, -0.38703132f, -0.09221717f, 1.50290132f, -0.89816374f, 1.30926371f,
  0.36052147f, 0.87194854f, 0.11926509f, -0.23223078f, -1.75730777f, 0.10320433f, -0.52832252f, 0.96039146f,
  0.36298233f, -0.33889833f, -0.38036460f, -0.13605794f, 1.86398017f, -0.46808180f, 0.40791652f, -0.32636768f,
  1.57245409f, -1.19709611f, 1.28853965f, -0.40704563f, 0.86160165f, -1.93068612f, 0.79058164f, -0.43271798f,
  0.44311672f, -1.58103251f, 2.07349205f, 0.29352257f, 0.37246567f, 1.22865844f, 0.19288544f, 1.38075531f,
  0.54471087f, -0.77838242f, -0.09432057f, -0.13918553f, -1.70624554f, -0.34431908f, -0.96250999f, 1.35572422f,
  1.25699306f, 1.41073513f, 1.08570266f, -0.47053614f, -2.15271616f, -0.43018112f, 0.90135390f, -0.80604762f,
  -0.73115885f, 0.93968105f, 2.91765428f, 0.64290416f, -0.26298159f, -0.26819479f, -0.76347619f, 1.79785562f,
  -0.94074529f, 0.07216296f, -0.29610285f, -0.75726044f, -2.02836990f, 1.52199697f, 0.90316325f, -2.15600657f,
  -0.03982369f, 0.02473995f, 1.83681321f, 0.62646717f, -0.92914808f, 0.99587876f, 2.26416421f, 0.20689601f,
  -0.33498231f, 0.74421597f, -0.13392942f, 1.50461817f, -0.17869237f, 1.12963927f, 1.82249463f, -0.66200799f,
  0.66475981f, -0.26856473f, -1.53072202f, -0.36000267f, -0.34923118f, -0.63257819f, -0.79979050f, -0.31582123f,
  -1.00843287f, -0.49240553f, 1.11441839f, 0.98139668f, -1.24663556f, 0.72751933f, 0.80713576f, 0.47770751f,
  4.04981995f, -0.89672500f, 0.34935865f, -0.06857139f, 0.11281369f, 1.88554788f, -1.08051646f, 0.51610088f,
  -0.50946254f, -0.95530331f, 0.25782821f, -0.84918338f, -1.04812396f, -0.13029626f, -0.23928696f, -0.20964995f,
  -1.06962550f, 0.03468344f, -0.67935693f, -1.07689047f, 0.82251704f, 0.63057816f, 2.08055758f, 1.41885436f,
  -0.86172211f, 0.09467203f, -1.81618369f, 1.40074456f, -0.84451509f, 1.32786322f, -0.44049773f, 0.85399479f,
  0.55946225f, 0.76065063f, 1.96110177f, -0.89997649f, 1.86773193f, 1.11236143f, -1.46095109f, 0.26555490f,
  -0.42517850f, -0.32104051f, 0.48640877f, 0.06962978f, -2.36082339f, -1.27070487f, 0.47474155f, 0.33404979f,
  -0.59890693f, 0.09998190f, 0.43073827f, 0.37313998f, 1.29830158f, 1.38919652f, 0.48966071f, 1.29483080f,
  -0.50375432f, 0.34245652f, 0.33684999f, -0.41237831f, 2.18661261f, -0.57042158f, 0.17072603f, -0.69529718f,
  -0.39643535f, 0.73835242f, 0.67555916f, 0.52799505f, 0.64482969f, 0.54624522f, 0.31960863f, -0.51474279f,
  -0.94668347f, 0.41709685f, -0.98411143f, -0.48412079f, -0.49095178f, -0.30172196f, 1.43210530f, -0.68823731f,
  -0.88129824f, -0.23094720f, -1.22535229f, -0.03360974f, 0.49733433f, -0.36708403f, 1.18685222f, -0.77853656f,
  1.37501442f, 1.15119362f, 0.00272913f, -0.10718262f, 0.39624572f, -0.48775643f, 1.79611826f, 0.42673028f,
  1.21477532f, 0.66075158f, 0.81795412f, -1.61054969f, -1.22317982f, 1.04509938f, -0.46258393f, 1.22716534f,
  0.94214684f, 0.09716694f, 1.69106245f, 1.21359372f, 1.02792025f, -0.41488439f, 0.26385665f, -1.20027256f,
  -1.48812819f, -1.16130924f, 0.66701615f, 0.37509185f, 1.17095184f, -0.69373882f, -1.71283662f, -1.92278123f,
  -0.45964134f, -1.16721332f, -1.90260363f, -1.34039831f, 0.41348559f, -2.20311379f, -0.32936230f, 0.50531459f,
  -0.64424294f, 0.24154069f, -0.70483780f, -0.94153607f, -0.09936748f, 1.00743246f, 0.16556591f, 0.89433026f,
  -0.46761554f, 1.75364375f, 0.79845673f, 0.83517802f, -0.26368523f, 0.13964295f, 0.25289175f, 0.32643709f,
  1.02006221f, -0.10887530f, -0.42910856f, -1.19944048f, -0.13543902f, 0.66364712f, 0.07415674f, -0.39448720f,
  0.91437650f, 1.14956188f, 0.20911308f, 0.58617163f, 0.53805095f, -0.07599591f, -0.50708562f, 0.19342801f,
  -1.08227849f, 0.59078258f, 1.45937634f, 1.48637712f, -0.49060273f, -0.27440181f, 0.26323184f, 1.07327318f,
  -0.43729055f, 0.01070889f, 0.29659823f, 0.36508769f, -1.80620325f, 2.25905871f, -0.30511111f, 0.79473507f,
  0.24315278f, 0.06235438f, -0.11017299f, 0.74732375f, -2.53845501f, -0.51628733f, 0.14091559f, 0.32267082f,
  -0.31588674f, -1.01379430f, -1.52010965f, 0.41746107f, 0.21125455f, 1.27249515f, -1.04212928f, -1.52206278f,
  0.65201551f, 0.97980106f, 1.08677912f, 0.42433825f, 0.93023354f, 1.13354146f, 0.25267702f, -1.56869459f,
  0.01100546f, -0.90928560f, -1.24316537f, -0.49929196f, 0.52554655f, 0.59172344f, 0.75244254f, -0.32527557f,
  -0.37625057f, 0.25817868f, 1.14187992f, 0.40943167f, 1.11366129f, -0.97803235f, 0.52374911f, 0.16350257f,
  0.32565635f, -1.33851671f, 2.11881781f, 0.49614227f, 0.59011251f, -0.61256748f, -2.01503706f, 1.86111152f,
  -0.78535151f, -1.91779172f, -1.74072552f, -0.18581268f, 0.05595168f, 0.92683649f, 1.37917471f, 2.00687909f,
  0.37570629f, 0.28157502f, 0.11934808f, -0.92501795f, -1.38855171f, -0.24189074f, 0.25918782f, 0.79074723f,
  0.07050965f, 0.25899339f, 0.43448478f, 0.54230672f, 0.36449012f, 1.64362192f, 0.93945390f, -1.07346821f,
  0.06842493f, 1.28811002f, 0.37970290f, -0.01522385f, 0.41384605f, -1.46872926f, -0.97785103f, 2.62597704f,
  -0.78814024f, 0.43239349f, 1.70931351f, -1.36220145f, 2.02833033f, 0.51609695f, 1.19700861f, 0.06928767f,
  0.25903159f, -0.55191624f, 0.67828286f, -1.45006824f, 0.49745864f, -1.71045387f, 1.15651453f, 1.19791341f,
  1.09558272f, 1.81764138f, 0.00449843f, 1.44955194f, -1.93664491f, -0.46426067f, -1.73972213f, -0.44768563f,
  0.19465390f, 2.19744730f, 0.20898882f, -0.29816911f, 1.21167624f, 0.72574717f, -0.42885879f, 0.00745556f,
  0.36411995f, 1.28306460f, -0.58976591f, 0.85269123f, -0.29312631f, 1.10225689f, 0.47703514f, 0.90348029f,
  -0.18900058f, -0.45261204f, -2.91635108f, 0.87656718f, 1.31657624f, 0.67935485f, 0.71415061f, -0.86657596f,
  0.01098433f, -2.18348145f, -0.88250238f, -0.41707277f, -0.73682302f, -0.47640568f, 0.01810940f, 0.44316322f,
  1.41027737f, 1.56872940f, 0.03113551f, -0.16507225f, -0.65292996f, -0.42823991f, -0.70579809f, -0.59887958f,
  -1.97393513f, -0.51268178f, 1.67855299f, 1.79462600f, -1.53376460f, -1.61158490f, -0.31680766f, 0.02751679f,
  1.16282737f, 0.27930334f, -0.23553711f, 0.66744304f, -0.31620696f, 0.74905503f, -0.42861763f, 0.53215927f,
  -0.03658323f, -1.18317902f, 1.25627434f, 0.49462000f, -0.63113564f, -2.45681953f, -0.66274554f, -1.21432269f,
  0.23843244f, 0.63378072f, 0.15070884f, 1.19069397f, -0.29932800f, -0.18681720f, -1.49548137f, 0.82770842f,
  1.27309859f, -0.00076617f, -0.29748139f, -0.36720785f, 0.88096726f, 0.06345806f, -0.09358310f, -0.44928408f,
  0.22405702f, -0.14799291f, -0.71745944f, -0.34001619f, 0.20738845f, 1.15135348f, 1.18308210f, -0.44931382f,
  0.35580623f, -0.27885109f, 0.76255530f, 0.38381606f, -0.17631914f, 0.55066568f, -0.14681615f, 0.08427552f,
  -0.28465176f, -0.01509935f, 0.10712647f, -0.14686830f, 0.32495430f, 0.75230896f, -0.75199175f, -0.78776973f,
  0.15138282f, 0.97951585f, -0.43767008f, -0.23188394f, -0.80010885f, -1.51522827f, -0.04434250f, 0.92392492f,
  -0.19209345f, -2.63920331f, -0.63115627f, 0.88249218f, -1.43748164f, -0.01602905f, 0.72244453f, -2.12010264f,
  -0.92764616f, -0.24075006f, 0.11540434f, 0.82039642f, -0.50074881f, 0.33763027f, -2.02091146f, 1.09855807f,
  1.49397242f, -0.18189019f, 0.67893738f, 0.08389702f, 0.58514547f, 0.34886959f, 0.31147766f, -2.05633783f,
  -1.28599918f, 0.49635479f, 0.43685603f, -0.34159067f, -1.23225880f, 0.68459696f, 0.48765951f, 0.59320444f,
  0.51412016f, 2.11326265f, -1.90102029f, -1.08191669f, 0.66202074f, 0.11636710f, -0.01975006f, 0.87522078f,
  0.03398785f, 0.01173236f, 1.80605161f, -0.89683574f, -1.10737920f, 1.49016809f, 0.62262189f, 1.08273613f,
  0.29307082f, -1.61932766f, 1.04515779f, -0.71315384f, -1.70540464f, 0.76967937f, -0.41372952f, -2.28310800f,
  0.86428028f, 1.16284227f, -2.03971505f, -1.05647564f, -0.95563954f, 0.19279684f, 0.52737701f, 0.77607983f,
  0.13455319f, -1.42705560f, 1.58064198f, 0.11201964f, 0.01698734f, -0.45631784f, 0.31005558f, -1.96998250f,
  -0.86705917f, -0.24228673f, 0.59915513f, 0.30030510f, 0.86899489f, -1.12447691f, 0.23293671f, 1.37281466f,
  0.85711068f, -1.21934247f, 0.76574647f, -0.53464007f, -0.38177907f, -1.93201244f, 0.58203596f, -0.45341760f,
  0.68518358f, -1.48551381f, -0.03755436f, -2.38154173f, 0.40008387f, 1.35936046f, -0.79701173f, -0.68408358f,
  1.03872550f, -0.22743370f, -1.64991093f, -0.65194988f, 1.42936087f, 0.61121047f, -1.67518055f, -0.94306165f,
  -0.14343973f, -1.26850176f, 1.29801059f, 0.48828846f, -1.90112424f, 0.09774449f, -0.39512596f, 1.01623237f,
  -0.41986611f, 2.47172046f, 0.86179125f, -0.34048823f, -0.82930511f, -1.01703227f, 2.06336379f, -0.31681111f,
  0.80116695f, 0.02324999f, 1.79806423f, -0.48289725f, 1.02519083f, 0.68750393f, 1.52264607f, 2.42804837f,
  0.10768750f, 0.18705676f, -0.26154509f, 1.43110490f, 0.65035361f, -1.10518301f, 0.28488889f, -1.58487236f,
  0.37504646f, 0.30472574f, 0.39242393f, -0.90972167f, 0.45339492f, -0.66178215f, 1.73391342f, -0.35898411f,
  1.71670341f, 0.56043905f, -0.49793211f, -0.30565742f, 1.42758524f, -0.14111827f, -0.70174617f, -1.38386011f,
  -0.11149990f, 0.82656091f, -0.16656917f, -0.29828700f, -0.07669691f, 3.37194681f, 0.04610828f, -0.24463527f,
  1.74173105f, 1.08403313f, 1.65820229f, 0.75782776f, -0.59424549f, 0.54959172f, 0.24489139f, -0.42602259f,
  0.30335385f, -0.12367875f, -1.17639577f, 1.61706364f, -0.41890517f, 0.09540574f, -0.20263270f, -0.72680664f,
  0.04477829f, 0.20301341f, -0.67306238f, 0.03223379f, 0.33138853f, 1.34723401f, -0.81109214f, 1.19765615f,
  -0.42427760f, -0.35044628f, -0.61911225f, 0.67068267f, -0.88073575f, -2.55608344f, -0.02502729f, 0.88077170f,
  -1.32115698f, 0.23238510f, -0.12611994f, -0.65956569f, -1.34559917f, 0.61659151f, 1.08894825f, -0.15247481f,
  1.86538041f, -0.78423005f, 0.59134686f, -0.78859746f, -0.94107258f, 2.47412848f, 0.94079697f, -1.00963485f,
  0.63337857f, -0.66938508f, 0.41746119f, 1.36537647f, 0.92346293f, 1.50402367f, -1.48364294f, -1.08383322f,
  1.03394604f, -0.22687745f, -0.61531830f, -1.54023433f, 0.11548179f, 0.97730464f, -0.60002893f, 0.23214468f,
  0.94238901f, -2.62800193f, -0.74998766f, 0.46465737f, -0.02507451f, 0.82218307f, 0.12577853f, -0.15567422f,
  0.65378541f, 0.40196171f, -0.31372917f, 0.81577623f, -1.34827960f, 1.34481823f, 0.75771058f, -1.38919902f,
  -1.11214387f, 0.89454937f, -0.67564720f, -0.25997609f, -0.13640660f, -0.69973880f, -0.17309524f, 0.19390568f,
  -0.61976421f, 0.20410053f, 0.86517215f, 1.10285807f, 0.70764363f, 2.55029345f, 0.43990409f, 2.90150404f,
  -0.02864143f, 1.60656023f, -1.87535465f, 0.70572037f, -0.35984826f, -0.60402119f, 0.19318850f, -0.60174531f,
  -1.12089288f, -0.11463451f, 1.68925667f, -1.61119080f, -0.52177525f, 0.22194038f, -0.19998488f, 0.71296459f,
  -0.53523231f, -0.96857744f, -0.63472384f, 0.42811731f, 0.88075262f, 0.42444146f, 0.75007945f, -0.34258834f,
  0.98503166f, 1.39256907f, -0.13682914f, -0.32782176f, 1.08678734f, 1.16623664f, 1.98105335f, 0.61904949f,
  -0.20117809f, -0.37399092f, -0.31304148f, 0.38908324f, -1.42582273f, 1.23763525f, 0.03264588f, 1.28832018f,
  1.22273469f, -0.56216723f, -0.29339820f, -0.73270345f, 1.84544516f, 0.38524219f, -1.08725643f, 0.27218550f,
  0.07924935f, 1.00301874f, 0.81875265f, -0.58747137f, -0.50390518f, -1.02524447f, 0.28656662f, -0.74442780f,
  -0.03954414f, -1.30663431f, -0.96388721f, 0.28709430f, 0.82827955f, 1.41458201f, 0.53142345f, -0.21312894f,
  0.49499509f, -1.05956864f, 0.52860087f, -0.56485093f, 0.58278686f, 0.26278913f, -0.96599174f, 0.84651649f,
  0.51463091f, -0.03832274f, -0.81552786f, -0.26573923f, 0.96894020f, 0.91836214f, -0.19318666f, 0.90536916f,
  -0.04615527f, -1.40516484f, 0.54014540f, -0.94184452f, -1.09505355f, -1.42006695f, -0.14603074f, -0.71936327f,
  -0.34860468f, -1.35740936f, 0.11565581f, 0.37597999f, 0.71675366f, 0.42665920f, 0.13900676f, -1.87261498f,
  -0.56818831f, 0.19107947f, -0.45431283f, 1.89997566f, 0.77498919f, -1.04150224f, -0.81322628f, 0.25065777f,
  -0.48964524f, 0.84492296f, -0.97452575f, -2.47581339f, 1.80227065f, 1.86615992f, -0.69122326f, 1.14980078f,
  -0.71203971f, -1.15860033f, -0.40885034f, -1.64548039f, 0.40664092f, -0.09774331f, 0.57219136f, -0.81885940f,
  1.19670343f, 0.49027708f, 0.42047936f, -0.59805077f, -0.09250179f, -0.20170774f, 0.76846176f, -0.31469274f,
  -0.13233316f, 1.72148514f, -0.11039453f, -0.43153688f, -0.80088305f, -1.39467204f, 0.77903646f, -0.68486154f,
  -1.26850319f, 0.28350660f, 0.58321649f, -0.25399655f, 0.76573658f, -0.96381271f, -0.61442089f, -0.74542695f,
  -0.31900254f, 0.20871361f, -0.31938893f, -1.03335381f, 0.08573501f, 0.25197068f, -0.72711593f, 0.99826783f,
  -0.46248868f, -0.65910846f, 0.32287019f, -0.31131810f, 0.73668188f, -0.94803345f, 1.01274168f, -1.02281404f,
  -0.64091945f, -1.04219973f, 0.44503087f, -1.14146757f, -0.74632925f, -2.96470928f, 0.62405878f, -0.91395336f,
  -0.33864796f, -0.82045430f, -1.05592191f, -0.87793118f, 0.01484305f, 0.91545123f, 0.52616662f, 1.86325455f,
  -0.32991165f, -0.74079829f, 0.85656136f, 0.19542171f, 0.55812627f, 1.23292673f, -0.46005118f, 0.08710788f,
  0.84393239f, -0.14824452f, -0.20589344f, -1.80027270f, -0.96304643f, -0.82470351f, -0.31106225f, 0.50327259f,
  0.59241933f, -0.56244308f, 0.70507795f, 0.64005709f, 0.86664337f, -0.79760253f, -0.47723424f, -0.27625814f,
  -0.12103254f, -1.13709652f, -0.26706290f, -0.57750952f, -1.11488223f, 2.19606161f, 0.76419920f, -1.75049329f,
  -0.65962094f, -0.83597189f, 1.63395035f, -0.03835726f, 0.02702757f, 1.08578205f, -0.67928249f, -0.69290423f,
  0.74989837f, -0.26781353f, 0.41920984f, 0.38289958f, -0.18850161f, -0.07501180f, -0.31952846f, 1.05550110f,
  1.17260873f, -1.73037648f, 1.01080692f, -0.52228695f, 0.31644943f, 1.23921883f, -0.80854541f, -0.87040704f,
  1.09281445f, -0.87243092f, 1.02785289f, 1.51356804f, 0.93450487f, 0.27548060f, -0.04016158f, -0.16830482f,
  -1.14455163f, 0.85130680f, 0.77400821f, 1.31006193f, -0.59517032f, -0.09540211f, 0.47754619f, -1.27334630f,
  -0.81352127f, -0.51429528f, -1.72315788f, 1.03456640f, -0.90374631f, 0.44065651f, 1.27465713f, 0.00283769f,
  -0.86811262f, 0.07746357f, -0.25840321f, -1.48304522f, -0.30571604f, -1.35651422f, 0.58978939f, -1.55371153f,
  0.18937834f, -1.15554392f, -0.01091406f, -1.03511059f, -0.40430343f, -0.21311845f, 0.47615397f, 0.96148956f,
  -0.93684417f, 0.39306036f, 0.85078210f, -0.52555364f, 1.44518661f, 0.30785307f, 1.68351126f, 0.29514304f,
  0.10445301f, -1.69786847f, 2.16105533f, -1.09776235f, 0.20088930f, 0.48368400f, 0.01365169f, -0.28119403f,
  -0.47203213f, -1.05210388f, -0.12125959f, 1.73393440f, -0.74516356f, 0.77880090f, -0.08745907f, -2.20324063f,
  -0.93951440f, -2.92848802f, -0.65096354f, 1.02918768f, -0.90804446f, -0.07059306f, -1.01685333f, -1.26777089f,
  1.61579192f, 0.64273381f, -3.32674193f, -1.35355389f, 0.06570105f, -0.20024128f, -0.01069413f, -0.79668945f,
  0.30225453f, -1.02912712f, -1.30060804f, -0.17573041f, 1.80813563f, 1.06748962f, -0.44686732f, -0.93784755f,
  1.62092662f, 0.17801163f, 0.12524976f, 2.25541592f, -0.74849373f, -0.15537241f, 1.04807580f, -0.69442344f,
  0.75638908f, 0.46027860f, -0.46550095f, 0.01197359f, -0.57983357f, 0.76394439f, 0.06020447f, 0.85585505f,
  -0.50800431f, 1.33040953f, 0.22845438f, 0.03857102f, 0.65062553f, -0.49335480f, -0.67271292f, 0.92687392f,
  -1.12865925f, 0.62035280f, 0.91019613f, 0.32994276f, 1.37824857f, 0.84526485f, -0.27750349f, -0.44269601f,
  0.24678959f, -1.85548794f, -0.36468169f, -0.15069517f, -0.10024851f, -0.97459525f, 0.27685928f, -0.32718861f,
  -0.18564543f, -1.22828591f, -1.84243000f, 0.11580192f, -1.08551550f, 0.88038909f, -1.55818963f, -0.02111254f,
  -1.33749175f, 1.21566474f, -0.43120420f, -0.88694763f, -0.54698437f, 0.80930227f, 0.70836300f, -1.44774747f,
  -0.50152051f, -0.61929947f, -1.05957592f, -0.69060659f, -0.58119136f, 0.71493703f, -0.97066349f, 1.31181264f,
  0.72163433f, -0.32664606f, -1.74471450f, 1.67599738f, -0.82593375f, 0.58900094f, 0.22489493f, -0.88738716f,
  -0.17670095f, -0.03434014f, -1.40638137f, -0.82045031f, -1.54951406f, 0.95862722f, 0.29710463f, 0.22507097f,
  -0.37070704f, 0.01428916f, -0.64513552f, 1.48594415f, -0.05232507f, 0.62157786f, -0.38343498f, 0.02059053f,
  -1.03228545f, -0.90375715f, 0.87169278f, 2.12653041f, -0.23875555f, -1.30939269f, -0.62061816f, -0.24676262f,
  -1.09971297f, 1.28390610f, -1.47956204f, 1.62925100f, -1.75944161f, -0.25623858f, -0.41725287f, -0.93831223f,
  0.29196286f, 0.22055738f, 1.61721277f, -1.62698591f, 0.31423432f, -0.49296370f, -0.99340355f, 0.67910904f,
  -1.12484431f, 1.37696540f, -0.52998304f, 1.04285300f, 1.70229173f, 1.57888997f, 0.52722210f, 0.38448882f,
  1.63195026f, 0.76167464f, 0.63745081f, 0.01919024f, 0.64736015f, 0.05052672f, -1.26182234f, 0.86008275f,
  -0.93531084f, -0.90875870f, 2.29204702f, -1.49545145f, -1.51140189f, 0.67378139f, 0.93012947f, -0.18274856f,
  -0.93576032f, -0.78297496f, -0.19562602f, 0.35225964f, 0.47679204f, -0.19777279f, 2.87311602f, 0.33048010f,
  1.03610623f, 0.67179126f, -0.05912193f, -0.19343792f, 0.15956764f, 1.93931913f, -0.88793039f, 0.85264575f,
  -1.77757740f, 1.10270655f, 1.27791369f, 0.41760907f, 1.55390096f, 0.05962698f, -0.29126859f, 0.71447021f,
  1.50049722f, -0.16607690f, -0.16515991f, 0.31600168f, -0.25093523f, 0.12421543f, 0.02584602f, -1.01975870f,
  -0.95036912f, -0.49473754f, -0.12763029f, -1.01462233f, 1.19439113f, -0.62423009f, -1.27082717f, 0.12633449f,
  -0.78338122f, -1.04537475f, 0.57037759f, 1.56259358f, -0.03460215f, -0.13331017f, -2.29306364f, -0.28801113f,
  -0.99026424f, 0.60584009f, 0.10321143f, -0.68093324f, 0.30158028f, 0.98223335f, -1.11823833f, 1.05036438f,
  0.85213506f, -1.02064431f, 0.06899940f, -0.50118971f, -0.66022021f, -1.55221713f, 1.62044978f, 0.34147596f,
  0.10946964f, -0.77620941f, 0.27769935f, -0.19414127f, 0.84188831f, 0.33220154f, 0.86575133f, -0.10357830f,
  -0.29928946f, -1.28852510f, -0.61135072f, 0.86730778f, -0.75456125f, 0.28831360f, 0.14087734f, 1.38999200f,
  0.45702767f, -0.23123381f, -1.17654920f, 0.61752099f, 0.25026026f, -0.34094146f, 1.49997711f, 0.30211434f,
  0.12865272f, 0.08210907f, -0.04335420f, 1.15816593f, 0.16129583f, 1.31936848f, 0.63329524f, 0.72004336f,
  0.84478217f, -0.20014498f, 0.37200251f, 0.53766406f, 0.75808668f, 1.39272058f, 1.13427436f, -0.76955754f,
  -0.38889128f, 1.34300208f, 0.48980665f, -0.19779478f, 0.76718581f, 0.28227314f, 1.03498089f, -1.00297904f,
  -0.00886017f, -0.72082794f, -1.26891041f, -0.77539521f, 0.01496868f, 2.12368083f, -1.78395021f, -0.80278873f,
  -0.10377314f, -0.09454919f, -0.12313004f, -1.38114953f, -0.21170427f, 1.48514748f, 1.15353739f, -0.27554089f,
  0.58738774f, 2.28713894f, -0.24988011f, -0.08650491f, -0.59621513f, 0.45073900f, -1.03241432f, -0.33598340f,
  -0.38424149f, 0.36997238f, 0.29631165f, 0.66054589f, 1.20980167f, 0.48637062f, 0.27942303f, 0.03500605f,
  -0.96175796f, -2.39097738f, 0.04959982f, -0.64721709f, 0.98159051f, -0.39059955f, -0.25720784f, -0.46593645f,
  0.35559851f, 0.04386006f, 0.32499447f, -0.20240510f, 2.06198025f, -0.04289144f, 1.11895251f, 0.35735691f,
  -1.26438951f, -3.17095470f, -0.26708889f, 1.08961093f, 0.41083580f, 0.41466486f, -1.08395123f, 0.48885992f,
  0.13642167f, 1.62502992f, -0.65496612f, 0.27747878f, 1.09840286f, 0.42754132f, 0.26233679f, -0.27177739f,
  0.27192837f, -0.77392793f, 0.80951381f, 0.90883076f, 0.88884050f, 1.33022296f, 0.24795628f, -0.44183749f,
  -0.55612469f, 0.55648661f, 0.46916085f, -0.35947415f, -0.88949627f, -1.21548784f, -1.58504057f, 2.06836748f,
  -0.66829360f, -0.67947274f, 0.43512526f, -0.73815167f, -0.92961073f, 0.30236843f, 1.81549168f, 0.75306243f,
  -1.26478112f, 0.54496932f, -0.53749794f, -0.73839235f, -1.71730518f, 0.84405243f, -0.08847429f, 0.38431919f,
  -1.34129465f, -0.62589085f, -1.57804811f, -0.69095999f, 1.37592471f, 1.03958642f, 0.77226824f, -0.08464842f,
  -0.14484835f, -1.32585061f, -1.55182505f, 1.24923992f, 0.74426609f, -1.29949856f, -1.12101710f, -0.29131344f,
  0.67145681f, -0.23135169f, -0.12588865f, 0.16572499f, 0.23695511f, -0.69051790f, 0.94246656f, 1.06307006f,
  0.70820123f, 0.23061220f, 0.40585509f, -0.47855139f, -0.09824084f, 2.47725368f, -0.35732347f, 2.05984282f,
  0.78998649f, 1.09867656f, 1.22620857f, -0.16362026f, 0.19318160f, 1.25130522f, 0.76450378f, -0.26028043f,
  -1.62519312f, -1.95613885f, -0.86556506f, -1.43560410f, -1.17142415f, -0.43889764f, 1.18752623f, -0.50921130f,
  0.30280712f, -1.33358538f, 0.51795506f, -0.00271758f, 0.73057604f, 0.52649325f, -1.48275316f, -0.40188858f,
  0.32090187f, 0.01643118f, 0.04084843f, 0.16258253f, -1.16545618f, -0.28257132f, -1.18336761f, -0.20166060f,
  -0.60458446f, -1.73693550f, -0.26980066f, -0.12171724f, 1.09641182f, -0.56789780f, -0.51909077f, -0.15378042f,
  0.59384251f, -0.51670253f, -1.27960420f, 0.96559179f, -0.21688835f, -0.25521633f, -0.77289361f, 0.39386699f,
  0.06019744f, -0.28793049f, -0.77393198f, 0.98582119f, -0.05497560f, -1.98637187f, 0.19536321f, 0.14876850f,
  -1.02022672f, -0.35676613f, 0.51796001f, -2.03081799f, 0.16580060f, -1.33643889f, -1.04156089f, -1.18262517f,
  -0.49225062f, 0.02568501f, -1.06593359f, -0.40690023f, 0.62735796f, 0.90570593f, 0.72228742f, 0.17075823f,
  -0.71718854f, 0.48885241f, 1.01599836f, -1.63432777f, 0.81143844f, -0.07106798f, -0.43675137f, -0.33476070f,
  0.53679627f, 0.37321341f, -0.37495345f, -2.40074158f, 1.43722880f, -0.52774584f, 0.50296658f, 0.02286004f,
  0.98458278f, 1.33635581f, 1.00539148f, -0.45577541f, 0.13781489f, -0.65039313f, 1.40985763f, -1.36633444f,
  -0.39514929f, 0.65565974f, 0.51250368f, 0.26453725f, 1.46613824f, -1.47782016f, -0.35782906f, -0.13672379f,
  0.24257700f, 0.10253344f, 0.31096008f, -1.66278005f, 0.82309854f, 0.80784589f, -0.81408060f, -0.82984895f,
  0.95589542f, -0.91849321f, 1.42537749f, 0.90006590f, 0.49668556f, -0.35283402f, -1.23771775f, 0.18726519f,
  -1.25335240f, 0.95209491f, -0.32692012f, -1.23350084f, -0.78586411f, 1.74519718f, 0.21381541f, -0.48161346f,
  -0.20138459f, 0.05332812f, 0.29784781f, 0.20498054f, -0.77752811f, 0.11570784f, 0.23957038f, 0.94980967f,
  -1.28734314f, -1.36397159f, -0.56412178f, 0.14245568f, 0.80050129f, -2.09251952f, -1.34259784f, -0.02695036f,
  0.06415753f, 1.34018779f, -0.83176082f, 0.40549251f, 0.09929644f, 0.04219097f, 0.54033524f, 0.41692382f,
  0.70820624f, 0.89451885f, 2.24914622f, -0.62070304f, -0.00044942f, -0.25742358f, 0.12064017f, 0.57983530f,
  -0.45235687f, -1.38495719f, -0.55808681f, -0.46001235f, -0.69266015f, -0.77609533f, 0.96091837f, -0.63889515f,
  0.07481518f, 0.65825111f, 0.15054868f, 1.15948272f, -0.77485085f, -0.58332324f, 1.37081778f, -0.25568157f,
  -1.54608500f, 1.16096985f, 1.32306147f, -1.24290979f, 0.72913301f, 2.37070084f, 2.15418315f, 0.22390331f,
  -0.72283697f, 1.88500428f, -0.57044822f, -0.34430867f, 0.06261587f, 0.26225418f, -2.16041160f, 0.09865765f,
  -0.76349127f, 0.48998433f, 0.80861759f, -0.11109970f, -0.44263288f, -1.65552759f, 0.24171290f, -1.70415592f,
  -1.73619533f, 0.43456742f, -1.22176886f, 0.04753198f, 0.31602639f, 1.63151944f, 0.82240391f, -0.49853709f,
  -0.56664580f, -1.48834562f, 0.22706845f, -0.21509272f, 0.30350700f, -0.32690728f, -0.34202579f, -0.17428650f,
  -0.57690781f, -0.62981534f, -0.68796498f, 0.84518081f, -0.72558409f, 0.56740808f, 0.47668660f, -0.52473867f,
  -1.43001068f, -2.22580695f, -0.82444113f, -0.74556410f, -0.75051343f, -2.36092806f, -0.54188573f, -0.40706131f,
  1.65852547f, 0.80429709f, -0.62180722f, -1.38997030f, -1.55277610f, -1.16545773f, -2.21494055f, -0.06058272f,
  -0.91395634f, 0.25182295f, -0.75341827f, -0.54760432f, 0.82964796f, -0.29403979f, 0.30748954f, -0.54220891f,
  0.23359412f, -0.55926162f, 0.13541274f, 1.26503599f, -0.29611564f, -0.62483364f, -0.08328035f, 0.72698241f,
  -1.50798428f, 1.47298646f, 1.30609119f, 0.45206463f, 0.20477176f, -1.19281566f, -0.23036093f, 0.38828099f,
  0.21306211f, -0.89206624f, -0.15816207f, -1.26881981f, 0.52870494f, 0.15270072f, 1.35220623f, 0.97382569f,
  -0.64900762f, -1.11177623f, -0.36758143f, 1.37846303f, 1.06053352f, -1.48585606f, 1.05223119f, -0.12922449f,
  -0.01746091f, -0.56320947f, -1.49765933f, 1.14718914f, 2.61987257f, -0.24988629f, 0.32035223f, -0.16208385f,
  -0.46837965f, -1.33805251f, 0.40467557f, 0.14856389f, 1.22319531f, -2.05327511f, -0.11240753f, 0.27723092f,
  0.02873220f, -0.21037842f, 0.84445858f, 1.16513968f, 0.55085784f, -0.15213212f, 1.40611482f, 0.61331189f,
  -0.23591240f, -0.58531314f, -0.73018152f, 1.21510291f, -0.75363004f, 1.69283795f, -1.53369510f, -0.92026007f,
  0.33286616f, 1.23434579f, 1.56640267f, 0.68501931f, 0.98694450f, 0.42541802f, 1.00501692f, -0.22707576f,
  -1.06604993f, 1.31443930f, 1.01232100f, -0.23096786f, 0.98759907f, 0.85507327f, -0.04987385f, -0.88993537f,
  -0.50364077f, -1.75334787f, -0.57879144f, 1.49759889f, -0.75412935f, 1.03353500f, -1.08812571f, 1.04259193f,
  0.65457225f, -1.15406132f, -0.40740958f, 0.65899909f, 1.04423177f, 0.21811230f, -0.15096916f, -0.24351737f,
  1.99388349f, -0.72124821f, -0.80823797f, 0.74555594f, 1.37609863f, 2.50584197f, 0.61490738f, -0.26418218f,
  -2.21382880f, -0.94629079f, 0.43098831f, -1.75881302f, 1.55412340f, 0.22495697f, -0.33317253f, -0.07772778f,
  0.24775864f, 1.19162226f, 0.87514448f, -1.26059771f, -1.61304760f, 1.50816572f, -0.43630970f, -0.34300217f,
  -0.56845397f, 0.03553060f, 0.83198053f, 0.14524139f, -0.72746211f, -0.16887976f, -1.66835999f, 0.22171517f,
  -0.80413443f, -0.16747653f, 0.41768897f, -0.36515737f, -0.83159471f, 0.51058543f, -1.41379166f, 0.55833113f,
  0.12048500f, 0.50583082f, 0.38267854f, -0.83587354f, -0.82048899f, -0.20698047f, -0.19656166f, -2.05973029f,
  1.73060131f, 1.34900248f, -0.32546335f, -1.62243211f, 0.75982428f, 0.82661164f, 0.27664524f, -1.93399608f,
  0.12248452f, 1.24834037f, -0.05496513f, 1.37415540f, -0.48787612f, 1.07230604f, 0.68664324f, 1.07225788f,
  -1.46226299f, -1.06965363f, -0.32304627f, -0.08113102f, 1.16165125f, -0.90548885f, 0.12366675f, 0.42499182f,
  -1.31717336f, -1.48827600f, 1.54006684f, -0.63962728f, -0.32894629f, -1.68543077f, 0.37423125f, -1.05780804f,
  1.14612019f, -2.06241155f, 2.55311084f, -0.36487883f, 1.09943581f, -0.35356715f, 1.06868684f, 0.24792261f,
  -0.19198038f, -0.61450440f, -1.92586184f, 1.12998152f, -1.79843593f, 0.45460793f, 1.24166024f, -2.41462874f,
  -0.70140171f, -1.48000789f, 0.82305855f, -1.13476157f, -2.03465962f, 0.58845323f, -0.54814678f, -1.55159044f,
  0.29447791f, 0.05243726f, 0.01901893f, -1.61016691f, 0.10194071f, 0.08927324f, -0.22639334f, -0.28591916f,
  0.60255563f, 1.16695511f, -0.08111688f, 0.08945027f, 2.47318983f, -0.31925905f, 0.85093129f, 1.13631141f,
  -2.58970928f, 1.49611354f, 0.97463059f, -0.78287625f, -1.51242566f, 0.38809830f, 0.45532286f, -0.18111730f,
  1.27850354f, -1.55519485f, 0.93385619f, 0.67040455f, -0.68635178f, 0.61028463f, 0.67416829f, 1.13508844f,
  -0.27873984f, 0.27241844f, -0.47327986f, -0.23384817f, 0.99104935f, -0.87610191f, 0.17630969f, -0.64051712f,
  -0.56481016f, 0.50724882f, 0.14815347f, 0.44950220f, 0.25534356f, 1.08258390f, -0.38548914f, -0.84112442f,
  -1.26168644f, 1.06682265f, 0.06366902f, 2.66715574f, -1.88578820f, -0.44221473f, -0.55642712f, -0.34167832f,
  0.84125251f, -1.39674461f, -0.38556513f, 0.27000895f, 1.30860901f, -0.32186058f, 0.65805036f, -1.27978098f,
  0.42505100f, -0.22434668f, -0.36005515f, 0.83662271f, -0.70454800f, -0.95239270f, -0.16482462f, 1.66169596f,
  -1.01555955f, -0.10572730f, 0.37843281f, -0.62980831f, 1.05541360f, -0.04054122f, -0.79372132f, 0.53254509f,
  0.78329819f, -1.16286850f, 0.77454054f, 0.71253055f, -0.08201767f, -0.59756857f, -1.11528003f, 0.73201036f,
  0.91981483f, -0.14446230f, 2.14743686f, 1.84870017f, -1.47193098f, -0.35709041f, 0.37283280f, -2.39259005f,
  -1.09364474f, 1.00747478f, 0.25603643f, 0.91990787f, -1.47345030f, -0.59538418f, -0.51959962f, -0.31153014f,
  -1.64409769f, 0.59570777f, 1.28352857f, -2.17629242f, 0.09431767f, -0.35278174f, -0.12905353f, -0.19136354f,
  -0.55324143f, 0.02600627f, -0.51087952f, -0.63944983f, -0.41980904f, -0.05192998f, -1.09459078f, 0.68354785f,
  -0.49875048f, 0.67697871f, -1.53297198f, 1.44946408f, 0.62730402f, 0.10933977f, 1.65111601f, 0.14384878f,
  -0.23237017f, 0.23968200f, 0.68798411f, 0.32673529f, -2.28781295f, 0.04544520f, -1.42760515f, 0.90099698f,
  -0.67238152f, 0.31179103f, 0.58967048f, -0.06440134f, -0.05574494f, 1.45879233f, -2.30962467f, -1.16700137f,
  0.84355861f, 0.15554920f, 0.16091602f, 0.58023798f, 0.24699348f, 0.51061314f, -1.22685909f, 2.49698687f,
  -0.75680798f, -0.66193759f, 1.43401861f, 1.79109216f, 0.36088786f, -2.49598813f, 0.09960077f, -1.49499774f,
  -0.83283949f, 0.71433449f, -0.44035760f, -1.37251616f, -0.97757161f, 0.22544296f, 0.33320838f, 0.23095614f,
  -1.28869438f, -1.15452528f, -1.61144233f, 0.58097893f, 1.66853869f, 1.71047020f, -0.03802910f, 0.02012890f,
  0.51107395f, -1.43291128f, 1.79355335f, 0.70252490f, -0.36358693f, 1.08708298f, 0.70374918f, 0.18930878f,
  -1.77066517f, 0.89490086f, 0.06092093f, 0.17095436f, 0.62014830f, -0.77557009f, 0.45701838f, 0.95326638f,
  -0.79574955f, 1.26025939f, -1.86570120f, -0.78007001f, -0.63905984f, 0.50406730f, 1.07926536f, 1.10359514f,
  0.89851809f, -0.45297131f, 0.30071208f, -0.63381964f, -0.35190040f, -0.13304226f, 2.15773487f, -0.18029383f,
  -0.57884544f, 1.10819042f, -0.97965288f, 0.55759060f, 0.51313853f, -0.60760945f, 1.15577888f, 1.04788291f,
  0.33727020f, -1.49169493f, -2.03294444f, -0.40312135f, 2.46945858f, 0.51692641f, -0.36833584f, 0.62016648f,
  1.50431383f, -0.68307954f, -1.11120284f, -0.11541139f, 0.74740607f, 0.26555732f, -1.85017121f, -0.94377542f,
  -0.31641355f, 1.25000811f, 1.60308170f, -1.25631452f, 0.31523159f, -0.62608987f, -1.51408899f, 1.32666981f,
  0.14573050f, 1.40677023f, 0.75297081f, 0.35043508f, -0.59728837f, -0.70923656f, -0.09325886f, -0.24499311f,
  0.89882058f, -0.13599245f, -0.35105330f, 0.72628099f, 0.26651177f, 0.47044465f, -0.48913458f, -1.01308608f,
  0.32578051f, 0.09543404f, -1.01802969f, -0.38365188f, 0.00949578f, 0.21597934f, -0.39346024f, 0.42039299f,
  1.28944373f, 1.12427831f, -1.59084225f, -0.73663992f, 0.44187883f, -1.63689208f, 0.57330006f, 0.01996691f,
  0.70690137f, -1.35593820f, 0.08127131f, 0.01661949f, -0.48517114f, -0.01321468f, -0.21509901f, -1.48754191f,
  0.58322877f, 0.02898254f, 0.01400909f, -0.48457918f, 0.64184189f, -1.37799323f, 1.32030869f, -2.26975155f,
  -1.89356124f, 1.38722408f, 0.37861082f, 0.30088091f, -1.09617376f, -0.95413965f, -0.15615009f, 0.25031745f,
  -2.16548133f, 0.13063015f, -0.19684623f, 0.14175311f, 1.74414730f, -2.55507708f, -1.54941094f, 1.31633735f,
  1.38526750f, 0.84670705f, 1.30176091f, 0.31981292f, 2.90658116f, 0.60121715f, 0.82460457f, -2.48082781f,
  -0.34892544f, -0.53567427f, -0.44861880f, 1.02224886f, -0.33825684f, 1.98997998f, 0.10041226f, 0.89716005f,
  1.16010118f, -0.18090008f, -1.21120775f, -2.03234029f, 1.04010320f, -0.38734022f, -0.34980631f, -1.11429322f,
  0.15715002f, -0.48846361f, -0.50192195f, 0.14464289f, 1.66495419f, 0.48520648f, 0.87868178f, -1.17651296f,
  -1.90623152f, -1.00368381f, 0.07268786f, 0.05399172f, 1.42906642f, 0.81750381f, 2.07341170f, -0.08216876f,
  -1.31681514f, 1.80651271f, -1.07324195f, -0.41243809f, 0.33985600f, -0.21243995f, -0.59395307f, 0.41463533f,
  0.90543574f, 1.15628004f, -0.04628069f, -1.53334332f, -1.41665542f, -0.52340788f, 0.56922966f, 0.84521472f,
  0.17879105f, 2.05965328f, -0.32214621f, 0.05724810f, 2.02022004f, 0.13234523f, 0.87181330f, -1.81951857f,
  0.90790749f, 1.75738776f, 1.01832533f, 1.05421686f, 0.37725499f, 0.96309656f, 1.48742902f, 0.11570222f,
  -0.20038503f, -1.32998836f, 1.63794339f, 0.64630067f, 2.51696968f, -1.98668993f, -0.97584867f, -1.19474077f,
  0.17888938f, -0.83764154f, 1.94857216f, -1.49304235f, 0.11275789f, -1.20329976f, 0.68966788f, -0.12687527f,
  0.36613551f, -0.76620859f, -1.33899415f, 0.54658979f, 0.35013267f, -0.00079909f, -0.68055278f, -0.16912916f,
  -0.15368555f, -1.20360196f, -0.62495488f, 0.17247313f, 0.45292699f, -1.32998168f, 0.46393380f, -0.20327801f,
  0.45666951f, 1.67631292f, 0.36501884f, 1.10819149f, 0.59044111f, 1.44403136f, -0.08131727f, -0.52762705f,
  -0.03590884f, 0.71045876f, -0.46937621f, 1.58755279f, -0.77874422f, 0.49129897f, -1.53488934f, 0.18328397f,
  -0.33258876f, 0.94173574f, 1.43235540f, 0.93499827f, 0.11058204f, -0.97834492f, -1.55352163f, 0.09609760f,
  -0.96969080f, 0.85197973f, -1.18316889f, 0.08839164f, 0.78000802f, 0.90961033f, 2.35551143f, -0.34684232f,
  0.14462444f, 0.08869696f, 0.76332611f, 0.10706834f, 0.32256946f, 0.23672210f, 1.63791668f, -0.17459145f,
  -0.50931972f, 0.88344610f, -2.09741998f, 1.33442831f, 0.40036175f, 0.83900529f, -1.69421279f, 0.84973449f,
  -0.33471724f, -0.37588683f, 0.35191089f, 0.12026823f, -0.69089288f, -0.49500456f, -0.46943745f, 1.09876645f,
  -0.01345061f, -0.99747354f, -0.42026344f, 0.63952529f, 0.27048156f, 1.07640505f, -0.39845476f, 0.03082616f,
  -0.43614626f, -0.46658641f, -0.81265259f, 0.44043356f, -0.19409248f, 1.21988964f, 0.62986636f, 0.20752770f,
  0.49094057f, 0.96553999f, 0.94715118f, 2.13395524f, -1.87532055f, -0.38754636f, 0.55761313f, -0.15292579f,
  -1.50923502f, -1.08342266f, 0.66319329f, 2.52116036f, -0.12619188f, 1.95351148f, -0.60164607f, -0.95589793f,
  0.49481812f, -0.26090738f, 0.33886448f, 0.56017244f, -0.91669345f, -0.08601759f, 1.07939708f, 2.24817801f,
  1.25047779f, 1.14392376f, 1.42079532f, 0.06779251f, -1.22161055f, -0.85505015f, 0.26276153f, -2.41385508f,
  0.58976585f, -0.72927773f, 1.21524215f, -1.17724788f, 1.47196066f, 1.14881289f, -1.16023767f, -1.50212955f,
  1.09277308f, -0.06835967f, 0.02615368f, -0.44759396f, -1.09565604f, -1.61989784f, 0.41588736f, -0.35792515f,
  0.53131002f, -0.28850463f, -0.70420092f, 0.73239076f, -0.16489293f, -0.32732484f, 1.17166293f, 1.03483069f,
  2.20741034f, 1.50731349f, 0.63962293f, -0.37668586f, -0.25996763f, -1.47562313f, -1.59812391f, 0.70453972f,
  -0.42328966f, 1.36992824f, -0.78989404f, 0.14430058f, 1.59220946f, 0.82371736f, -0.70894605f, -0.13447338f,
  -0.33704305f, 0.42475963f, -0.32217699f, 1.58378565f, 1.07071555f, -1.09770703f, -0.36734390f, 0.73457044f,
  0.00957384f, 1.39775574f, 1.27797580f, 0.12697916f, -0.80747283f, 0.59103763f, 0.16785686f, -0.69241077f,
  -0.05788960f, 0.32493234f, 1.91626525f, 0.16120812f, -1.03201890f, 0.93746591f, 0.50452381f, -0.48865762f,
  0.15730824f, 1.04490757f, -0.82610041f, 1.23516905f, 2.26839447f, -0.30914488f, -1.59137106f, 0.78271705f,
  -0.23654839f, -1.57906246f, -0.21816380f, -0.91273075f, -0.46441501f, 0.32751948f, -0.19043425f, -0.47276190f,
  -0.28967530f, 1.21160567f, -0.54451579f, 0.70746553f, 0.46991616f, -0.39347661f, 0.56320554f, 0.69568205f,
  1.15478027f, -1.89911842f, 0.82107937f, -1.07940149f, 0.05051903f, 1.46457016f, 1.28111947f, -1.02036858f,
  -1.72894335f, 1.12574077f, 1.51439309f, -0.27600765f, -0.25195652f, 0.17131639f, -2.11661768f, -1.15179574f,
  -0.70041466f, -0.07819074f, 1.00478947f, 0.15347698f, 0.25483418f, 1.00251770f, 0.99613065f, 0.72431105f,
  -0.84010983f, 0.15415804f, -0.06812911f, -0.15939108f, 0.10386766f, -2.16995215f, -1.06620002f, 0.14473431f,
  -1.05984247f, -0.65279806f, -0.10559826f, 0.05446836f, -0.32095063f, 1.73746228f, -1.20040667f, 1.38804209f,
  -0.86060745f, 1.73547351f, 0.71193123f, -0.19453584f, 1.29838657f, -1.34187317f, -1.21726084f, -0.81848907f,
  0.35194907f, 1.21913099f, -0.00639610f, 1.66790998f, -0.35621861f, -0.34483045f, 0.83727777f, 0.97195983f,
  0.47001815f, -0.49222010f, -0.85164720f, -1.06761944f, -0.68269837f, -1.76807451f, -0.85817796f, -1.22899258f,
  -0.50388867f, 0.83667266f, 0.97606599f, 0.44211671f, 1.48336411f, 0.10604797f, 1.24199617f, -1.45994961f,
  0.08676536f, 0.43685430f, 0.19647157f, 1.87044179f, -0.55029941f, 0.43852746f, -1.25339246f, -1.10881150f,
  -0.04690909f, -0.06186305f, 0.02314048f, -0.03042404f, 3.70924211f, 0.18297154f, 1.24628425f, -0.73732686f,
  -0.01500442f, 1.09078860f, 0.70865113f, 0.08639725f, -1.13963878f, 0.81780869f, 1.63118672f, 0.79199541f,
  -0.09150766f, -0.61205566f, 0.66076082f, -0.58711594f, -0.65215456f, -1.10769355f, 1.15740681f, 1.42985189f,
  -1.28600430f, 0.85149121f, -0.60264963f, 0.25061870f, -0.31615236f, -0.53222084f, -0.15829358f, 0.03774749f,
  0.99138063f, 0.04131101f, 0.74510032f, -1.53250611f, -0.24598065f, 0.15965949f, 0.65498561f, -1.16063333f,
  -0.89007407f, 1.03930688f, 0.41271138f, -1.66595292f, -0.72100353f, 1.60668087f, -0.91746736f, 0.16337571f,
  1.45314562f, 0.23488063f, 0.56532037f, -0.07246621f, -0.41322720f, 0.90209329f, 0.21463263f, -1.32747173f,
  1.05482745f, 0.05810329f, -0.33121926f, 1.30488253f, 1.62165439f, -0.30915859f, -0.24329412f, 0.61383915f,
  -0.05389175f, 1.43975735f, 0.56021279f, 1.41581035f, -0.10182609f, 0.83346850f, -0.48103514f, -1.47645307f,
  -0.88343096f, -0.36565670f, -1.20522940f, 1.75150132f, -2.23263741f, 0.50175136f, 0.21931466f, -1.39256096f,
  0.36412984f, 0.74717295f, 0.58001339f, -1.55567968f, -0.98726910f, -1.06122983f, -0.84752005f, 1.64551127f,
  -0.10419618f, -1.39738858f, 1.33926702f, 2.48735547f, -0.49328104f, -0.80046415f, -0.16867127f, 1.38801634f,
  -1.57912660f, 1.69102776f, 0.41070554f, -0.08054718f, -0.56930417f, -0.72822070f, 0.45497644f, 0.22812574f,
  0.69237751f, 0.93981981f, 0.51042914f, -1.30244303f, -0.35899186f, -0.95381546f, -0.80572337f, -0.66904640f,
  0.48959857f, -0.38782468f, -0.96762663f, -2.51450849f, -0.88322246f, -0.28375429f, 2.18078446f, 0.13472387f,
  0.94764984f, 1.35549533f, 0.91237229f, -0.00052809f, -2.19616532f, -1.10852039f, 0.70838815f, -0.64904422f,
  -1.55519533f, -0.09420341f, 0.80346245f, 1.06812656f, 0.22133859f, 0.51462579f, 0.64507121f, 0.19812964f,
  0.25009307f, 0.46106088f, -0.15033785f, 0.15613724f, -0.11262825f, 1.96843839f, -0.27106410f, 0.24466790f,
  -1.26245785f, -0.52330953f, -0.15658657f, -2.41924477f, 0.64398134f, 0.25695547f, -0.04216298f, 0.70961571f,
  -1.21248603f, -2.29275823f, 1.18756008f, 0.74930817f, 0.07576276f, -0.91069287f, -0.48089921f, 0.15454710f,
  -1.67034006f, 0.72005111f, 0.62136406f, -0.74311000f, -0.37513402f, 1.83046544f, -1.20647144f, 0.31351563f,
  -0.25087100f, -0.64967620f, -1.29282331f, -1.41021132f, 0.62831908f, -0.34627083f, 0.37553990f, -0.89009106f,
  -0.13404731f, 1.56341696f, 0.46289590f, -0.50484014f, -0.39516234f, -0.52135700f, -0.11853722f, -0.81260228f,
  0.03088540f, -0.74873322f, 0.15581766f, 0.73023170f, 0.31797612f, 0.02103964f, 0.96821958f, 0.26430896f,
  -1.49656045f, 1.08455491f, -1.19353223f, 0.59779930f, -1.08102036f, 0.31083199f, -1.09018612f, -0.93077403f,
  -0.93200856f, -1.11177742f, 1.84103012f, -0.62808937f, -0.91173333f, 0.10125555f, 0.86308324f, -0.97013628f,
  -1.19708657f, -0.54487151f, 0.12960240f, -0.23583865f, -0.27208477f, -0.33064803f, 1.43737686f, 0.26136613f,
  -0.03824253f, -0.13599400f, 0.30769682f, 0.31204107f, 1.64763236f, -0.89277387f, 1.75124896f, -0.86710888f,
  -0.43848687f, 1.23787117f, 0.65132922f, 2.24600768f, -0.41282988f, 2.92216086f, 1.53536975f, -1.07816136f,
  -0.47205636f, 0.05226293f, -0.56565768f, 0.18202563f, 0.14840181f, -0.86549687f, -1.88842654f, -1.14586818f,
  0.14489292f, -0.76342607f, 0.24570850f, 0.22018859f, -2.34628034f, 0.56557494f, 0.51308167f, -0.04931402f,
  0.50859302f, 0.94888687f, 0.52548033f, 1.47079384f, -2.68751049f, -0.58226871f, 0.52030182f, 0.01236839f,
  -0.06167703f, 0.39199182f, 0.20007995f, 0.40171739f, 0.45809004f, -1.93458033f, -1.74135482f, 2.38190699f,
  0.37826183f, 1.07013607f, 0.71351427f, -0.24220659f, -0.91614836f, 0.68500167f, 0.90004855f, -0.10467028f,
  0.52190328f, 0.38620108f, 0.55997092f, 0.23049128f, -0.91348988f, 0.17920606f, 0.52074480f, -0.91071081f,
  -1.50019121f, 0.52418125f, 0.26068735f, -0.68375379f, 0.54773611f, -0.47364724f, -0.43641189f, -1.51380229f,
  0.60025501f, -0.27576065f, -0.11868823f, -0.07753694f, -2.04149246f, 0.28551570f, -0.48954958f, -0.79821521f,
  -0.51454955f, -0.23035514f, -1.61982441f, -0.34698135f, 0.30808651f, 0.10610133f, 0.65002120f, 0.06400989f,
  1.26335049f, 1.00129807f, 0.19045794f, -0.38472801f, 0.77514142f, -2.20809317f, 0.70598418f, -1.64817071f,
  -1.64697766f, -0.66443425f, 0.26100925f, 0.72271645f, 0.40544322f, -1.22214127f, -1.68369472f, -0.04146502f,
  0.37858039f, 0.47227788f, -1.42498207f, 1.14637959f, 0.58808047f, -1.20791912f, -1.60972607f, 0.02728657f,
  1.17916834f, 0.27518278f, -0.14929624f, 0.12897885f, 0.85363984f, 1.00938892f, -2.02172351f, 1.12216365f,
  -0.22065571f, -0.42184764f, 0.78324956f, 1.15618753f, 1.52830696f, -1.00109291f, -1.06364942f, 0.37509102f,
  -1.03998566f, 0.11601930f, -0.42822751f, 0.42501912f, 1.22462559f, 0.60474706f, 0.25876907f, 1.04609525f,
  0.93679315f, 0.00665872f, -0.80824381f, -1.44959188f, 0.16101024f, 0.04290063f, -0.58549815f, -1.31129944f,
  2.21288586f, -1.77847183f, 0.16175729f, -1.68833792f, -0.83563650f, -0.71505111f, -1.06397402f, 0.70824975f,
  1.23574328f, -0.42754996f, -0.01003084f, -0.26237494f, -0.21692827f, 0.39207509f, 0.58588386f, 0.14567219f,
  -0.95471585f, -2.03866029f, -0.54172868f, 1.40009999f, -2.82337928f, 1.14801478f, 1.11325216f, -0.32785407f,
  -0.50203115f, 0.03770104f, 0.06238286f, 0.96066362f, 0.38483432f, -0.48466116f, -0.47912827f, 0.49528423f,
  -0.36066726f, 1.29762816f, 0.84311712f, -0.54868835f, 0.23199128f, 0.39231154f, 0.31778032f, 1.16771328f,
  -0.69050336f, -1.27395141f, -1.18954539f, -0.42268616f, -1.35194302f, -1.17416322f, 0.03899054f, 0.44040436f,
  0.42322612f, -0.01571057f, 0.09733298f, 1.10778308f, 0.75972426f, -3.55113506f, 0.55005038f, -0.64655781f,
  1.41506839f, -0.82389331f, -2.14192390f, -1.49438071f, 0.66808659f, -0.72676295f, 0.85847831f, -1.33747101f,
  -1.01014566f, 1.31556797f, 1.62796640f, 0.00099550f, 1.34156036f, -0.88037860f, 1.38776171f, 1.15161908f,
  0.02497262f, 1.52689207f, 0.39061409f, -0.62115061f, 1.51272786f, -2.64637947f, -1.07199907f, 0.17789777f,
  -0.59538293f, 2.04831648f, 0.75795889f, -0.66849220f, 0.13549164f, -1.75573874f, 2.45801616f, -0.08057218f,
  1.45092964f, -0.58680022f, -1.37043452f, -0.05041411f, 0.35304287f, 0.04102013f, 0.66723573f, 0.32251120f,
  -0.85264289f, 0.63590401f, -1.13202798f, 1.44431770f, -0.65354621f, -1.71385777f, -0.48125809f, 1.24441838f,
  0.24750319f, -0.06070716f, -1.20249736f, 0.05085492f, -0.98837310f, -0.97512108f, 1.35218036f, 1.71428466f,
  1.37580490f, 1.23704827f, 0.69399768f, 0.04330464f, -1.44096088f, 0.77263075f, 1.05154669f, -1.09082234f,
  -0.07921016f, 0.38893682f, -0.63704598f, -0.49560580f, -1.19050586f, -2.12879753f, 1.76145792f, 0.93216622f,
  -0.17821176f, 0.51366234f, 0.08276409f, 0.55153924f, 0.31608057f, -0.25476563f, 0.69239533f, -1.36771238f,
  0.47589114f, 1.74239421f, -0.19013754f, -0.22563560f, -0.83415645f, 0.84067601f, -0.18108560f, -0.40613654f,
  0.23622200f, -0.80115551f, -1.69717574f, -0.70789647f, -0.89906794f, 0.18097255f, 1.90838730f, -0.70396328f,
  -0.18271519f, 0.15312633f, -0.57721508f, 0.34603289f, -2.02168703f, 1.26080501f, -0.85597640f, -0.15927795f,
  0.97410560f, -0.52664417f, 1.25857353f, 0.32227829f, -0.21503367f, -0.97073001f, -0.13496871f, -1.07786107f,
  -0.87036300f, 0.11611038f, 0.32870662f, -0.97650397f, 0.32543650f, 1.72768664f, 0.92355210f, 0.06594033f,
  0.06654804f, -0.30550614f, 0.31666401f, -0.33630598f, -1.51617289f, 0.47439981f, -0.86442536f, -0.81174052f,
  -0.70281684f, -0.48234752f, -0.19498952f, -0.87405646f, 0.97723144f, 1.85637259f, 1.41606808f, 0.73565298f,
  -0.87731647f, 0.54335880f, 0.89756364f, 1.03510475f, 0.59584659f, -0.32226214f, -0.38705987f, 1.88753581f,
  1.37011969f, -0.01336250f, 0.32836223f, -0.47686431f, 0.27093983f, -0.74939209f, -1.65946889f, -1.42521989f,
  -0.37314951f, 1.31410325f, -0.21947263f, -0.12926134f, -0.13988309f, -0.92220223f, 0.49736729f, 1.91291106f,
  -0.19579507f, 0.74035388f, -0.38130260f, 0.38797963f, -1.13388526f, -0.44393536f, 1.33164358f, -0.19420028f,
  -0.20802858f, -0.71083963f, -0.78780603f, -2.16423512f, -0.21534917f, 1.19999075f, 1.24876988f, -0.61367214f,
  -1.95717490f, 0.30494979f, 0.21567985f, 1.07083547f, -0.33498675f, 1.09372044f, -0.42639488f, 0.61776131f,
  1.52802253f, -0.41729558f, 1.00228202f, -1.29251218f, -1.06310380f, -0.07950737f, 0.90233952f, -0.83608079f,
  -0.09254072f, 0.28733081f, -0.81071568f, 0.00490488f, -0.20856594f, -0.17255518f, -0.62827808f, 1.00241363f,
  -0.43397951f, 0.26618743f, 1.24889934f, 2.26451039f, -1.45576847f, 0.35599336f, -0.19373882f, 1.42734647f,
  -0.12573159f, 0.44142836f, -0.24307810f, 0.63385755f, 1.29149902f, -0.90257728f, 0.63185197f, -0.05227572f,
  0.79255027f, -2.25635719f, -1.18098748f, -0.99355251f, -0.76382929f, 0.58392131f, 0.72331649f, -1.11821222f,
  -0.73180300f, 1.71910119f, -0.78250748f, -0.63235044f, 0.08250126f, -0.54779720f, 1.40680194f, -0.88661957f,
  1.92836034f, -1.45369554f, -1.10179126f, 0.29661581f, 1.65984738f, -0.49013698f, 0.37241516f, 0.55010206f,
  -0.05386132f, 0.00825500f, -0.98400748f, 0.19273318f, -2.99315476f, -0.81177032f, 0.80857986f, 0.51810676f,
  0.89625680f, -0.74583912f, -0.98434412f, 0.26884246f, -0.04344166f, 1.84379601f, 0.65590125f, 0.87536985f,
  -0.90699768f, 1.92950273f, -0.01537115f, -0.52188545f, 0.34887058f, -2.22647095f, 0.78626096f, -1.24317312f,
  1.81901217f, 0.94479966f, -0.08806907f, 0.75711876f, 2.01436734f, -0.46130291f, 0.00076139f, 0.20850526f,
  0.65681618f, -0.06650589f, 2.13703489f, -0.47799233f, 1.11687696f, 0.04882587f, 0.47389701f, -0.40720543f,
  2.75125861f, -0.86316013f, -0.54541242f, 3.27074981f, 0.39049843f, -0.07368642f, -1.65125251f, -2.54960346f,
  2.42873836f, -0.84356457f, -0.76042938f, 0.24507461f, -0.62020069f, 0.18913002f, -1.40837896f, 0.55438387f,
  1.37225640f, 0.27329847f, 0.55760419f, 0.96133238f, -0.80947602f, 0.16567051f, -1.41383064f, 0.44014826f,
  -0.49535358f, -0.79085469f, -1.64562452f, -0.23559721f, -0.08115983f, 0.79870546f, 1.15188336f, -0.18769267f,
  0.11545800f, 0.79410231f, 1.49221647f, -0.35702169f, -0.66347343f, 1.51571059f, 0.57003534f, 0.82316053f,
  0.05809819f, -1.65995264f, -0.51296043f, 0.16101432f, -0.27759421f, -1.84115708f, 1.85796070f, -0.60350567f,
  -1.24748242f, 0.68623942f, -0.96331006f, -0.29253927f, 0.26662919f, 1.50126004f, 1.27022278f, -0.72757792f,
  1.82948530f, -0.04392087f, 0.37523621f, 0.10902330f, -1.29389286f, -0.54969507f, 1.04899907f, 1.26516449f,
  1.16455078f, -0.60935223f, -0.12418945f, 0.15933725f, -0.05133306f, 0.47037300f, -0.12268335f, 0.49767953f,
  0.03464437f, -0.13947612f, -0.51711011f, -1.12421858f, 0.22062527f, -0.03106243f, 0.66658056f, -0.98156607f,
  0.53503525f, 0.27505627f, 0.27884129f, 1.03843200f, -1.06741500f, 0.03614680f, 0.07616288f, -0.30042258f,
  -1.85435843f, -0.10330786f, 0.47307783f, -0.77530634f, -1.15950108f, 0.90184456f, 0.37904185f, 0.72441167f,
  1.42799461f, 0.32705125f, -0.23307200f, -0.09253083f, -0.62608457f, -0.28582448f, 1.38659596f, -0.46168467f,
  2.20341873f, 0.06724336f, -0.37601441f, -1.20663524f, 1.92597187f, 1.99222314f, -0.56990784f, -2.17479634f,
  -1.44191551f, -0.01830357f, 0.91258806f, -0.94448346f, 0.12109388f, -0.12787856f, -0.15983126f, 1.56380665f,
  0.13186195f, 0.54353631f, 0.40004224f, 0.18048212f, 1.00579596f, 0.47954208f, 1.34265137f, -0.45272711f,
  -0.32252476f, -1.29265833f, -0.58927244f, 0.24586737f, -0.38272873f, -0.29485473f, -0.59173363f, 0.89418620f,
  0.07425932f, -0.12967354f, 1.04449201f, 0.86027879f, -0.82548302f, 1.17272210f, -0.72388971f, -0.40681666f,
  0.25376150f, -0.07465658f, -0.38667586f, 0.87963802f, -0.52677506f, -0.41744518f, 0.80405605f, -1.08844483f,
  -1.75054574f, -0.90391910f, 0.33973214f, 0.48573256f, -0.89100587f, 0.97181517f, -0.43439129f, -0.18107478f,
  -0.06032333f, -0.66707456f, -0.14674462f, 0.32837126f, -1.17102885f, 0.44711083f, -2.02490997f, 0.87975985f,
  0.09162252f, -0.61658770f, -2.06606388f, 0.22786620f, -0.60778689f, -1.05997288f, 0.03476457f, 1.40703642f,
  -0.54861140f, 0.99194336f, -3.02082992f, 1.33315074f, 0.44933778f, -0.29248142f, -1.22790468f, 0.23365755f,
  -0.92972577f, -1.49140847f, 0.48583880f, 0.81327283f, 1.99836326f, 1.33288777f, -0.96596169f, 1.75293303f,
  -0.04746022f, -0.34404743f, -0.23384166f, 0.84461743f, 0.00318487f, -0.53110480f, 0.34023547f, -1.56603146f,
  -1.26965415f, -1.11093879f, -0.13119356f, -1.90624940f, -0.32134908f, 1.28382385f, 1.14355099f, 0.03937005f,
  -0.37439308f, 2.27822495f, 0.27168211f, 1.87076497f, -0.63851988f, -2.32937622f, -0.81775612f, -0.57093972f,
  0.79825634f, -0.38364005f, 2.13459444f, 1.63570797f, -1.25690877f, 0.05697302f, -0.16744694f, 0.32689723f,
  -0.94640207f, -0.63724637f, 0.42590147f, -0.32077843f, 1.47419369f, 0.88204157f, -0.52062708f, -0.12383372f,
  -0.64824033f, -0.88339245f, 0.68400413f, -0.94556689f, 0.76406747f, 1.11582887f, 1.89771783f, -2.23926640f,
  0.05099017f, 0.83825874f, -1.43565249f, -0.39337337f, -0.53357816f, -0.05957848f, -0.28442290f, 0.71488088f,
  0.44086486f, -0.51117086f, 0.32321191f, 1.29632568f, 0.44216213f, -0.05758675f, 1.13710606f, 0.11761765f,
  -0.03699506f, 0.03389026f, 0.61200553f, 0.33627349f, -1.24898720f, 1.97116780f, 0.37510869f, -2.48862505f,
  -2.47278023f, -0.32015356f, -0.20492534f, 1.25204217f, 0.65381181f, 1.89766765f, -1.61597478f, -1.47055364f,
  0.73993236f, 1.14105153f, 0.39772561f, 0.22228079f, -0.29786101f, -0.87100554f, -0.28885183f, 0.21606912f,
  -0.35569870f, 1.37772918f, -1.46689057f, -0.04063257f, 0.61995494f, -0.05431983f, -0.35549039f, 0.85753673f,
  -1.13698423f, -0.44371599f, -0.36583692f, -0.12276378f, -0.64790267f, 1.39889193f, -1.13333881f, -0.08294217f,
  -0.49466160f, 0.85356396f, -0.22831769f, 0.17029047f, -0.92713004f, 0.23366225f, 0.65140665f, 1.03092062f,
  -0.69665623f, -0.37579435f, -0.45373523f, -0.53415537f, -0.00559214f, 0.95012474f, -0.34152660f, 1.15995729f,
